#include <stdio.h>
#include <stdlib.h>
#include <string.h>
#include <assert.h>

#define NUMBER_OF_LAYER 5 
#define NUMBER_OF_GAP  4 

#define IJK_ver     0
//hard code const weigths and bias

const double coef_h1weights[] = { -0.013868623828892698, 0.03602953640000819, 0.004066380250464186, -0.05995479770011386, 0.00444179373395836, 0.027285040982241836, -0.00664194756104887, 0.044992519836115026, 0.015050801736327358, 0.018971969311539036, -0.026713180117047392, -0.011118665315086651, -0.02284434248084867, -0.017913915156270412, 0.02885762763064821, -0.018962896670166544, -0.00818026160287696, 0.01256302823964838, -0.014704320656343159, 0.048937353239095545, 0.04496187665535206, -0.043296866283597725, 0.0060887384583794705, -0.020759196153587945, -0.013129299937438629, 0.04333344945666636, -0.022862912007186265, 0.026669025035818465, -0.005042604654438107, 0.021999508701818556, -0.02090746802511119, 0.008701509362684589, -0.008760173888154529, 0.026179924183072606, 0.004520600526857185, 0.015976149181831715, 0.06311798313949253, -0.0011166258912285135, -0.04969148069004784, -0.02234006878615802, 0.04628065589350535, -0.03396043507601002, -0.0016309880617247515, -0.031893445703393634, 0.0009013924023692089, 0.01711756232069277, 0.058033543433710595, 0.0009075953416964066, 0.004619542815326327, 0.01898739837550949, -0.026978205010665057, 0.05372220860183986, -0.054053672460372806, -0.010393973760975875, 0.016229021784413433, -0.033339343006807444, -0.05769618551913018, 0.022228456972431074, -0.001334725274555044, -0.011252314286866289, -0.00027856892384932346, -0.017009836536658295, -0.050987252696251664, -0.029138841021184428, 0.05598861240464342, -0.003117509611188266, 0.009660441372334658, 0.03319952308384334, 0.026599212118599596, 0.002494126602901674, 0.00259181121617435, 0.04678004456149308, 0.008325070220048438, 0.011908383043629206, 0.04392083956058299, 0.011681679365547978, -0.0431905523963519, 0.010319461170142227, 0.007105352234421076, 0.030204728632078168, -0.046039250621332684, 0.05172143186516095, -0.007442520322922484, 0.03834305881574803, -0.005147590958958961, -0.008158255746456178, 0.01239302128133234, 0.0053196087778439325, 0.011518807277795752, -0.0239326630421547, 0.0183800898878181, -0.015956855337750032, -0.021476737369682513, -0.018286331959181685, -0.04193451775371683, -0.03471383635005939, 0.040427845619263984, 0.013698566506924508, -0.025455134107896158, 0.037205644114383554, 0.010541198173546366, -8.142237896752662e-05, 0.033939980794083106, 0.04399500612486823, -0.020413253761217182, -0.043694402868228295, -0.052117550745271655, -0.001633052682702873, 0.02208057560245535, -0.021481633100064387, 0.033227760170033156, -0.020090605459983125, -0.007132073942504592, -0.03419459115940589, -0.029566772053916564, 0.035737541598244466, -0.010389803429328204, -0.0021770484834536573, 0.04361875699745326, 0.05214714916568778, -0.003986447837332089, 0.009255728247579755, 0.007600468190891437, -0.07124291804977347, -0.043107698846264926, 0.031277876936949736, 0.020140278185175015, -0.03965214953293205, 0.006051673415721927, -0.0002053311154652618, -0.04037518272545, -0.035122248490389626, -0.06352927705536966, -0.026254593486632193, 0.012002889817970253, -0.06783302481788128, -0.011214356544031976, 0.0030554396031273155, 0.005537130131071942, 0.012625765934555833, 0.0022855438250574834, -0.021382010379924987, 0.025885160901505097, 0.00520305882143913, -0.026439112756398885, 0.031014968978078976, 0.04032826608607182, -0.027300679145066464, 0.02673688420336557, -0.01394303015680474, -0.0028578220055697164, 0.033386735918829596, 0.03282095575358794, 0.05261185448012654, -0.017843952591003645, -0.04724359749506677, 0.04600482544677416, -0.020829958074940508, 0.014545961953694703, 0.021427429802068635, 0.0013440614409184846, 0.043705391613875745, 0.011657241059748403, 0.0007575096055454099, 0.02158572382178933, -0.062373383523310635, 0.03363858291081172, -0.02263558800157123, 0.023835226994875565, -0.02479351564580054, 0.0191137520839607, -0.04598040368316983, 0.01566736764535009, -0.004331584290893834, -0.021899862161933112, -0.012382017535548233, 0.03619326072787233, -0.03393081671307397, 0.02528618225916312, -0.03588894843238517, -0.0636193513074443, -0.012942068286258579, 0.058000102701535036, 0.008531355451272182, 0.003015031816757945, -0.019170102115666207, -0.014471221660348843, -0.009403209470916463, 0.009802725196281522, -0.00272051428959375, -0.0626676947807467, 0.030529663391647543, -0.01695132855331542, 0.02416253399441707, -0.007878537251739882, -0.05443302209629695, -0.013358643362093792, 0.05110630654567183, -0.014107398382297536, -0.033361539985799916, -0.02164197801757162, 0.028177801446634516, 0.03229784895185581, 0.06652950242464717, 0.029265604333671674, -0.003749370994814868, -0.00374163738646094, -0.027635782667069363, -0.018031850202770983, 0.021545176602418566, 0.05980373386977582, 0.022785317038760317, 0.007830080165688537, -0.01357012199115075, -0.06248434653680142, -0.02036407207551905, -0.01567097942132215, -0.0013947499162284653, 0.002710506181738292, 0.013561412615731221, -0.020776822762858433, -0.003396283508366063, 0.040349178414521195, 0.05889243157440441, 0.00943116105768396, 0.009479506756409158, -0.03199267574652263, 0.023516639109953087, -0.0004749335043436631, 0.019415679621893295, 0.020236158268450138, 0.016486107185349073, 0.04223196990352797, 0.04826507151099943, -0.012140402822170097, -0.06202040549394139, -0.006400011602166089, -0.03268472606359419, 0.007181712512463497, -0.0110934271626975, -0.006460785849478704, -0.062976203955435, -0.023660696419693164, 0.02367480398143928, -0.02974191552943917, -0.015255429800698325, 0.02508574127675716, 0.003305121349835189, -0.008190135904855969, 0.030927746246231173, -0.04033325096079456, 0.010610740964351677, -0.0009875425817927324, -0.035751657801150784, 0.06974344850156322, -0.00947959985222937, -0.007942978487102549, -0.01943292046480674, -0.04155256191427632, 0.022319081990631578, 0.058428728262297135, 0.04267692546364248, -0.021523122341769497, -0.015051437026240119, -0.008811420964978865, -0.0017874390610566411, 0.012284934131843422, -0.04143405925488125, 0.04885725658912987, 0.018073850430203462, 0.017565959213060756, 0.021349115616679494, -0.012761134508530005, -0.05829555638971908, 0.011382995480282149, -0.0306333853219338, 0.015935700399983727, 0.04950902372890178, 0.03628586307604556, 0.014085697559279098, 0.007248144146652466, -0.008926567878149416, -0.05053403392399386, -0.022385392605050743, -0.004647354260584289, 0.01274423461684456, -0.04192531488128295, -0.02066750413602945, 0.028809236543549083, -0.014809023579199504, -0.004746578242357079, 0.005588182353173982, -0.004616684080962725, 0.031157225361890112, -0.000789645962410663, 0.04000482456458101, 0.06223337195192575, -0.005319462395389754, -0.03451995719278165, 0.016316183734994077, 0.02959225833551475, -0.0262771533292822, -0.005027516486716665, 0.0004885291380938516, -0.013236803547287226, -0.01742372110144994, -0.02005348863587922, 0.05832812833036953, -0.0007729641447878439, 0.022613281765796085, 0.06895185853844418, 0.016495138035880336, -0.031166169717597086, -0.0163715688266708, -0.03650561166181848, 0.048268143458974955, 0.0005394350232956391, 0.02269812799556141, 0.004768081626168302, 0.01933119269759717, -0.020004848754925992, -0.025234716786491394, -0.010642063966085495, 0.0050221776838799085, 0.029216387997360153, -0.034126758874554984, 0.04373066041182125, 0.010881345424489508, 0.025094527974915265, -0.056546505355917834, 0.01630525250132786, 0.007892960656030503, 0.02268635339603538, 0.050314985527632035, 0.018809436319350777, -0.0010924289253385184, -0.01007262803983202, 0.06813582739908074, 0.05566936180063663, -0.022350724659326197, -0.0013409198012215458, 0.018922210721759276, 0.041303424367943334, -0.03981311786510882, -0.009241820249809395, 0.029828576423424125, 0.04611599943848828, 0.0050950622191469125, 0.01224350045823559, -0.01850613181039049, -0.05230165549028795, 0.017444448857434004, 0.019357602877371215, -0.046263807929602094, 0.011628475863218708, -0.005731047027909513, -0.0078084002692666655, -0.03415420312251397, -0.005906821760723651, -0.003223973387336359, 0.029831703754450472, -0.004663566660909926, 0.030331081771263802, -0.022402371489050155, 0.004317489648980766, -0.062329380955407264, 0.05068741025042071, 0.001976583017653757, -0.020532972391317433, -0.024407630337860267, 0.011925681222563331, -0.016703254159472294, 0.0320545376626943, 0.012976186033917732, -0.014264803636013465, -0.04439089795352697, -0.025516462013953887, 0.014378214010785687, 0.05008931554289145, 0.00241476120774823, -0.04984885395179536, -0.06289154178404581, -0.0551622899023914, -0.00032932074455324444, 0.042226739351711055, 0.01354835826082927, -0.016773601079645387, -0.008044138316028746, -0.013933452049834958, 0.02919646271110203, 0.003349655512853758, 0.04148438372311373, -0.03196608993236327, -0.02447682067670431, -0.046309157459501746, -0.05675053208567105, 0.02716442868321011, -0.058894165333535024, 0.0004114904290178298, 0.029330030373341268, 0.06515620021757819, -0.025930341555704516, 0.009814729856144448, -0.02672704201233742, 0.04685441731037174, 0.03781544702181608, 0.004998872557558837, -0.028025872657780698, 0.01716833478264729, -0.03174181634288753, -0.04690443197905982, 0.031338215734898034, -0.022836316811624905, 0.029285394434123285, 0.037564090318968665, -0.06868355037912346, 0.02040619247988457, 0.0010949438688476574, 0.02694108922437487, 0.054512027573127474, 0.02056034224831543, -0.02358146583623855, -0.00244398147195318, 0.00018916351727992818, -0.052876809364124894, 0.001404740509651141, -0.012115162115265395, 0.023636020278500702, 0.009042634543038044, -0.048279989890063574, 0.00805622250341658, -0.011624075857798824, 0.016718280654239477, 0.012311185930428735, 0.0030255994440751494, -0.0016563943192327434, 0.004709628477400819, -0.06350039107602251, -0.021700183462707103, -0.06283719749104225, -0.02703620626250813, -0.06800329677073261, 0.04253175115669965, -0.0015809471799597757, 0.043830352789547236, -0.015011178614486555, 0.0024985559603862605, 0.02674239841843552, 0.016275202609098878, -0.008533751395432982, -0.009764304980047317, -0.014405776453502534, 0.04793276750512773, -0.027673436404542808, -0.022902664956499764, 0.017222174130054266, -0.05096479062781195, -0.032898275100408325, -0.0223273814818359, 0.05422083261940312, -0.009563411049811179, -0.004025929818299263, -0.044901553651394484, -0.0019497078932927431, 0.014325891152004755, -0.028657958892142215, 0.030382368488745422, -0.01014994364655016, -0.04546081571058544, -0.06541154659464342, -0.006832659573441595, 0.04642965531288429, 0.0585681976286671, 0.018108798510363636, -0.016042233314712863, 0.0385440977261729, 0.02058130490098756, -0.052946298503291085, -0.04915214447001659, 0.014854667376022488, 0.028345660811720942, -0.014040162775541805, -0.04626699403249631, -0.04327925911687785, 0.0012197182359437193, -0.004234791957214954, 0.020253911059645587, 0.04360585302123698, -0.006029853831186649, 0.04206813932044912, 0.030208394767546807, -0.007815651835552532, 0.03764491877197364, -0.02336799695014463, 0.047445641291928575, 0.030788226943514643, 0.019791263834026268, -0.07080854722405124, -0.053625158372612405, -0.032971783563416776, -0.014180403142549602, -0.033825300468026225, 0.022683994434974267, -0.03101565528929047, -0.02938244753665028, -0.045587707286026895, 0.025371017292640605, -0.015402857947363666, -0.047052343173379585, -0.011410225570628502, -0.01667101124165266, -0.01002078914735111, 0.013576085882926353, -0.0016625513034989807, 0.05512034094612725, 0.006960691334580123, -0.06731582008224649, -0.04013726445477849, -0.01697177209298983, -0.009931711623593258, 0.050952113714157164, -0.00020610872647892008, -0.056174413570664355, 0.037337809360724186, 0.01467861130114149, 0.004000461706814015, 0.00807574163149958, -0.006058630262750192, -0.012592914076647171, 0.022530036102554902, -0.033138666345604244, 0.007715343882124683, -0.05434614523540993, 0.019486978732195084, 0.011773440061567888, -0.03961204417991343, 0.02338868823689557, 0.02088496171779031, -0.028870738823771048, 0.05778669482284119, -0.019878848397688175, 0.011044783921532365, -0.008240208432490943, 0.009870008344241902, -0.0443946518234117, -0.0013720579946763867, 0.046971705573590136, -0.014615358093538363, 0.0007994054189560023, -0.01680458355014453, -0.02391637770232079, -0.06707358895529054, -0.0015090538082003, -0.015563754510827272, 0.004146175899612028, -0.006572719745648997, -0.030433802615787042, 0.021918252931460703, -0.0075351294097417525, -0.018389809149164275, 0.004334097496295138, 0.028408762202432335, 0.006775537115092028, 0.00510888834292954, -0.04899011031688513, 0.044115994685195115, 0.008862578803858275, 0.062017173449335966, -0.021801868736200575, -0.006539517868688942, 0.06757448763204937, 0.003304620934351343, -0.0355683072112641, 0.0454029586806069, -0.04168271354405817, 0.023415280997341525, -0.012345353108299659, -0.023596560017581095, 0.011372876160233365, -0.030037953033463717, 0.03747794286677558, -0.04362640995612504, 0.03455812384819524, -0.039707423961938215, 0.029488874483923917, -0.003673206931653636, -0.005403531764060222, 0.0077441942341397296, 0.03176735513853246, -0.003844116408189972, -0.011812560539125513, -0.043070937882921045, 0.04468666264897057, -0.02565761681903659, 0.030619610689499963, 0.04849030926024162, -0.0046105127186825525, 0.03807515395611926, 0.04419367424598704, 0.045838332939200144, 0.01911109188510178, 0.03360106727039004, -0.030284458521693234, -0.06480296909418197, -0.0074011168461428955, -0.0003587771549294038, -0.01517943219811874, 0.0007226166105869879, 0.007756421570161086, -0.015010972631361238, 0.0489761534671509, 0.059298466437166776, -0.004828687019670356, -0.013804680257218607, 0.047796085907878, -0.04224814535684005, 0.0064002687526379205, 0.05083293808178219, 0.007758035405690321, -0.013554137829722495, -0.03893850583868305, 0.0425524550839539, -0.046015202512253904, 0.03837141314111919, 0.05270805586370416, 0.032638185224328334, 0.012614308161521084, 0.06904824441451358, 0.002330300095502018, -0.03663795012824466, 0.018777608144067537, 0.01616701930645082, -0.002257296578628634, -0.009060990480519173, -0.011158949003495598, -0.03835295066143771, 0.05681444900491732, -0.017309772157972705, 0.025124190865491274, 0.01591278483752161, -0.006699639355693677, -0.03592902631825008, -0.030051535903141247, -0.0021646247116247695, 0.03157552199712634, 0.030755829405986, 0.037413367561772395, 0.0288865455227455, -0.01039177926804111, 0.00546008419986569, -0.006029556955323211, 0.025364418987819642, 0.005439188868748064, -0.0037583589854616574, -0.024812603365761632, -0.04421665412170912, -0.01873979470169224, -0.01603734121005093, -0.013159417673802012, -0.034330998114130186, 0.0004953912339689279, -0.049040538035377786, 0.05151884692434868, -0.00488071524006834, -0.04355169608992584, -0.021747049767888556, -0.0015412654145584084, -0.02091758671577665, 0.01470941522223081, 0.013458286844084972, -0.04041817830471741, 0.04943990090317517, -0.07065461369470129, 0.02182452987275978, 0.007577069958177679, -0.03814149293825969, -0.024773565172089552, -0.044409973686544646, 0.04658232042208039, -0.0028301290542697755, 0.02249984661677077, 0.018847364810451142, -0.024517690157099262, 0.01850881078945366, 0.037791545793856185, 0.024410250227706015, -0.0034451802303752223, 0.018662311602558088, -0.013674229619560512, -0.033992151478590305, -0.006693262757007136, 0.036983029184611334, 0.028587615695822563, -0.015818070671654947, -0.06410308721480963, -0.05327133971684636, 0.03932110820772498, -0.0666728734232349, 0.05160013146550878, 0.030972974949457673, 0.057253913758261006, 0.037662557989917335, -0.05029444688367766, -0.013331387323127915, -0.03235370316630881, -0.005118659760244013, 0.005711950268966389, -0.022196588020263915, -0.03513244689502197, 0.025250966741059797, 0.055207697732507, -0.04032681932079945, -0.054649661944255384, 0.045095319111581135, 0.04926245448970891, 0.0020639313690672626, 0.03843531077471105, -0.013968131201427142, -0.00357459619283563, -0.02887411653749155, 0.0019470860142899438, 0.029068388397605463, 0.0048948345006036365, -0.005381454722146645, 0.0106496755783344, -0.01326260241527447, -0.015906213284003948, -0.017004374393140603, 0.028103323851860762, 0.014594293149001904, 0.01358900314942476, -0.04206123972542547, -0.007025469340696589, 0.05570392863647158, 0.0034427642046508922, 0.04437552160891651, 0.050787564903030116, -0.000398729743495525, 0.011688060229084918, 0.029162144384730315, -0.024041251295148905, 0.03407432496351782, 0.010514792753406436, 0.006962796905360305, 0.010502890651131988, -0.009488925818122801, 0.03566150752240904, 0.01757800913675361, -0.04797531521567898, 0.018764769285780483, 0.018989192936215933, -0.0018363156555109498, -0.015940268355362455, 0.041248619759728225, -0.04813458212043051, 0.020690505104554027, -0.06349904284041345, -0.00902831087984413, -0.034468253635337155, 0.034580567879734514, -0.018073158078257354, -0.05101791121047396, -0.0015480937742933369, 0.019773565179403766, -0.010653525718999583, -0.026718345326059503, -0.0002754928631789225, -0.00876657555811705, -0.020146933072793267, -0.004274152541198662, 0.004099341187829969, -0.035078981215349574, -0.010798340116775305, -0.03634677298798714, 0.05555675621873437, 0.02106443401624158, -0.025648948546373326, 0.04627662258993939, -0.04008558562123333, -0.00671288888759813, 0.008550910952298683, -0.007212765354466612, 0.009506375990970192, -0.03964841925454948, -0.008761171106210832, -0.0200254491308663, 0.05069162590684402, 0.0014492714249703155, 0.04780285306906381, -0.06797825144376445, -0.026905135147011077, 0.028698767346149394, -0.019007462404831463, -0.008187309120019198, 0.01995057066163324, 0.0012615827134956248, 0.008756911075853649, 0.01713901202284729, 0.03598935171758407, -0.01490110570441768, -0.019716159725351217, 0.05801705568620395, 0.01925820819791146, 0.007857610551431719, 0.03162259655734372, 0.044379772088250745, -0.04703741561893553, 0.045730730871326786, -0.041424058448424735, -0.004531076725424425, 0.03863043612637739, -0.0591951356535485, 0.030103595142653976, -0.04257364534317578, -0.031070264244733914, -0.040454772985203925, -0.015528782806973633, -0.00014019068605503957, -0.012841659922158166, -0.007224164506707825, -0.015600619710331517, 0.04284141832196583, 0.006748547809633313, -0.00858602810266823, -0.005477360670234951, -0.04550783700728546, -0.018766067779112484, 0.014620973363615324, -0.01755455315182324, -0.012652383882037613, -0.015918617934062292, -0.04237735865127868, 0.006307265510136224, -0.0323747859563428, 0.018669685670172635, 0.05889142210392053, -0.040889115956235955, -0.03664228899696788, -0.010654640972136661, 0.011695542318633508, -0.010218892070102032, -0.016323816523894343, 0.02108693583983382, -0.004418548924378671, 0.048322288651062605, -0.036652726781249395, -0.00862620885517953, 0.029352947969561314, 0.013050993505012268, -0.015811155738704723, 0.006495543323058808, -0.0008101895845983079, 0.005446204510699164, -0.005469892020552773, -0.04991875607814711, -0.005901687469450371, -0.019732952663922637, -0.02536641899902009, -0.005203525363882428, 0.03400581464312508, -0.010953865544378294, -0.018977583351091436, -0.05589968237184357, 0.02783633164766483, 0.04003003142828657, -0.01396263842187287, -0.027839933738832295, -0.033241540305630944, -0.009570573656062193, 0.06292515024514934, -0.037543923385077754, 0.0006874403447484286, -0.0198874305514335, -0.009166717116474344, 0.06635494277800948, -0.01755109746111504, -0.04107624109125142, -0.016539057228894347, 0.012625086665725834, -0.02456088830883007, -0.011999750398069905, 0.02957913599915079, 0.06169551960573757, -0.008998649165690693, 0.00892793604546501, 0.021084850986130544, -0.06588599468709216, 0.024288540468040735, 0.04852615381758777, 0.04482165885116909, 0.008152907129596099, 0.015442042890853745, 0.05025510020397909, -0.028404796675675813, -0.04571515991726029, -0.01530836289516233, 0.04239163534548185, -0.013589870127594482, 0.0009232839014955928, 0.014313834894110243, 0.04951049861067561, -0.04785195058402673, 0.017411393591246535, -0.06969578475119477, 0.0006623271712231938, -0.013176423832153153, -0.05414366300102222, -0.022382820556339122, 0.04642454461726312, 0.045461669189924094, -0.0029027042104044437, 0.0011902350346038564, -0.003403688446666352, -0.04170193556120875, -0.024551029539629243, -0.011074756525391749, 0.024447178247717152, -0.019795067407969064, 0.04110493516962438, 0.022352785390739777, -0.006367025869065368, 0.014666923712289144, -0.003173669934129384, 0.01787144970380412, -0.05374248221410022, -0.006224192909828568, 0.05337700006904569, 0.008538583440182467, -0.012205709809899221, -0.02370335392934527, 0.04680546151158105, -0.04753674098706807, -0.011537712700427973, 0.015173080110882663, 0.029495458611547048, 0.01629613712441517, 0.005904400873339003, 0.05926081240689701, 0.024318981271206807, 0.0039230206794407035, -0.019600793921601696, -0.01910936874130274, 0.04004951442995433, 0.011039561689358532, 0.0008698315793497338, 0.02922487936072935, -0.016209745826668603, -0.003612868826915033, -0.019283727540680404, -0.03359219819047227, 0.04798043799792838, -0.0701953433682012, 0.049109106994451354, -0.05827672282955252, -0.02841729560819996, -0.024767194063566995, -0.03594909167714951, -0.01608512557868676, -0.005182342766824805, 0.005291494647765947, 0.002288985072022031, -0.02776321091918807, 0.05151394750141364, 0.01444592293883316, -0.03796574940744988, -0.0036924811022999854, -0.037210371651961796, 0.02802884766576543, 0.011366733989750112, 0.040299740249149583, -0.019138980410938203, 0.023117806000328534, -0.06558070321099141, 0.016383383310352845, 0.0021770081320762916, -0.009443794614489846, 0.04120543929814559, 0.061566508077385534, 0.012658255923490671, -0.012525788182182423, -0.021095072323454263, -0.057272957031228235, 0.035444326862334695, -0.005990838144201779, 0.003449448011706758, -0.029438788439994996, -0.009809723934442321, -0.02795547567968572, -0.024735739793059104, -0.063436906064215, -0.014233822784289495, -0.04171800393796922, -0.016021181245254902, -0.006137150424784807, 0.016568980306009132, -0.053079971928586614, -0.05879236444674493, 0.009783879340457012, -0.004833164741265811, 0.01087304871862838, -0.05467547107618133, 0.007750408748164139, 0.011417854816238119, -0.023500502297696305, 0.04810241597447644, 1.5313803694843513e-05, -0.026268220779465643, 0.024358339301542555, -0.05861443541355554, -0.02390355202646701, 0.004190040088752806, 0.03836649685886916, 0.01859500309661874, -0.011166215397260194, 0.01802678410958057, 0.05661765179522783, 0.0024102233255232446, -0.014845869602119866, 0.02638106504054686, -0.01634411369876158, 0.018025334819718658, 0.002606175471976948, -0.01053824299083883, 0.03797131062102239, -0.04441880691405314, -0.04214350909684384, 0.016695785312928306, -0.03907124708642797, 0.030584113893711608, -0.03995577146560891, 0.023088763006383697, -0.04188839070416406, -0.0613855815806601, -0.06336806068079134, -0.05396332742168265, -0.023516320942698222, 0.005035974160241503, -0.03491144446123793, 0.03319817518902049, 0.010006385793115203, -0.03936192023782185, 0.02756813405662173, 0.022694305130878317, -0.04804499781009749, -0.02269529673557272, 0.010363551635160196, 0.041613551647012886, 0.027006280090184246, -0.02431509081217959, 0.025507744586068432, -0.03501796653332981, -0.019070473033915646, -0.02631227237253983, 0.00047899830043470924, -0.023722495439785753, -0.04591900508257603, -0.06877987664991238, -0.012303500813457564, 0.02715460304184624, 0.012372297980105394, -0.0391052092034454, -0.008616751113049029, -0.00111476007992331, 0.052287705928359365, 0.04310689235295962, 0.06206064367440878, -0.029760037967295053, 0.0687534141239945, -0.04634820414171929, 0.03511174954480689, -0.022840259352443246, -0.00024742953297193017, 0.052840811176578684, -0.054810350196988364, 0.020367105280187273, -0.029687996985841632, -0.04033040325802065, 0.049353458939400546, -0.03843409380096976, 0.01988617316836437, 0.0012562470791126971, 0.01255615758719777, -0.015220818088066117, 0.010567694940999467, 0.013899751307526456, -0.05249752150071759, -0.06699138822370382, -0.017222785085966294, 0.004080544270724848, -0.03412725268206788, -0.05515248355914847, -0.057247388499722704, 0.0001322879854167648, -0.052271121128017364, 0.00036640981196063696, -0.01837797738050646, 0.04275963113130876, 0.05221746310504474, -0.011163028795225082, 0.011114528630731911, -0.014431614568767076, -0.037269857412786614, -0.03308624399853005, -0.035269516004745295, 0.04791606092570839, -0.02744570585930864, 0.03455854280144549, -0.011953391146768527, -0.044682782078096395, 0.026593979092752185, -0.040791934562508625, -0.02024817736187957, 0.010026506617429232, 0.013483700862564906, -0.02836359429346209, -0.003657301323515758, 0.015980238126025583, 0.023677978061745972, -0.001005829252823339, 0.04041205566264234, -0.007963850791537892, -0.028394389014290734, 0.023951781371461735, 0.0657748767477998, 0.031219867376641734, 0.034841152357911395, -0.0359065960474748, 0.034134385732525994, -0.04106718086767581, -0.04833415271755708, -0.00011001634453642402, 0.04955781690587991, 0.01265706656025702, -0.05679509565840637, -0.00676055353018497, -0.04979730019231893, -0.027096604582375367, 0.00015479913431944983, 0.06573109792921465, 0.03676838738396221, 0.04925703167785785, 0.010943437986254452, -0.047742443207266165, 0.01012700994642524, -0.05926769341181951, 5.732774408359248e-06, -0.010690618120564098, -0.0047203069404332595, -0.005777401071317295, -0.014210160507813464, -0.039933616614311385, 0.03939938828393234, -0.011477631214899161, -0.010331926781128667, 0.017100210459339453, -0.0003414000426739014, -0.010606434209651804, 0.011971031751918722, 0.037103674438453534, 0.05958790326123185, 0.031114131538446617, 0.04435163659871907, -0.0032700669859581886, -0.002254648515889876, 0.039661740972325686, 0.024861807280370577, 0.038538289042176405, 0.015666948889791726, -0.003029405052435409, -0.014612526369826446, -0.0015161922157644716, -0.0004251476786599293, -0.026003662974296963, -0.019707285371208205, 0.043810278307708735, -0.04528561403927541, 0.0077591051297331995, 0.004210678206084725, -0.028135173455184265, -0.014219665719107263, -0.0009551440635747033, -0.06571593204104359, -0.03793817673784655, -0.020506830045006197, -0.06369629918124572, 0.023786019875233714, -0.0042921410232869646, -0.0015084338978994642, 0.008133810859494913, -0.04915607552345889, 0.03845473871654766, 0.03497707689344829, 0.007573083828287363, 0.014276074896386213, -0.06903055311999304, -0.008032949108830062, -0.009005201056408983, 0.06509640108699888, 0.007133956150010469, -0.03485641430676597, 0.019833610459693212, 0.026536737412008203, -0.017287569116264456, 0.027645892812348423, 0.0015501674941680924, 0.029440201103789046, -0.00976364449300423, 0.012512022503959153, 0.01281944987614963, -0.04629186866208995, -0.020468895172724322, 0.0073470734297896535, -0.000561116467086004, 0.03555419194753284, -0.0395002145864955, 0.011409424760166376, -0.007556749384591694, 0.004069940059417679, -0.025844079598686256, 0.03765370681770643, -0.004562822504119411, -0.003977256180984067, 0.023326015417176063, -0.03633452148766715, 0.058385471404384943, -0.0160132007504517, 0.03557287284008392, 0.009921226176289981, 0.008249275348821252, -0.03468666909900125, -0.011643038920856486, 0.003921372762674254, -0.058415025356772364, -0.004738363745184197, 8.876106584509076e-05, -0.005206131845466799, -0.023627930524290817, -0.015957513860669813, -0.04928015513239317, -0.023854025783024424, -0.0038338378472882605, -0.009021672263446185, -0.06757846919140349, -0.00433597037368538, -0.0615890942818886, -0.030204921889696413, -0.013256011149884681, 0.022483372275584373, -0.00352513774885783, -0.03370670833532792, 0.004369129922967923, -0.051638321610868544, -0.03036623655221573, 0.07806276425051493, 0.021286265999854535, -0.012455734181397754, 0.024479702442829245, -0.006271097461637056, -0.026848185284323894, -0.024553361574141185, -0.031631061725535536, 0.03141446282268657, -0.024553767689010245, -0.054975785427761506, -0.02791181462610189, -0.015096217695470024, 0.03375571436325659, 0.020121895518200598, 0.026468326111826597, 0.0092627200037267, -0.014515955112553562, -0.015776804561380718, 0.03963252216388571, -0.007054058575860108, -0.050369906290006386, 0.012419967011249883, -0.0021102717223634077, -0.05534128356391302, -0.005666584947618802, -0.01611822326046363, -0.013157929239093744, 0.05833551677307219, 0.02911459570648888, -0.010258729860739108, -0.027433246243936383, 0.02667209030155686, -0.020955365212046776, 0.02994743960223931, 0.025417270096623906, 0.03218540190654551, -0.020477091879487336, -0.0383710035258976, 0.05217595793752427, 0.019170193937204597, 0.037897238456084247, -0.01953486808786991, 0.005726262525748963, -0.025051554526514332, 0.026921816965208137, -0.04871957915463048, 0.00026069165855593474, 0.01029124886257279, 0.029424058123545246, -0.05400972624814575, -0.01649975061448316, 0.01772691069733954, 0.038880004620571125, 0.013134250070028239, -0.06435150368647395, 0.018867732867322018, -0.03227240478418041, 0.04523862604720695, 0.007705672566735261, 0.002598429644266405, 0.03378669649444333, -0.03263389453333152, -0.03161757378926722, 0.07377451844967063, 0.026575358767348806, -0.03453795140536018, 0.0680140808767568, 0.04061718842155397, 0.024652744803559924, 0.021759846970884202, -0.004736057867655796, -0.009276743929822515, 0.08697895642153866, 0.013188554697113986, -0.0047031747014135445, -0.015268652775620083, 0.017304854674246115, -0.021912091795400192, 0.06454268938897202, -0.046987662170966095, -0.0025191880784379357, -0.019988470972511257, -0.019271985362502544, 0.02196138337164062, 0.05566964994017034, 0.004063258532853577, -0.030782729617099207, 0.043581591788158645, -0.03525688106266947, -0.05336584298128735, -0.0413571048392686, 0.006524967080124168, -0.005713961245817661, -0.0041990463234879245, -0.016274243280312087, 0.052318950556986314, -0.002607842347569333, -0.0302235253675184, -0.028590661251995778, 0.0001478082772697319, -0.002093802828582773, 0.01573297543249602, 0.011500817328107536, 0.0014832725173959606, 0.05244386133232139, 0.016480464016918744, -0.043268937624346214, -0.020822480669036653, 0.027908660034673023, 0.055804266209656256, -0.015537880405768001, -0.04783792772883536, -0.035752086336511585, -0.0169907265912446, -0.008802950659244094, -0.04062564894527483, 0.0700325040337587, 0.004411996780203657, 0.03908842350615075, -0.0049250015797123155, 0.034047717987986136, -0.024459084007877475, -0.031567057668639605, 0.004702179915148206, -0.027712600372006003, -0.008878021294354601, -0.000890563799688943, 0.005349890099133422, -0.012891124285045253, -0.009472878585270253, 0.007340266880205293, -0.01633345691065167, -0.010737606463037862, 9.200911824386418e-05, 0.032231614505292765, -0.028687107300826308, -0.006355728833995015, 0.03930136185551597, 0.021897512924743512, -0.044092413428609756, 0.052364610171379396, 0.02300136317709907, 0.0395063665464558, 0.026353599258053462, 0.01458300195046887, 0.03539914999496866, -0.0630026455379302, -0.011137788489636626, -0.05666941465554881, 0.03970812467276482, 0.033632640836846556, -0.018024920401227346, -0.047044067487019635, -0.05159193107805057, -0.002573352565381388, 0.027899734760160968, -0.019432676125633413, 0.04036065003565856, -0.00600196911625698, -0.049925294297876614, 0.008741105281057555, 0.05734381761208785, 0.016227600916916236, 0.011660828412286151, 0.019162892406776582, -0.0356773493138556, 0.014872862174320519, 0.020732051913995023, 0.0978081202614334, 0.030201597562493646, -0.001521618451164709, -0.015061365780571366, 0.01403194864332252, 0.035676177679412314, 0.04162641412545038, 0.003038598196736891, -0.06348713533521302, -0.01936257012576212, 0.021262663643645117, -0.02419473213011976, 0.07108651692669143, 0.003460681189780566, 0.01770579634774868, -0.018782063274140507, -0.05298088605555179, 0.0027242725350437227, -0.01732552996308225, -0.0007571317462763131, 0.05194834086104656, 0.034394556705451086, 0.04056916239348193, -0.0015531512962716554, 0.02245733012242625, 0.0517508872532044, 0.05822876004545925, -0.05817670058245095, -0.04914387429321426, 0.019253588948110717, 0.05827240994462511, -0.01216240276332438, -0.0029099475437483306, -0.03229484047663742, 0.022920682798756246, -0.03313624413488852, 0.0005307367193896985, 0.07298320180662526, -0.053982515911084446, 0.010478674367384368, 0.012431966219642971, -0.06163495661818258, -0.007780468470145113, -0.05787858694517178, -0.0162251066948171, 0.04555626736821739, -0.03109385662060239, 0.008539325752761683, -0.0769032895294713, -0.015541877876108749, -0.06329838078474362, -0.027347123375118534, -0.04036842160856712, 0.015605844952582031, -0.030294702639034818, -0.028625718389943874, -0.017952356568145797, -0.0005074505627542369, 0.04797026885968845, 0.02477923753877953, 0.04012052036080095, -0.012559945159212193, -0.009658974821596302, 0.008284721535381664, -0.017854135275450014, 0.014931245514209917, 0.00020987051074560452, -0.004982377470894076, 0.03311285652041383, -0.026314636801861257, -0.05061885481433692, 0.011877185660428485, -0.029320749215636408, -0.042548114968410114, -0.028606839199005567, 0.014547923757416738, -0.06787218884057696, -0.020236474916515965, -0.04524891559033613, 0.01898992881813921, 0.052126295723804734, 0.029820362948091438, -0.006433383677489964, 0.0847555507849438, -0.029453649250838262, -0.07960373926667777, 0.005151081165413883, 0.009634029982864122, -0.010731176908133662, 0.020255735565874074, 0.011800108933825089, -0.04812602176598573, 0.03872868970797122, -0.019899861982228834, -0.008330839914839303, -0.059262578394805365, 0.10175241711292562, -0.06223543294830724, 0.0004090990939145002, 0.011040265333379831, 0.03863781887367969, 0.006331233994758257, 0.05841728115881713, 0.04394505468694608, -0.002610544417722405, -0.03920860087509568, 0.037539213135727834, -0.03704459843110939, 0.02986666195233563, 0.002021369685213965, 0.021913642110194004, 0.048965965151858595, -0.030249339857143145, -0.04088719323610712, -0.015421074056138035, 0.04154157110314125, 0.06320947568310083, -0.03397803680957474, 0.02184586908995357, -0.018832998097561678, 0.03774463415840367, 0.0006703373160204562, -0.014445396391604363, 0.008021043846880203, 0.06227862336051173, -0.022525032585961512, -0.023213712479224685, -0.08021977816143921, 0.09092521169380079, 0.019307776859532926, -0.014284685096086023, -0.016420871816008167, -0.008773254930358567, -0.02859248638263926, -0.004505824184077405, 0.04644902325429574, 0.01432502324226547, 0.03086755166587612, -0.02245071636748982, -0.010501140003648319, 0.02754076412120074, 0.021182523647874894, -0.06585271764610187, 0.009252440637247656, -0.051999868999154916, -0.020514789007197033, -0.023849498168833104, 0.016468962427139255, -0.007209800839052012, -0.03195436522486822, -0.01239876307497861, 0.015249022274665238, -0.026638448980186403, -0.009630002377593278, -0.04313463868502508, -0.04171822221120574, 0.061049338148891276, 0.057989809282911316, 0.02389848632050809, -0.003865899984960357, -0.03729862457700226, -0.062372127403361594, 0.016435524886052245, 0.013188479141999861, -0.02886321164258261, -0.025770421592988375, 0.01090848358233182, -0.05888997445324461, -0.02603134397035071, 0.0015526031798292319, 0.020085350449131723, 0.025329256307518148, -0.03428230687699814, 0.05629191385195907, -0.022798433989056604, -0.011741226321639636, -0.014692712865614587, -0.031612108817251565, -0.058189802996650594, -0.016877988539219232, 0.006532101886088263, -0.03182835526590538, -0.039122107335236626, 0.022919834589565494, -0.0454693259201219, -0.039935435071590523, 0.056527053655227325, 0.008986765821431453, 0.06403721946453832, 0.0005191805887516185, 0.00951397353912245, 0.03377520993537501, 0.0290336603687216, -0.025344696108649888, -0.042089711654989315, -0.06734576259951951, -0.00021912691992304845, 0.010839955118095023, 0.07981915579664828, 0.022443068016600908, 0.01646734105430652, -0.014418181764100304, -0.021247241400247793, -0.00107262321370996, -0.019985955882186716, 0.0359226540439334, -0.015030394460931164, 0.012460471734589047, -0.02782730409043195, 0.0027706061415558665, 0.012124738947023973, -0.04779321674895159, -0.014413054725652397, -0.002819365527083618, 0.005985448810808295, 0.013433064435898118, 0.02226358212402158, 0.04594120999959526, 0.0680301949922682, -0.030220382476329917, -0.029182830678157055, 0.0016000252477270955, -0.016658682694624463, 0.03317864602840942, -0.04098480435337393, -0.03964546572682541, 0.03900933917330169, 0.062205269198440424, -0.023656719944550614, -0.04294644029485748, -0.04108825305685741, -0.0022712616371049037, -0.021546947688016932, 0.04185805766430142, -0.02520666081659946, 0.047820355532767, 0.001372993055119111, -0.0071046040945775876, -0.0397401398585522, -0.008445871036429964, 0.006232619052811748, -0.025128672805993676, 0.002060914635821231, 0.013040743017396286, 0.013511901013942205, -0.00970698175078788, 0.004949633423306093, 0.05256517080808094, -0.01569939600090319, 0.07017473650849303, -0.03959631680067723, -0.014887996799045757, 0.03337634175002455, -0.06251559343720442, -0.02671661204819325, 0.05053573814073184, 0.016915850073747584, -0.015598852486513617, -0.007179766067903985, -0.05249423610990969, 0.028569004605576646, 0.05855895300569755, -0.02266037922868414, -0.007921596341582099, 0.014133589989419023, -0.010460404439369986, -0.03075644570065305, 0.010048406329540167, 0.01520878031569387, -0.04900641200224521, 0.015558811485423762, 0.03467200689111791, 0.03313754963641075, -0.032189076127848604, 0.003913502749858189, 0.006092847356562247, -0.010416397997293976, -0.010769820329485895, 0.01686232150431925, 0.06828232841991744, 0.008330978884143981, 0.052972979981708114, 0.03564329677417654, -0.029135138056325578, 0.037905110341446495, 0.011480685029242392, 0.008510263990213285, 0.04065849787354884, -0.0450693153952358, 0.02136985474282393, -0.032700582803924384, 0.020060272520143432, 0.03410149695648382, -0.02445087737422123, -0.027795799497631318, 0.02808121180922219, 0.05919307761591021, -0.027700588585466295, 0.006333529649342441, -0.06507082454884272, 0.013556693105975789, 0.02450921969232213, 0.007782546520091072, 0.00603839627034566, 0.017580565631633755, -0.008613907607479432, -0.04323603109786574, -0.02996618374790886, -0.01936662784871369, -0.03608877395653747, 0.010265817248060706, -0.02432705855674704, -0.03998180975497475, -0.044631097255782425, -0.027287745114695915, 0.04656353662254545, 0.002938123075265992, 0.021120804443169567, -0.03728377017537171, 0.07009069575341864, 0.013634780373327757, 0.04061367811538964, 0.0613004615494871, -0.0629273923346116, -0.030657285642502995, 0.05546113172356679, -0.016727758828101374, 0.01950499721583366, -0.03790700858140842, 0.022499087819864604, -0.02551424214213975, 0.005988307999152538, 0.043884140154953205, -0.04190949035530186, 0.027825053254432748, -0.019001460001285737, 0.01186966392883367, -0.028619283188571473, -0.0021594930610394957, 0.03358218616519386, -0.0008818380259524934, -0.052172914575304964, 0.0490475369875499, 0.0034695808138495363, -0.002808600901139013, 0.04744968374811171, -0.022722001947962214, -0.05965717087520028, -0.04086574656532877, -0.03447352567040209, -0.022934079416855185, -0.0367767457252595, 0.06575199641220973, -0.037451177926934066, -0.011947774844242401, 0.014710729439043939, -0.01384401017527826, 0.04224836680095614, 0.004295123496255391, 0.006061934181076846, -0.009946988679468508, -0.0038087232046712747, 0.00044913220404873476, 0.008302985554488267, 0.005871431861060696, -0.006369382866425835, -0.010525560828413404, -0.022181851846161938, 0.024111866091370115, -0.012487324624335635, -0.027122387789377513, 0.010477242404247262, 0.04812502970670504, -0.02639605109731467, -0.0014068134412565918, -0.03502748534224686, 0.025074520965272427, 0.027373209518857217, -0.013008750545819861, 0.017079663512536234, -0.04821095384788394, 0.03657771556146634, -0.06118686664849607, -0.041694555523609685, 0.035705512433693055, 0.054659844696779376, 0.003439946682754273, 0.03834363018128492, -0.04514269506591498, -0.03321929464046385, 0.0656583993324107, 0.058118119997950204, 0.005669021060097484, -0.046371569286929315, -0.027370224465374134, -0.026523712882965497, -0.03970673309229496, 0.011177749310920713, -0.061616058513047606, -0.031153038558532367, -0.040071547771534204, -0.022224586096998778, 0.038956123591096646, 0.002686020361421933, -0.03289258029607231, 0.029148216236660782, 0.03426035305437061, -0.017046609909423985, 0.009178185624907163, 0.04241361663648673, -0.02316026698984296, 0.03729385781163359, 0.013738619380117667, 0.034707960252356514, 0.043595630015674985, 0.055771696300555354, 0.011206700973148085, -0.040656446843770636, -0.010753111534635151, 0.027101304459092923, 0.06181266375731355, 0.04088760442285613, -0.04078735957421068, 0.0005030222900467446, 0.006607721958055098, -0.05219267981781818, 0.041370145328086874, 0.024004400374251236, -0.025444161342492392, 0.011434905585901708, 0.030234753545002227, -0.036579345091051846, -0.021268028118267925, 0.009006978244225352, 0.014867123339263044, 0.0413533657576046, 0.011100157824787684, 0.012878868993210172, -0.02447589611842108, -0.00464150538346571, 0.00654946584582833, -0.03276760269870047, -0.03649196891407147, -0.01954225332070546, -0.05548081063314536, 0.026139546475242602, 0.04998364554517084, 0.030740165531619054, 0.030437360474802007, 0.0004458207603009669, 0.014464091003592684, -0.058714785497844826, -0.006561461732134209, -0.03193104282478376, -0.012797957785962917, 0.045507072591141874, 0.019755872217128632, 0.03849011463067747, 0.0246521709565034, 0.006153852069757235, 0.023393910586745326, -0.06649880748224062, 0.011470941446542003, -0.01506826480276882, 0.012895133503132353, 0.06132708914092717, 0.012095438050238624, 0.01145166145563643, -0.006706858456797168, 0.034228361638315004, 0.03912828551420473, 0.013907380150036877, -0.03309069646635278, -0.00087888576772128, -0.027082486692084108, -0.043019497611430056, 0.047139375521100514, 0.013604001221624869, 0.01050190451412059, 0.03304134111958511, -0.021508158681824582, 0.03745404697436933, 0.013459221580037442, 0.02568071356468267, 0.012006042394723658, -0.03275305071318414, -0.02392489772258933, 0.04119317159176619, 0.0046649652172694785, 0.009964057072679331, 0.0517608458345876, 0.021182988580219515, 0.011587271431321863, 0.04201040822632528, 0.022016902099757537, -0.04097795620255362, 0.029848486243714924, -0.03988155421743575, -0.03556652260577039, -0.028067086397723543, 0.05272454719234821, -0.05123105982521829, 0.06768387663762786, 0.008572040543842457, 0.03532064831434356, 0.041118345134643214, -0.012661094696128897, 0.020982290971963285, 0.027616843351433936, 0.003934592811111804, 0.03782384808452836, 0.003652634854011571, 0.009989762781702364, -0.04100209798902128, -0.027642285627613204, 0.01090607553780629, -0.004092317150290739, 0.01767302704839974, 0.0008347685863226775, -0.016731224595143687, -0.054633725690321204, -0.014407401356265552, 0.028066333805165062, 0.005008347219472757, -0.004653527052009196, -0.006951930057141494, -0.0054153805109688575, -0.007996428045101128, -0.005230978711994359, -0.005557846500029157, 0.03398774091342635, -0.052427355692627804, 0.018001584437560298, -0.03988470215235497, 0.03509925563543227, -0.04980607803123866, -0.018170547812948454, 0.0008283867507843147, -0.01922710003169809, -0.008747659545089832, -0.002974859347718911, -0.010830488183967944, -0.04252179161197951, -0.05596661574811906, -0.017057121653015525, 0.018191095077550647, -0.025487795790407948, 0.032989069995820686, 0.029987398268899464, -0.047716412153363225, 0.013042112171221011, -0.03403548014916692, 0.020443456158628324, 0.011230783478474962, -0.0185756950716646, -0.0017827396247465492, 0.011457679127906965, -0.00988921252125047, -0.03774203713047387, -0.03594285559286238, 0.02729063134343941, 0.05262121054073447, -0.006933400349505628, -0.012675530847908721, 0.04919739936663168, -0.03162290063390385, -0.0651855525778643, -0.004649739932633184, 0.05291406095758011, 0.029320060677841434, -0.027652016947914655, 0.008162027744462317, -0.03521500159010217, -0.0613007487864472, 0.05839832777624467, -0.034714649584872595, 0.019166102507333034, -0.00417677401728025, 0.022448265389679648, -0.03779586217732445, 0.06873732606473655, -0.026999807514752148, 0.02920716546018298, 0.02341689035434456, 0.027896054010578635, -0.05020575334480806, 0.009136313751159569, -0.0203530713016278, 0.0012695422221821462, 0.03699703392429382, 0.00412581176112145, 0.006167352706808873, 0.030343490827563283, 0.015261886854332845, 0.044803520499730694, 0.004115623903853053, -0.006640111107802335, -0.0057935120319538925, -0.0310931244686497, 0.0250806799950314, -0.003004811373620897, -0.008528893219506674, -0.046834951941550136, -0.0197500015329146, 0.021505672620722175, -0.004537228707118667, 0.06327736996933907, 0.000583952740564115, 0.02004600545222597, -0.02670432889623796, -0.014254267665946988, 0.019792839478691482, -0.017244127703159636, 0.006560782588993792, -0.0067343154354793065, -0.029461590810881875, 0.01650576900148213, 0.0035499542256158265, -0.029102461752183673, -0.04484045296137884, 0.04286990902124, -0.01299902081512139, 0.017814633335741653, 0.019950766535061393, 0.0014335645260699155, 0.03772908523031664, -0.029019335846619813, 0.06954695689751571, -0.010085210240107952, -0.03869758083328084, 0.03335380340602066, 0.026635494167088557, -0.042779432262141315, 0.00486028203626886, 0.015238568355098169, 0.011539606986975646, -0.013941574991378866, 0.022502394778694566, 0.005768658422932003, -0.040082102047568964, 0.006285258145026474, 0.01820439219038063, 0.021209983243850126, 0.0010973433425391101, -0.007095630157370385, -0.027011954328854205, -0.023367822493351866, 0.02585768378164085, -0.01255780711265752, 0.0021495610813542032, -0.0012398926579006951, 0.014061075245333465, -0.023141241708595557, 0.08320617065754965, -0.05640141108567695, -0.009609489699441694, -0.03711557246203159, -0.020517492787969594, -0.053084062763878434, -0.058869074259290784, 0.008495727076462983, -0.03820765668477, 0.13664701369388457, 0.081018433473394, 0.028615836710542637, 0.048436436288366205, -0.02711783705159622, 0.01377850928401253, -0.05043248373453392, -0.03726542859788537, 0.05383924945611292, -0.055457922934266435, 0.022519534102458074, 0.008206007099585891, -0.013411600583295706, 0.048670550496600504, -0.02366104734208142, -0.0374233249642357, -0.024396207586847928, 0.044790189150995974, -0.013507606325804498, 0.030764766130219848, 0.04635350665019193, -0.012535390215670725, 0.005905117745668201, 0.022248502215390483, -0.014153007653204796, -0.02882866128544298, 0.001361007769168391, -0.013446212756610414, -0.03210267078154673, -0.09703056573561192, -0.04127210305013719, 0.004565295259304718, 0.19633718139003495, 0.05915757964403464, 0.005794206368353267, -0.018643325851757726, -0.041415457679947004, 0.009361397605803776, -0.044203939229148816, 0.05710563421062423, 0.04664025771458356, 0.03396356913619797, 0.025301955304050577, -0.021595441239513045, -0.08401070669257214, -0.00038924041401760097, -0.06214270538473815, -0.0759311875088171, 0.018862616851403943, 0.07991937200370687, 0.01317068037754986, -0.05949065364170258, 0.011222392680390549, -0.05686961499651855, -0.03869738454635289, 0.1317814002196442, 0.022613464909976864, 5.4503728193998586e-05, -0.020597887801904007, -0.044706668631555056, 0.0192428347825145, -0.0272452893559385, -0.035065817297410595, -0.10657681848887195, 0.029600498733457284, 0.04927652865594104, 0.012212533077520418, 0.0018276943006057136, 0.03775770746936212, -0.03361843544126358, -0.025769434408327328, 0.06021642145606062, -0.016524154497832528, -0.029951630096908256, 0.031424999025426475, 0.05542991379879927, -0.038137752988368426, -0.008579878150429527, 0.07953020570890436, -0.03359380164314349, 0.029580008986893898, 0.021422174796214097, 0.035413584550697395, 0.0013815193125423532, 0.029481202797264214, 0.01189584718619697, 0.03256473577725652, 0.09298771139727467, 0.0253267732916764, 0.0357312508024109, 0.015091842703605259, -0.061230288477377576, 0.048305445286850615, 0.08355011414849504, 0.002868452007289178, -0.042116814083846675, 0.032402302541695155, 0.07633461924391495, 0.034702887983570484, 0.014490970695772383, -0.04837107467484801, -0.07768347346513146, -0.010367542080813724, -0.04042539850885862, 0.01031240477594876, -0.046161202438120406, 0.18009975174230525, -0.0367706322092833, -0.04541419171764403, -0.04203537836990275, 0.07692431132950214, -0.03297138823431244, 0.040354345024907694, 0.025834416529213963, -0.0013146915502739462, 0.04576200614372947, 0.007105270239889208, -0.0330122312443107, 0.03311875326735951, 0.15992421860227987, -0.11498160338405286, 0.01671725320320631, -0.1174632223292121, -0.0638200117939364, -0.10500993919567846, 0.08128189471826144, 0.06376627346520657, -0.11099860544525471, 0.15511887093594875, -0.01839730253082926, 0.01718019835105906, -0.012421583689266293, 0.04690327763494931, -0.09078842065678072, -0.07926216357922747, -0.026848468414291067, 0.06069814994998867, -0.10136397052686805, 0.08218177897883115, 0.03449081973186529, -0.037581157533082915, -0.054445417907087526, 0.0690366129209726, 0.030015013430034453, 0.02344893880384379, 0.016928924757090496, -0.02266171032563353, -0.008014921446112717, -0.0386350530478617, -0.017301168972525916, 0.07283649171489841, 0.07076923489009439, 0.06608690348636145, -0.053283740626395376, -0.09177032466816626, 0.037629749488242915, -0.06613142534803093, 0.1484640529650177, -0.003918189593400385, -0.024108866508107427, 0.16106676045986518, 0.08648503956057865, 0.0645773892499557, -0.046149700932037435, 0.035344786438789334, -0.10506994776380918, -0.005290172888250355, -0.03959327094267729, 0.09913552429356219, -0.04985901866583696, 0.08319840161758178, 0.013542770627221456, -0.0785330074997121, -0.04844086381424928, 0.049024860260503254, -0.03196176921064305, 0.07143278108426138, 0.13235627666686384, -0.027965400852250404, -0.00024048177025627908, -0.025144927589515934, 0.06553192624253537, 0.07210343045163863, 0.0956779941628619, 0.09429076459455114, -0.01931888731429507, -0.03888989611965742, -0.02683277552137126, -0.11646105800716178, 0.16464541418109768, 0.09122610341957263, -0.023074603571882676, 0.004763754356334028, 0.04044645399244731, 0.04858610732674205, -0.01995421324497398, -0.051811142900274214, 0.0003532946691468977, -0.05903632704382901, -0.03131399147521615, 0.0327430079334496, -0.08703304614622938, 0.1503279609497327, 0.11954436619464567, -0.05117682301991378, -0.029281857197609774, 0.1354154453531236, 0.060887148669649206, 0.03884492203651021, 0.0639287879601104, 0.000906142179238583, -0.1082650712858908, -0.015194389502462512, -0.03232011265332721, -0.04256616337345022, -0.05522902094131969, 0.08086595089321984, 0.010283124385900698, -0.06189866850181251, -0.09192310457577701, -0.10861463246602364, 0.1616629412578111, 0.019168597764535094, -0.055347531386077245, 0.0474780137310044, 0.05415640832010809, 0.0026229219253275076, -0.014604002429293036, -0.017632680719359008, 0.021969089672413067, 0.017080594627869986, 0.011653276940428243, 0.03353181376537944, -0.12592814905829944, 0.14893282094723362, 0.055416414227141615, -0.03533352001619253, -0.12486484512522374, 0.13917484937667232, -0.0031760419207075034, 0.067070682764238, -0.0889510417778626, 0.09115351960628863, -0.11172687183221444, -0.0012512173833630243, -0.0367937536362539, -0.03653047081484458, -0.010199547022698522, -0.010582223920204163, 0.02680917833328381, -0.03358858615580972, -0.05921258128169474, -0.07704007858594082, 0.13399355678584424, 0.020298333840730005, -0.0699452220533373, -0.057019173729130165, 0.09495829659080052, 0.021075564053288736, -0.06567591418332987, -0.04063838413029237, 0.038609153489666766, 0.0062096519002519494, 0.02836855830720456, -0.04013190688574398, -0.04420398155532783, 0.14611793666192097, 0.0789434673841756, -0.033492711851577296, -0.09977561388601965, 0.17073773187716917, 0.07847311806760747, 0.07778533803932548, -0.1391468962896174, 0.047960798538631416, -0.1404373179913328, 0.016963505922255286, -0.10809537305138776, 0.0010497759981035412, -0.037787226587361465, -0.09628603524628679, -0.013977741805727218, 0.028578546689727053, 0.015554794773096353, -0.012602363442730453, 0.1597030881312498, -0.03115480113670556, -0.022136758153814374, -0.034436045376986725, 0.020663519024951064, -0.029237527629009386, -0.03431014399875729, -0.03544595254234124, -0.0016366563605087132, -0.03844996379313209, 0.06809267415858986, -0.08105247732218633, -0.05112453406202277, 0.2028561982945327, -0.008021485348433327, -0.037300704977564256, 0.014227412178240997, 0.0019862369006635617, -0.01150035530991956, 0.07671462635681983, -0.07408313417787629, 0.052663068505233196, -0.027913910777474283, 0.011349654396615174, -0.0913279873510422, -0.007522133260455082, 0.05780219867835108, -0.016382818980791584, 0.07623391834819228, -0.08076321788481984, -0.01229753350996174, -0.04142771281531826, 0.0793253490754735, 0.0019243421046476485, -0.06357591739768884, -0.16755223789704202, -0.009058580681251958, 0.004759528468364628, 0.05197161822335274, -0.082203875880115, 0.05248771934909999, 0.03830102302522597, -0.05086757719909736, -0.024913585631789293, -0.014431881507019838, 0.21405736545727663, -0.03672493575068336, 0.09412420166763871, -0.022619882602139856, 0.02581835462545133, -0.05191042344743871, -0.044770079844705074, -0.029897440500574326, -5.51241751845516e-05, -0.011723479521989186, 0.0021093750147320837, -0.037766460060090455, -0.013410775250877279, -0.06175588519854578, -0.03931787194582505, 0.09529797525595013, -0.10907201643363787, 0.034106503076879124, -0.04411820106179249, 0.03456078228956487, -0.024348666829590825, -0.06470734614211898, -0.0314864524225749, 0.02147792092916163, 0.0368717686207173, 0.005268204116853999, 0.020790742614718305, 0.023100475783370482, 0.0121006088382729, 0.030238448637376236, 0.03365995288634732, -0.05020822385275455, 0.09449683388742688, -0.012053889292735438, -0.03643059362855078, -0.03626326077354503, 0.023031451396393565, -0.017075484508458756, 0.05183694185236818, 0.007486959240627682, 0.07141768103278175, 0.07923674297788026, 0.052886292018018866, 0.06035934433085709, 0.011417927409628416, 0.0619867118798478, -0.005947137383395727, -0.015716968639705467, -0.08685297333637625, 0.008705974562548667, -0.019740774620410916, 0.1072155427062565, 0.016727482010225652, -0.07883469818710702, -0.08607069383478433, 0.0904313200584033, 0.04918123116594638, 0.04108685211901366, 0.015805223897060867, 0.03478508323552877, 0.028741440912375224, -0.006833450243705384, -0.06807465903664188, 0.01391445053311617, 0.023210373986945254, 0.01114875850428706, -0.09027041543916471, -0.06812046120365359, 0.05212519861410795, -0.0137774528225314, 0.02467563146614906, -0.04355616421767705, -0.031828034057191604, 0.09695395391881104, 0.06255437143919962, -0.020703760105873287, -0.023448721220494847, 0.07622813576595347, 0.03419590846225076, 0.07046660118376209, -0.08247601490684407, -0.01259999491334174, -0.02403862214813298, 0.08757024683387946, 0.02890791243073756, -0.0579030802747014, -0.0051150366485127885, 0.05649109135606828, 0.019929520501929174, 0.014901465869649078, 0.04976476084995497, -0.02693887823520823, 0.04272523811994713, 0.023587034415348648, 0.013052441849925057, -0.017572356145605095, -0.02000985036973064, 0.03668850832958329, 0.015073550758502115, 0.006973799393273039, 0.05624852890263524, 0.05617674781615063, -0.025960274537576187, -0.007660019024705991, 0.009696329959383194, -0.012892165327437605, 0.04498043622448212, -0.0004634634498279034, -0.005012271933278105, 0.02711485944939463, 0.04052682940434386, 0.07638836442585244, -0.0043538706602947305, 0.004983581767183957, -0.033726670339020375, -0.03283535838547962, -0.06570808102785303, -0.038220661005021854, -0.005564713535465377, -0.004292149535831997, 0.03629992670532613, 0.0055089585838787895, -0.022077576803244795, -0.010030181970661911, 0.056414248174960165, -0.002285630806173101, 0.021046942087816482, -0.0010429375101110548, -0.0424671025982816, 0.0007354946759488397, 0.02678095045506711, -0.035469018707121935, 0.004545557530902004, -0.009160622043701855, -0.04203412626349862, -0.011309860384973903, 0.031523501864766434, -0.02210588877233944, -0.042362225681725374, 0.019421527245137512, 0.04563723141279231, 0.007281213071353405, -0.05588791200184254, 0.05027297016517179, -0.01670605634472245, 0.03904752768346515, -0.028466892851804863, -0.052388844840474666, -0.007291258304602997, -0.04102845622160431, 0.021191659575417045, 0.015069527246100731, 0.027028474393745307, -0.03631289406085222, 0.041262049537648775, 0.05528147325585601, 0.00702630692711803, 0.010512349971042683, -0.046880730349423895, -0.009688911940022731, -0.05871578412432433, -0.019043733227147853, -0.03202644483684607, -0.017600054818740867, 0.028884442664028554, 0.00862798042515698, -0.019324945671865372, 0.023971817786521535, 0.030996364379159983, 0.021473320354894833, -0.027685293367735415, -0.04536866719535933, -0.05931648469155146, 0.036983604865881266, 0.027763428063480637, -0.013034526536054823, 0.001506123302145574, -0.046119415466081275, 0.01181139606087588, 0.05495930588385674, 0.0040942065007215835, -0.012516665913712444, -0.007355750448694014, 0.001117995697179146, -0.06181403137078202, 0.005726928217755866, -0.040363170233258396, 0.006839035139824445, 0.040311286216578715, -0.0051358250651195765, 0.06168141352197876, 0.014981935014871623, 0.011591380497704768, 0.03733956794086641, 0.055404136618664925, 0.0060307063160884135, -0.024041903346271067, 0.023270106178337337, 0.005252389627539833, 0.023609129164663695, -0.04123386672807147, -0.04266859395375523, -0.03651866897750663, 0.006859602718033458, 0.04438858792385666, 0.0012940664498818665, 0.06775814911829633, -0.027093074892609013, -0.04657947111077697, -0.0183758856555932, -0.0005055663776496822, 0.003551582097061934, 0.0462550059856943, 0.07064054206791864, -0.005260597416862776, 0.06734918830317874, 0.02027141962294379, -0.025593989080542088, 0.03079111295978042, 0.01371545620683821, -0.0032637980910886315, 0.014992526446175053, 0.004389775098465605, 0.003595404095020329, 0.06838712711254853, -0.003037323287749938, -0.004242489776370938, -0.009113522592787117, 0.05194615793274238, 0.002745282187178733, 0.03289025039043839, 0.06055825030663289, 0.06697137346021392, 0.01764527665425994, -0.023196072237209413, -0.011892598624589192, -0.01785094465501222, 0.03796381868219663, 0.002240503597990989, -0.045110568819767306, 0.022628871646950686, 0.01372732663690339, -0.0026428081271606483, -0.014080556771389103, -0.045574517771589565, 0.004522410009286771, 0.03976675297797256, -0.03363645168886822, -0.02535290331896726, 0.008120314047147656, -0.003619001269624187, -0.02131975577127933, -0.06548758792477094, 0.06023985603945357, 0.0002519869209453873, -0.004338637722448968, 0.017813317208640204, 0.054185228128130286, 0.008934506005501464, -0.040526875973907354, -0.022510661557272642, -0.038007227554589774, 0.00490451752605397, 0.026687056011474808, 0.0238131009266058, -0.008416085135838728, 0.0007160387151862011, -0.026796580729003056, -0.018848483525075184, -0.05295762821912993, -0.03305497174905941, -0.02188509477624232, 0.029571016064094548, -0.028990181697083704, 0.05001869941636665, 0.022877986835624378, -0.035119692932338936, -0.00702236900942427, -0.05083684423904131, -0.02746956506804014, 0.013327587533595003, 0.007458097371571919, -0.03887712133048744, 0.0552128256048145, 0.0335229000684077, 0.004664004868443179, 0.025426552027056466, 0.031976052106458625, 0.03886582876290245, -0.03889407354069944, 0.02293231438287361, 0.016309425061445545, 0.013796390535014075, -0.00822068528717699, -0.008363226778008456, -0.039108405029169735, -0.013471640848780804, -0.030531954930331433, 0.007955134554319752, 0.0011828184463820758, -0.047875261960520665, -0.018176048649521923, -0.03701596213670072, 0.01531642593524395, -0.02201462812545435, 0.04950331202406724, 0.046318209123009164, -0.05967655355525806, 0.006663112848249312, 0.06227329330347861, -0.004382012756635063, 0.024620684805037353, 0.04241690992339993, -0.04937945102548752, -0.0012577548911004153, 0.06365661047970592, -0.013128957047253519, -0.04885083229414863, -0.036098872657093904, 0.017982555358597895, -0.005051984424756051, -0.06008137646999181, 0.02844452100308982, -0.026373498040939934, -0.06062841591104594, 0.009306931630890053, -0.046280558456070896, -0.014441353310672022, -0.010494051994620102, 0.055582199486545115, -0.04659896404086891, -0.033531372347175736, -0.04360557381529683, 0.044676611054369667, 0.029421529217889184, 0.031384662594623684, 0.0218262823692284, 0.057442022471275535, -0.0003230090963655046, -0.04442574368588965, 0.050645135362312355, -0.06336224057489666, 0.03357054438545731, 0.032080796376117104, -0.028408002202392493, -0.007408373135545579, -0.0016759370815429737, 0.0025622750073192187, 0.021604809646368506, 0.03524333102536251, 0.03923506629338206, -0.04307913725427904, 0.0007116983995318504, -0.030670890558392026, -0.0033279699583640544, 0.050864712488277904, 0.0046501723128781255, -0.056255282178383964, -0.04967099891717625, 0.07016132799189231, -0.03209120274082625, -0.04967360882690148, 0.036107574816400985, -0.0007040543308366366, 0.015678388347062273, -0.02771338305327533, -0.04826051218332193, 0.016305386396944944, 0.028060623601468864, -0.01804459487956349, 0.031940239411338445, 0.011008659880914652, 0.054777394946830295, 0.007589679239831501, 0.0251194165258081, -0.0677534264838801, 0.01641514638883191, -0.003700922684824569, -0.054475137513444793, -0.0548616842026668, -0.017657511129612037, 0.04622966791553804, -0.03162935932278567, 0.04371459868080612, -0.02242259091936312, -0.07198522462485453, -0.026159718561960872, 0.00714824542543473, -0.06650399162189093, 0.025583855891633703, 0.02328440740194313, -0.05973417509054545, 0.06260203194615868, -0.028144091517800573, 2.6032665462649955e-05, 0.01677516017468541, -0.023261041823907695, 0.053157181394759806, -0.03247671819131827, -0.008230069731138793, -0.042472305484444056, 0.044021851520173925, -0.053031216502493005, 0.007740836644618326, -0.03587827400035674, 0.0624486359575564, 0.0194760931528204, -0.05409179254244947, 0.011442826402830676, -0.01281989979472107, 0.03403798800894165, -0.016990582823631712, -0.03244216631921484, -0.0020034671913341548, -0.028492396515529657, -0.012298101799267214, 0.015107188304978382, -0.03070415141919316, 0.05772161840437423, 0.03706822785910681, -0.016265109305750383, -0.03755818966164319, 0.05686621817744704, -0.025294305773415134, 0.0370929835650756, -0.004641165229152526, -0.038339171101635816, 0.01768198433503486, 0.02909447862445007, 0.05946110394166945, 0.013158182061470932, -0.009543989009785729, 0.017278921464937837, -0.04975983819591688, 0.024013144864727654, -0.04482398415162651, -0.02788564997840137, 0.00571815046125311, 0.0009158717895490211, -0.036005781554619316, 0.022021605364153825, -0.03023054841525876, 0.04713706921922359, -0.04220686642100291, 0.02712568624350589, -0.02410282450486317, -0.023964385121339356, -0.02043811172245817, 0.035860762620327044, -0.04705910120473585, -0.03446108467248146, 0.03025158500590003, 0.025999383986273984, 0.02612227740580276, -0.03906039246026671, -0.02316629343070653, 0.013057043454843568, 0.04967343693608855, 0.04857594640159433, -0.011365062117935271, 0.0045559762570818825, 0.011837156334434811, -0.000875244575459856, -0.003006366653870604, 0.0236042219886165, -0.027701807871551968, -0.004370884040420577, -0.060992113319452514, -0.02929588969125602, -0.017499612876609155, 0.004653727099108223, 0.03826229991943497, 0.01745633989610416, 0.005304787095568502, -0.02318797944830309, -0.03698557875698881, 0.062286269643096234, -0.02456381918595336, 0.0040701509210121, -0.012731696410008738, 0.1544380122988842, -0.05452753246007435, -0.010321657578647907, -0.003996270945839858, 0.040311577863154646, 0.006886573986517613, -0.021507736185261635, 0.012901265730606074, 0.002340394474626428, -0.0021320381823499543, -0.001940799927950395, 0.013166249840880623, 0.026532400200323773, -0.0009755784191889937, 0.025281092631772428, -0.022381905243924045, -0.0834461181415798, 0.030950643413003097, 0.04912963986398506, -0.022489057609515136, 0.0308347371568341, -0.06358301640632846, 0.02354445224588144, -0.06424068651656495, -0.03335253767567209, 0.022048198292082502, 0.004898755134925863, 0.05336715823523399, -0.010280875637164103, -0.006542389830831946, 0.004018459361884635, -0.03384083628339807, 0.04451682900186296, 0.05739576115709584, -0.030917253671918492, -0.00204299644909327, 0.023890833761801667, -0.051765926389447235, 0.023980308576382708, -0.004566612600643429, 0.02707941223876299, 0.050795975458097706, -0.08038054877103029, 0.05591529801699762, 0.008081344973032832, 0.05605675591105264, 0.04003980158206856, -0.015805632529121986, -0.035942432027083526, -0.0010692572263689486, 0.007733090269586515, 0.001300715653086876, -0.023320998010738968, -0.1053740940267748, 0.050699178054151355, -0.02031014089889013, -0.058676593309138554, -0.013437543907479083, -0.033306515838557975, -0.00932081906083582, -0.029678661870758554, -0.008518395851025307, -0.013708437348756323, -0.03801769659449206, 0.1076431036133574, -0.010260616323099618, -0.009382682629501222, 0.006532153291943709, -0.039767203480714775, 0.032557777254097794, 0.011397229208189497, 0.03674005462510306, 0.008812470398445328, 0.00033757628996236713, 0.0053190822202267545, -0.05687935585510733, 0.026290386647820557, 0.06564515285811809, 0.013109515761706145, 0.02728531561912214, -0.1047898462057122, -0.004120952193120301, 0.09049488801966016, -0.050649032888953865, 0.038382838022303675, -0.1424006093435308, 0.2187265446942546, 0.07670185880608098, -0.0022628440718953017, 0.006061074524731381, 0.0242093923634403, -0.03623357761493992, -0.11716151476739382, -0.060929486002335644, 0.021422536757607056, -0.035994710868650824, 0.23118124640755802, -0.031681095387014295, -0.042479165220296385, 0.05695410083309181, 0.056510681367861845, -0.03670231124583395, 0.0014097936933711727, 0.04405463773480397, -0.018926426269414567, 0.11181058786203535, -0.023172023828569012, -0.07796276567740171, 0.02624257362960462, 0.22529453908677297, -0.0022378631816145013, -0.027227561475899553, -0.031163201859907688, 0.03916237545490832, 0.16689110726082235, -0.0819514286986899, -0.03734677119393465, -0.12909370255590427, 0.2755057809580073, 0.07594386970451221, -0.04287819128935991, -0.019403087493446693, 0.0988207323238507, 0.0033419760842714314, -0.07623560201883989, 0.008848377063679004, 0.08482442067662206, 0.0028934847906958126, 0.03669673424887226, 0.06897503867552143, -0.044814209996342044, 0.029285132718488108, 0.010066650259190985, -0.05677712902002256, -0.025081631201971964, 0.15074574595265852, 0.01747474203022942, 0.07939587226534156, 0.0026655737972931153, -0.08127515286795231, -0.037383027273993646, 0.19238005662925267, 0.03974319427028328, -0.04871295131063043, -0.0480790126738258, -0.02144171780104599, 0.1376599240040842, -0.026805782897499717, -0.0064696975576188035, -0.21473286091008514, 0.27323559284187987, 0.09037788501572529, 0.018332427477373153, -0.08295749367544662, 0.03240647606886166, -0.17881197557360914, -0.062262336818318255, -0.0036526823348286834, 0.10158051112055909, -0.043918205544170044, 0.00969014902574119, 0.06553542737907439, -0.06361311850603879, 0.07202121386245117, -0.017482599067825056, -0.004291688824602234, 0.001328505165831507, 0.27268138444920936, -0.0415003244349127, 0.18326331336312165, -0.09057249361305604, 0.05455492512227675, 0.08354443462292283, 0.20089443888811206, 0.01647120059276854, 0.016988038993492945, -0.0852623642429382, -0.15552782976464793, 0.12503833768397815, -0.00873463598502111, 0.05438331473822132, -0.25274913735113785, 0.2917642499331823, -0.0502746297623559, 0.02524305769562096, -0.01857822193582844, 0.041848289863520204, -0.10793201429073267, -0.086187456836864, 0.03005081813597039, 0.1008938526972849, -0.11286811969250805, -0.017941467409555753, -0.024152757046209956, -0.00820909419054391, 0.0323892357854128, -0.1229308351545782, 0.03996022217444008, -0.0010583688333367482, 0.2462246434701549, 0.0770880968585229, 0.1743256466476813, -0.0202888604979644, -0.026035702049944986, 0.06849401612960201, 0.25726762876114284, 0.06340098361421238, 0.12487074333383451, -0.2637630669679576, -0.10058192463165119, -0.03287480455057859, 0.24364324535845433, -0.07296879023297545, -0.2659148545161024, 0.18346729513004645, 0.09734462010887905, 0.23809375859841014, -0.036390087113097935, 0.09368078389781978, -0.11880054352466572, -0.10374933777063858, 0.004116769868481224, 0.026716255098754055, -0.13562276035143014, 0.11300983132425083, 0.024823702906586444, -0.11007631533165867, -0.09628131743230503, -0.018981194784049676, 0.11316162227115094, 0.13949670567765635, 0.19902132387474566, 0.06970839124136931, 0.011159447723755605, 0.008348191687878752, 0.06363239731077083, 0.1534224550890941, 0.19527896411266094, 0.1609633393282043, -0.05707464112938021, -0.3736355796211587, -0.10141141035920336, 0.07211428434285676, 0.16532688970744192, -0.07330200779311767, -0.2517011066607659, 0.10242714029385061, -0.12147496774153725, 0.21486219602540432, -0.15973080421313063, -0.12614988989383102, 0.10723766710807427, -0.03905859357482062, -0.048821937864421926, 0.004201583895644735, -0.05813675510624764, 0.16226314245490303, 0.13863068323072372, 0.12715193446027498, -0.2499549761834878, 0.2014156310171092, 0.07254523906324141, 0.21178314471653878, -0.007218534104669251, 0.10862104017477907, -0.06029807958236876, 0.06740763110256953, 0.04241623070377362, 0.11293024407976832, 0.13536163098803392, -0.11489454730917889, -0.0753766105089299, -0.1446579669615095, -0.15368386810992676, 0.08442264511765504, 0.03516024927084007, 0.15139047333206648, -0.24969859711797524, 0.13239558376345895, -0.22793365871507207, 0.2477103648189754, -0.11026425915945082, -0.07389071078655737, 0.05008846429376257, -0.07597853486531145, 0.08754287023833049, 0.035122044477772583, 0.0297274371934677, 0.1512745534594183, 0.30835268103271984, 0.08008077386555312, -0.30213754297556034, 0.24658776770892393, 0.04488255082218116, 0.0207785846542071, 0.00980577241937991, 0.06627302235523458, -0.272729525830294, 0.10083619253569302, 0.05342651000023462, -0.07418567739142615, 0.030980141528153298, -0.0748721239205579, -0.2876581347881982, -0.12454276842309932, -0.13263404302242826, 0.024717858555877565, 0.06611819922528947, 0.1897669015790572, -0.16029174825472878, 0.22382712499844476, -0.021971459451285532, 0.18580204373892034, 0.024846302890814877, -0.024138395208524788, 0.02728477197722425, -0.06475015492730811, 0.05715160313793095, -0.010805906115861122, -0.18184727205127552, 0.10161877413152672, 0.30972306165996527, 0.07881456753718598, -0.1096658553284076, 0.10891504596526701, 0.06139436339296285, 0.14685492613780887, 0.05463512746411355, 0.07998066072892719, -0.37364777391705783, 0.10718048792154386, -0.22907075222564016, -0.05817593431518904, -0.03124195095932028, -0.09135248279087206, -0.16144258586722204, -0.07335574830062958, -0.05993099214562084, -0.07176131087694086, 0.07390812471485719, 0.11171849802137594, -0.029202571106276557, 0.07952220510590674, -0.013269563385875687, 0.04533601989064835, 0.09681109680933683, 0.0363452301539297, -0.056569827372682534, -0.017883907291694135, -0.08081353274122036, 0.05816047949860304, -0.15155800162499536, 0.11248048883624008, 0.18918107488853034, 0.06884047509782845, -0.0184493942139197, 0.12854502032396217, 0.0720261085628837, 0.21975513275954317, -0.0729595050090145, 0.024893360513488404, -0.17750500148894244, 0.020670510437622643, -0.29496049906900923, 0.06230384405912385, -0.02273090757792619, -0.2090627577640311, -0.09438205702961329, -0.004515038347257787, -0.008513769825997981, -0.2003751970684285, 0.12365306894353162, 0.07731453899828439, 0.08937899924268389, -0.11785991201338766, -0.09810681125745362, 0.07048378175585078, 0.03453167228964888, 0.033240385021160314, -0.14697867486865823, -0.004609516235053609, -0.08388955411204574, 0.13671417708789393, -0.0899084217287863, 0.14168993371708627, 0.06152660392734471, 0.15238027768609005, -0.07547178598215022, 0.04790149085793344, 0.03174339439247558, 0.159468482297224, -0.21997054339946043, 0.0722427511547768, -0.08832465452511618, -0.07143352027817743, -0.26488965406407655, 0.0811394083704414, -0.06948184049117594, -0.18853508532833524, 0.04644107439726169, -0.012690866348225832, 0.003118901052015443, -0.06898931446538237, 0.17049137518249624, -0.020856430128632728, 0.07800883720376786, -0.14090536703441378, -0.08336093096391226, -0.025827401109165045, 0.03142221911304575, -0.059648224634340455, -0.14329658196278722, 0.0009706091288003187, 0.001506731840353044, -0.0024722851744796662, -0.10523956182861488, 0.2091082079312283, 0.048025722221384466, 0.01831736759442422, -0.06538848273140016, 0.07283107119294495, -0.0725627545200997, 0.0485956529060115, -0.04475139725481115, 0.02422568545064462, 0.056162606821247456, 0.004404484759261125, -0.11474208139521046, 0.13316959276981552, -0.09355968616247798, -0.12637198126016272, -0.10501551617285212, -0.040574318168766006, -0.05425220369953343, 0.06602391644411726, 0.008222099767858607, -0.08820689119956378, -0.03454676472894347, -0.18502016527982842, -0.14089054848026808, -0.14055382953519754, 0.01358340479807703, -0.1132302354437589, -0.07615846359057923, -0.0015317957347719784, 0.05370624676162508, -0.052637860827786154, -0.059383952658355874, 0.10721122931569205, 0.02841927391003161, 0.2139224366511853, -0.0342611954289136, -0.034896519451117866, -0.04423093375221484, -0.13218077554160784, -0.05877507261314715, 0.05580785973343141, 0.08675524687908688, -0.03617615421357569, -0.13357880294476823, 0.05623410947378931, -0.03973627736294013, -0.03467173184600511, 0.036567510182744435, -0.07427384272073718, 0.015012273645712261, -0.1442127063095429, 0.2002685750068273, 0.006477954419296472, 0.0013698204101498215, -0.17231244231546208, -0.04013895284239801, -0.03905296228361788, 0.04128380564942088, -0.03218733576352849, -0.1523460991587703, 0.08738945598392521, 0.024140239947298327, -0.040404292940768624, -0.03494448448684182, 0.03994068062342616, -0.07236520155693515, -0.005229647482437375, 0.02365979373855458, 0.04871129919508391, -0.06007276561426642, -0.06135991305101925, -0.053511331395962355, -0.01948414095836167, 0.12599601368864904, -0.02045244686934551, -0.05279450702409136, 0.06571169639442515, -0.06253958765613463, -0.07686316871471567, 0.08844683991992684, -0.10504449115879606, 0.04016572884524984, -0.041901449984542254, 0.10150356793553204, 0.1126890001855877, 0.08711950307596748, -0.134743937741135, 0.045083259099960665, 0.011597140598698296, 0.010433924279659983, 0.023463766592039758, -0.09167043299949781, 0.044129585705064055, 0.01702385366068649, 0.059658640216985755, -0.0543343278829193, -0.03572920659276706, 0.0847407560295076, -0.13819651929853433, 0.015302065626958985, 0.03569787973027919, -0.06563348421138936, -0.025770008990260454, -0.07750106919553233, -0.11665493637376087, 0.022133655904104627, -6.255623343850522e-05, -0.02645891363596141, 0.09205785063462275, 0.004683619559118412, 0.015635779157461505, -0.05741094757636442, -0.13498929357286815, 0.08643491353807678, 0.04496851451513324, 0.05397759852371374, 0.031164350225810454, -0.04033763252445684, -0.06992551217529673, 0.1045175858730171, 0.0477062074580791, 0.01905685959105879, -0.03082535905631449, -0.07415831045476642, -0.002213643271399958, 0.03503086360961299, 0.049799307160676105, 0.01965012421009788, 0.05264042580287181, 0.037816326431728074, -0.06976872319819998, 0.015405131113587555, 0.06041709738121342, 0.03762691264929712, 0.07171109134170596, 0.049991290741678795, -0.07771731354159497, 0.15367983051648462, -0.04236914817687221, 0.025282657294217036, 0.06158442470780977, 0.06693569253758788, -0.005756853407491363, -0.14252960046041618, -0.04613311777820603, 0.09374610000229575, 0.0339448288536704, -0.04477418332548031, 0.041034428310597, -0.12730976625775764, -0.03292769987335502, 0.1544832217150006, 0.053634226782340776, -0.06047046387442526, -0.01678031181338341, 0.0005170149919404957, 0.010401586602292356, 0.05418585843618181, 0.02119133743888245, -0.03211415455764714, 0.06173810466403772, 0.05992785980319219, -0.044802656326546654, -0.00636848616077244, 0.059440151934812765, -0.03309736607066014, -0.04180126980090687, 0.007216146972054479, -0.008122064100169713, 0.13504685408260414, -0.02958701256862181, 0.04417561375284529, 0.03761395980153955, 0.012917874337916009, -0.03168223649352175, -0.14520066250224425, 0.07012724081025876, -0.052341496482687454, -0.07745688915046235, -0.05864445583755428, 0.03272561669842879, 0.0682082446832259, 0.0033601587723923057, -0.07551494538941533, -0.016768330979963216, -0.05631230688839409, 0.02081763995143662, 0.05529830634240299, -0.012789636388234082, 0.038306991017287746, 0.014417515715575853, 0.0534897643709935, 0.014323467913473647, -0.04965075485276508, 0.1014012242859065, 0.023207675796582387, 0.00822241489541097, -0.06287488336071823, -0.02389027425981181, -0.032106524407453034, 0.060786773608060174, -0.025294896603716675, -0.02744569144752097, 0.0038869294350776925, -0.040708440495543216, 0.006470473132388428, 0.07267829202561456, 0.07171403888424684, -0.008816446953085462, 0.05488283400920241, -0.038719324363548545, 0.0023070179756723586, -0.05725444520914763, 0.05309315546028603, -0.0012139285270573348, 0.0228365642216964, -0.025000164306458864, -0.06787256563977932, 0.025263189513621612, 0.009562930873973002, 0.014932043564389978, 0.017592138514176018, -0.023801445400756887, -0.03336067383830105, 0.04985579974247659, -0.04588834621629659, 0.01613612420182665, -0.00037663813717821225, 0.022367522805215267, 0.007861029060314386, -0.057621367519526866, -0.05707927484299696, -0.0020471845843934066, 0.011534052728450792, -0.002584513290658737, -0.01896304547783273, 0.0328100278410193, -0.004101200888383375, -0.04933743469573666, 0.042896434910051344, 0.01602895694598431, -0.049959831271903545, 0.03192648490599353, 0.01925957067475627, 0.03262447622941509, -0.06801638061905156, 0.018849211143922424, 0.008518896746062349, 0.04425019058053426, 0.0035319374343533625, 0.018794491760134893, 0.04434217373947128, 0.02944110250251731, -0.028840676081959286, 0.03476737617525144, 0.003503334262271108, 0.00821093238443765, -0.014645060979888528, 0.004625939067037242, 0.06934995993051052, -0.026133204376532233, -0.003927368856614576, -0.054538214870584856, -0.026807382354600704, -0.011419252003816292, -0.04051894252681189, -0.04226427006571611, 0.04630095557299696, -0.062420014784988515, 0.055415503101621744, 0.038841174364428924, 0.009930857956302807, 0.02223368651337684, -0.04041195634794958, -0.05039556146270561, 0.0011355838061230614, -0.021963309097636476, 0.0216051084225778, -0.030280640503343257, -0.025244436046479947, -0.015215230313659761, -0.004313964774569016, 0.034965149602680434, -0.052572187940000605, -0.017716762954999743, 0.00023916852923752677, 0.010029672361503204, 0.010502823649131588, 7.496662420550215e-05, 0.0056441348049278235, 0.01274930319099458, 0.031469593813394516, -0.017881381028075516, 0.006625588186483008, 0.047927081758610754, 0.01639135192317191, -0.03564480182065693, -0.010209768094784924, -0.028534317708392692, 0.022203970903376426, -0.0048883190753424574, 0.04090036881574051, 0.025253480661783723, 0.02587022521065875, 0.042075964940399176, -0.006691429026494537, -0.02300325005180057, -0.03475203016723061, -0.02680059613661919, -0.029528009453127335, 0.01771737746282719, -0.023227520502367725, -0.004266050649970839, -0.03769128784931695, -0.00738393389372449, -0.02890997875690167, -0.031114259413743534, 0.0513881661115318, 0.06072480812629036, 0.026769328880672648, 0.01753341823480068, -0.043341625073716715, -0.02037995543733584, 0.005329943243781687, 0.03818512451987215, -0.024556576372799874, -0.02039651612171781, 0.047008744900800155, 0.00552846687884419, 0.01904922167192135, -0.06371787095045638, -0.008968539833186637, -0.019498519324405977, 0.015023886333135708, -0.03329948935971058, 0.009543175719378206, 0.03368837840054406, 0.0025565741924023925, 0.015007513210283171, -0.02629387029515593, 0.0276535423161711, 0.062208086416311946, -0.04849125054932844, 0.03501458263421437, 0.01890614883181141, 0.03419242691902329, 0.028188504771015522, 0.007453300028505644, 0.0030792426836653286, -0.017290284832553356, 0.0089189421141075, 0.005892948072642398, 0.019377431276312918, -0.00409802187516412, 0.06541406904552528, -0.00880579909056958, -0.03662299539852785, 0.054259762420936754, -0.041864218466692686, 0.0027086027722850138, 0.020146773844843018, 0.004835231860012134, -0.0008670049314497799, 0.037971772210295754, -0.0008505663723504965, -0.012330973616462775, -0.045613838726971896, -0.07102007364242661, 0.012784098197986, -0.049907363525091515, 0.013710943349239989, 0.03074048257222206, -0.001284848917556876, 0.024186653974391563, -0.0492399818476414, -0.02965730556367628, -0.06303590622987713, -0.029965701496332306, 0.054963717885386405, 0.024388016544941386, -0.021291433103734096, 0.0033463144455723134, 0.06122125853448624, -0.03293330753273988, 0.04683195472445513, 0.008828230591086887, -0.04899031853922372, 0.015710694280898767, 0.050316850247453325, -0.0023265914675436295, -0.020324104315906765, 0.01341555915613915, 0.004982112373741064, 0.03250320226013172, 0.041018033387361465, -0.0062093941696871715, 0.025710360869823323, -0.0084692565380387, -0.017523729065793227, -0.03822403923701991, 0.004541693467004525, 0.010028691193243726, -0.028352923065438122, -0.010264123840018206, -0.024173759521273392, -0.05235494574860789, -0.018948778539711258, -0.013448691624612418, -0.05438893475498538, -0.0032665377594760683, -0.06049061699205967, -0.012717808962235405, 0.02140181483857468, -0.016972943764344654, -0.04795816142652645, -0.06051288324335178, 0.015841282764179496, -0.03180809748093959, -0.013434628389110439, -0.002715952804655276, 0.0018145649000653346, -0.002768446115043652, 0.0035868941523238664, 0.0280569156196245, -0.005716092922179424, -0.03624333426492279, 0.02708615676693283, -0.02005995812981299, -0.05691634860358221, -0.005844222290132998, -0.03944877654260825, -0.011861161165696403, -0.013031698142833571, -0.06786247299079984, 0.046914238465918065, -0.0034544759553246473, -0.0031635998455144428, -0.030456380352759382, 0.022737228337653452, -0.01136829614515384, -0.028855118728680892, 0.06336468586141948, 0.008642781543134935, 0.010795543913223035, 0.05662628669030419, -0.010631539513375513, -0.02413855691944294, 0.026102038038783422, 0.04056564424097595, -0.00437072870451623, -0.01192502900669594, 0.025443298675459834, 0.024584844034348123, -0.011562049277526581, -0.051917366369653876, 0.1366895690740182, -0.04067843262030261, 0.047813200143653437, -0.005017875623466699, 0.012570969931394949, -0.02418100011042834, 0.01557058887219739, 0.1525050212000752, -0.019776753119411055, 0.013249744900960536, 0.0062043982023201475, 0.06136102822609859, -0.10986136957907806, -0.01900586970516726, -0.00788485600065863, 0.05747606234430172, 0.012152669583594091, 0.01549994050318245, -0.03441573563407929, -0.011574502934370665, 0.03353372990613411, -0.026896687134625775, 0.020729834831378528, -0.02103076269214589, -0.07251703620843171, 0.13848650471638918, 0.009363979896997856, 0.024485193414395943, 0.008737356539850515, 0.03410944301013047, -0.050134083497809345, -0.03626210902672632, 0.1455489246700768, -0.03789981826328239, -0.03564581925436372, -0.0222256122468849, 0.04237576168823101, -0.011810650061496062, -0.01559163193326248, 0.21946619210501264, -0.15317441728868217, 0.014487212546803302, -0.0008902579343080121, 0.10842274468196969, -0.12523894011350306, -0.05850371313446827, -0.07085190617686017, 0.14431862027922226, 0.0038534947527768437, -0.0058318496215219355, -0.04527152432823314, 0.011839419891407564, 0.02520125910403633, -0.036695331336313884, -0.00964451252243744, 0.0126801577784168, -0.04590999968090459, 0.08171214504544291, 0.05045741350990523, 0.05666687039143599, 0.04433309236966219, -0.027572166730862737, -0.04114105280612406, -0.04672223793231164, 0.17958767948264281, -0.04758514100948186, -0.06192629583066731, -0.06585762794181399, -0.04822386034458747, -0.052312167646747385, 0.06102527254970291, 0.111563248435871, -0.09826009467409323, -0.09571161584145534, -0.05325130133576398, 0.13578726105869526, -0.08373471069301068, 0.006634516262886149, -0.14296440604815236, 0.11345852183087733, 0.048303494065851355, -0.07467627575596344, -0.13190584786702447, -0.01729522839114787, -0.01495467521639338, 0.030364874498393583, -0.0035220441413353885, -0.06491828142955457, -0.1278791284632982, 0.13094288270291676, -0.008802450976793568, -0.0962579127772449, 0.03090321691032754, 0.029655842430002712, 0.03391495429757026, -0.07335470584049615, 0.1855242563140897, 0.002446088834090817, 0.008721150043977435, -0.06653984747956175, -0.11323987404805101, -0.06231649861525776, 0.14885400964060466, 0.13198659708788965, -0.1424299380098262, -0.059796971226281276, -0.017461270677628912, 0.1814378404073142, 0.04475378573735728, -0.08024252566527179, -0.15118425989677073, 0.22875970050267297, 0.13795594415083776, 0.024039078495603307, -0.06398319200947669, 0.0669154645663195, -0.04684344375584327, -0.061823500692700366, -0.019846149518238224, -0.0010005328355661897, -0.09252204437271662, 0.17044101396289585, -0.0927187728973912, -0.08748346642788066, 0.034445559353235365, 0.053332342458116785, -0.026535340238011546, -0.10589213580254236, 0.08700683479285255, 0.14959939211057022, 0.1584799624978053, -0.17054882712243075, -0.13754872374022648, -0.004418720572308, 0.33303040767575554, 0.05373220192528025, -0.20651814064670915, 0.08903814211788415, -0.0883661558198417, 0.2031804820054803, -0.022588402725821966, -0.1549406601552502, -0.21827085761597956, 0.3132671710574952, 0.13398603161293787, 0.14913478952391593, -0.08178232446800895, -0.11131509163611386, 0.06528927225538707, -0.06656225155227062, 0.06896563858082716, 0.07150419958650242, -0.12400999809521679, 0.194154861601981, -0.03420790364188233, -0.010989399487152857, 0.08362383337685698, 0.003944135958146906, 0.16044567897239612, -0.056624671210029655, 0.24957168352030845, 0.10929988713026807, 0.17402787107621037, -0.22783121644824542, -0.18780914451920774, -0.07328029780766249, 0.27555275073131624, 0.0018431454473157314, -0.2283264699053244, 0.13829940250785533, -0.12528949838536071, 0.2299778150652437, 0.10151866157956035, -0.0521696224684205, -0.14120194971293146, 0.35374624193971005, -0.034811857542804664, 0.041218730640673225, -0.09522428491652601, -0.044519489097610526, -0.022938154443283926, -0.15364097365085586, -0.003633871156502348, 0.19251057442887895, -0.10197664298490777, 0.0506733432989608, 0.010199903046435399, 0.04427523504428158, -0.09006913171559329, -0.21775667297102927, 0.2232087787129533, 0.0006192034173505939, 0.24156781136198338, 0.09542877967992179, 0.08566433917634429, -0.24233046944133574, -0.14390339642951427, 0.03835847867886899, 0.2839766202487743, 0.15471181338471995, 0.009017356277843072, 0.026150514522300997, -0.06829625860977549, 0.19724214295256984, 0.05547596496362445, -0.15076698645794376, -0.054685906001935895, 0.36057794217067163, -0.015632105746477342, -0.043222466976036406, -0.08451665037410694, -0.06073262562811336, -0.1453377546894699, -0.15307684594112672, -0.04635237158117466, 0.22018086668915457, 0.005235017754115728, -0.116761989180321, -0.0675160523460527, 0.015630929265694423, 0.024887399525476743, -0.08236986340016571, 0.3175093475021099, 0.06498983419626067, 0.3057479547037096, 0.0717878079244856, 0.15790874823265313, -0.2451018867315384, 0.07875658134649968, 0.06462148471513485, 0.2985694135183101, 0.09576840847684188, 0.05646472870096896, 0.07504575781662763, -0.002424962143779533, 0.11099530443025996, 0.11337058310310098, -0.11962237225145265, -0.07401535344976078, 0.1476055247684328, -0.018589586071282315, 0.13025221506768678, -0.14871131870493257, -0.09582403573822408, -0.16336987560341334, -0.1745581082810282, -0.08122343260396628, 0.1310416493540224, 0.1560566344352263, 0.05647625690907296, 0.024867302408840046, 0.19446673631761144, -0.07597095459647726, 0.12559559792897065, 0.37637700032819943, 0.09898431285027538, 0.29054225590927013, -0.15825770654945306, 0.009993452578717145, -0.2020670726950088, 0.010382717680964042, 0.020366564220021657, 0.07543176732601765, 0.28222814005544167, 0.013491667826683384, -0.03338631235904948, -0.07684766223616302, 0.11769359193308111, 0.00734190266219196, -0.007120163125249008, -0.12885884909743786, -0.05479637897528196, -0.06269396395287838, 0.17465051788857314, -0.1278398151723974, -0.14523582520498365, 0.03482765928446598, -0.3308547106209407, -0.06807607681993526, 0.1156744961401617, 0.13095262344350547, 0.2242046300887507, 0.2765573797857253, 0.11250405405478787, -0.1794266001755698, 0.167028636734416, 0.258393524355425, 0.2665595752283602, 0.2393379032224798, -0.010017219972706097, -0.17881774700849545, -0.15258372337593767, -0.10784655940985424, -0.12045383687699317, 0.14209801701774497, 0.2375592560076323, -0.13899912344569257, 0.05735879619803178, 0.15487147983535746, 0.01744182952883607, 0.0612784997232117, 0.18737413937358313, -0.18832401298823576, 0.022002370461236345, -0.284234677262312, 0.11942625758023818, -0.05572927563816872, 0.11839170278519467, 0.2015623401232551, -0.18106282663361112, -0.10379120200885986, 0.02300423441201715, 0.125750031254509, -0.007728410165098527, 0.2909240542689552, 0.20590709156546635, -0.37930670718010173, 0.04429344563924991, 0.21185925717517284, 0.12533019328616182, 0.12870129332140093, 0.23930273980202307, -0.42121702182702764, 0.06564367713213819, -0.027742822776132582, -0.014723444506669231, -0.09334750384521602, 0.002657656576917748, -0.023790075721692623, -0.15328124493920983, 0.044655832681999255, 0.09929210225072253, 0.029357533120781997, 0.1824389332958929, 0.2194429622439532, 0.013078773794313337, -0.04146938041342667, 0.04261753481962916, 0.06799927943405737, -0.0770041124153221, 0.02022771523290145, -0.03835143299371237, -0.0205461451038409, 0.19691444231403146, -0.03692062479250585, -0.10755274596570953, 0.2950877846672707, -0.017888135673290274, -0.36794997157851234, 0.11920611880548564, -0.005528915497266805, 0.08044670885274227, 0.12978028662399083, 0.3195116420831939, -0.5049324652054127, 0.18547951851030264, -0.05384275052483164, 0.1103862960315103, 0.09024281876303519, -0.18881937080686634, -0.030032518643992496, -0.14598768360325776, 0.0472788225254799, 0.02156737943384699, -0.14482984037654292, 0.02272069099393291, 0.25060704501635617, 0.05376296210314716, -0.06822294962243315, -0.058008890196705805, 0.22497927871978848, 0.03868768103196654, 0.04096730234784202, -0.07979127575202721, -0.1698827553844623, 0.04632556835491978, -0.163193546656102, 0.07913033112483298, 0.3526238746415389, 0.1060803176847347, -0.25304560910072565, -0.06890798427486597, -0.1631053619922467, -0.011343770149930434, 0.0624015335148135, 0.08408982836665559, -0.36051708696617224, 0.07499136527633901, -0.09590944677279548, 0.1870632238291612, 0.07527301800880597, -0.2236823657017919, 0.04506062705732073, -0.1547431963644599, 0.29067807843145405, -0.0682325049502679, -0.04859101151762072, 0.0365299187138839, -0.04293382539525165, 0.06105733044588043, -0.04488401698975046, -0.09044163816009075, 0.19766749557923213, 0.1443576260070722, -0.021284447520158293, -0.039282728403415616, -0.11826079917741429, -0.1342896923037755, -0.10848409713611891, 0.06105829421794289, 0.28044135232849776, 0.15265456995614568, -0.18550160602237067, -0.19241549463774263, -0.14564723727060297, 0.11072728316855772, -0.20991462579365883, 0.14317330501207937, -0.23907483975228927, 0.013470583916368607, 0.03700042537456535, 0.19848472713344506, 0.11225483609555321, -0.28274185077182734, -0.09230030056354843, -0.07988507781506142, 0.16528843839343518, 0.08877450589620825, 0.17170444166702398, 0.09529867755892399, -0.11210875148182986, -0.09595032593805193, 0.07614244635006298, -0.08883688592693598, -0.045035183392740125, -0.0825344156027494, 0.0056329175502853965, 0.03786324370671304, 0.08874880147329739, -0.025725898652369298, 0.015687145720119477, 0.07514052300947921, 0.16958384521877948, 0.015250171261217116, -0.20014046419539683, -0.0027400848926148625, -0.10399467554042263, 0.0945938632556591, -0.16618594926673044, 0.11816525204473755, -0.05679692871487101, -0.042918404631735976, -0.20456728834832485, 0.25276584785114986, -0.003468013739635815, -0.21268214298455154, -0.14306748137473246, -0.07669560313768378, 0.051369081331021936, 0.12138611702651946, 0.2356038689664413, -0.060280971827726, -0.12309425673095714, -0.09764801375735052, 0.04787261576769439, -0.05477980798321096, -0.11412125152252166, -0.040085936579928094, 0.05674613205907827, 0.09792331401894168, 0.17404702153987586, 0.04636159730949433, 0.04678960990712173, 0.058155921549009365, 0.1164843055261651, -0.04403125988029872, -0.13117656300551514, -0.01851091809740983, -0.16169402640727762, -0.10196142732261342, -0.12678913207956477, -0.007671266815097189, 0.05061237292832453, -0.046132060171864595, -0.14058017783591317, 0.1382455836447908, 0.07954538910141412, -0.08231238835317295, -0.17135468413953966, -0.0663816702501742, 0.09047919521112695, 0.06080471077853724, 0.2728392961743955, -0.10952416338304737, -0.08171728381999127, -0.2727343883670448, 0.086087705682671, -0.07227739252721628, -0.09041987242981397, -0.06901375782544865, -0.007563919925124692, 0.12843687074624718, 0.15621778902653408, 0.001573697150997675, 0.1084949961499302, -0.054615575815499806, -0.1391926069540173, -0.00891562305514599, -0.1877342188929706, 0.02634266262156205, -0.06643998876708522, -0.09141372377867792, -0.10081521582475426, 0.11395830271095432, 0.1265503408971401, 0.0034686886259798788, -0.014661404468702665, 0.08676939753395012, -0.11330527791312837, -0.02733226073210219, -0.16520976470968102, 0.07825615475781421, -0.027700902600425792, -0.04706942629519729, 0.05009791925882746, -0.07239124828857023, -0.0034588152556089243, -0.2981774908091469, -0.007425186696773612, -0.003471793049795602, 0.004860527524702144, -0.07432663710311033, -0.14851276994155996, 0.005392174607530367, 0.21778071124234794, -0.015228002751291441, 0.13813533273490655, -0.20038579914312268, 0.09562161409548975, -0.11421455744432621, -0.10630203678242757, 0.04810396599144669, -0.1303386924962184, -0.09936841055042535, -0.1249826525644477, 0.0436395778388632, 0.010628676026659154, -0.012902424751129016, 0.09793052043919215, 0.03518380495266242, -0.11843216447966438, -0.07097984356012862, -0.045022038950231894, -0.02271135486124645, 0.07788222266441723, -0.08831763995278563, -0.03951530376310143, -0.03805974855463891, -0.027852532940348815, -0.14476064520950685, -0.1287665234415307, -0.09132855250234831, 0.04482733042883783, 0.03709412496549956, -0.011194837767298375, 0.05092461466956026, -0.02724264352299654, -0.11589326578443757, 0.0825886727409774, -0.049289364861334097, -0.027489716560033656, 0.035153855676225566, -0.0421642563103096, 0.03452042713561772, -0.06915003121247941, -0.11245545145808382, -0.08492228259555294, -6.147186542543209e-05, 0.10707668880986276, -0.07173210523522598, 0.11516048106125334, 0.05926175715809166, -0.04365782479786625, -0.023683036286874442, 0.05876474361871638, -0.11874898564228817, 0.04467196241090549, 0.05349925100220133, -0.16760483599304588, -0.003953304932528701, -0.13889195458887674, -0.07894938093087926, -0.06638023085176038, -0.1370445673352914, -0.16986158601341, 0.062855980653485, 0.015108139140804274, 0.012705625622744186, -0.038051039078308015, -0.12511117201355942, -0.03453522160958324, 0.06680792406493605, -0.042294872629879715, 0.06188725443724483, -0.017107161128369505, -0.030318738798587125, -0.07400995494487772, -0.08885680727530391, -0.05412924821437427, 0.0335252814797229, 0.1461078233938852, -0.056770935476228336, 0.055199123913710076, 0.06691372829172038, -0.0029386360505700144, -0.03481339769112052, 0.12225546471737068, -0.01751344391191437, 0.02548488691842447, 0.0497646320922843, -0.06814061535283084, -0.060521209883711014, 0.0049658121792357695, -0.012151887610536418, -0.09313818273365582, -0.0816689691223224, -0.10017385890085723, -0.05551627305074403, -0.012298188665313684, -0.014729501369733758, -0.011684820765335462, 0.011555754325012721, -0.02653819300119312, -0.0043395395675654945, -0.028075477151192924, 0.00827422084345273, 0.038854636982415335, 0.014160624555951849, -0.025639690198596295, -0.0636100493591135, -0.020855168552939576, 0.06866293850789233, -0.017950299017738282, -0.023208465632903484, 0.043926451276229725, 0.01313981885721453, 0.08563494510488061, 0.06675985323205263, 0.07332990987763416, 0.030330631256587682, 0.02185543918035912, -0.04460288396946295, -0.01109823688923182, 0.029264699066002493, 0.05232067543412071, 0.004686559528144226, -0.07660621790028131, -0.09818419610539744, -0.056712530844050105, 0.03032314097079142, 0.021432017112796634, -0.007182598223024201, -0.023774432248455758, -0.011095515023306865, 0.002936472159981276, 0.07870631888940653, 0.028884431215628906, -0.06548842822281255, -0.03736152180087494, 0.02911622405238876, 0.015302013738062958, -0.05229202457918771, 0.005671214568011675, 0.049617541645978376, -0.007607987432941377, -0.014550583201289057, -0.028224028072920203, 0.000998032052976535, 0.02849292484909198, 0.013005573297160808, 0.054938198245876556, 0.04721460150408282, 0.009430160521540805, 0.0022948382937520453, 0.0019056601545497296, 0.005767124345264815, 0.005164002042619531, 0.005900299055626724, 0.03987930832524627, 0.01718519320796418, -0.054228681652615185, 0.0004382011014042668, -0.034386694285823846, -0.012693304567706721, -0.0781716331320457, -0.020517737614422556, -0.01925678764947285, 0.04377180488984241, 0.04174032603311171, -0.04441076671552503, 0.05090461009003168, -0.012645405846540914, -0.030291916067032403, 0.06906967165537416, 0.022102546106382917, -0.0010149111292973713, 0.009085599103742787, 0.011611257936207705, 0.003678210749974353, 0.003043639724372049, 0.0005641400260444899, -0.012172908469747227, -0.026993443316273586, -0.004254405114119218, -0.026654695274061568, -0.029684954955066022, -0.016332012068472672, -0.021869535544623342, -0.039686471195579665, 0.01386737420942881, -0.007423668404463487, -0.0016054653358482953, 0.031815172536644, 0.011850832865877254, 0.017199959505002065, 0.0461246342908919, -0.005213101264553237, -0.013872363333889505, 0.0196246087599341, 0.015930299302021538, -0.05353413431562386, -0.03709483120859768, -0.05085834621310228, 0.01414193506849085, -0.004062072753437839, 0.0426662842996316, 2.266115888092962e-05, -0.04548322550073539, 0.00010344101059699929, 0.013176403198625388, 0.0695815974384647, 0.015258785495073523, -0.00246049273656704, 0.015360044648590712, 0.03875418582548484, 0.008659920625205387, 0.029640663635992947, -0.02153691537459107, -0.004296483982301246, 0.015196644573380066, 0.002391521989185653, 0.04962375687712342, 0.047912733829934294, 0.023642056646279594, -0.03882503612324528, -0.005145049227520276, -0.001018869993316351, -0.030207802135940563, 0.018991148779370668, 0.014137565959622195, -0.007904680394591747, -0.010738504087324163, -0.009595437114249167, 0.02756391650565754, -0.0004579008613635056, -0.04005022978347769, -0.015480037114360943, 0.005877794075366943, 0.02081995959466065, -0.0010327202102393387, 0.005831747964961524, -0.030142294477511333, 0.002075063770309708, -0.02112092073588418, 0.031871217266761044, 