#include "onnx2c.h"
#include <stdio.h>
#include <stdlib.h>
#include <string.h>
#include <assert.h>
#include <math.h>

#define NUMBER_OF_LAYER 5
#define NUMBER_OF_GAP  4

/* Configuration */
#define IJK_ver          0
#define FIXPOINT         1
#define FACTORS_FILE     "./factors"


#if FIXPOINT
const int MAX_DECIMAL_BIT =    0;
int MAX_FLOAT_BIT   =   31;         
double fix(double x);  
#endif


//hard code const weigths and bias

double coef_h1weights[] = { -0.03386559552298585, -0.02425772719626078, 0.0024180028167935007, 0.005981654502469206, 0.026735620893347453, 0.002798602469926416, 0.03064666295077085, 0.014817927035113417, -0.03144007274583976, 0.0011478431548274679, -0.05717219181488027, -0.039845687224997116, -0.04707348018917189, -0.06017949061136149, -0.006142301462363659, -0.006230282025701336, -0.00531330541690843, 0.01831695823268917, 0.005451815351289922, -0.011907372582582232, 0.013639932373103344, -0.035792981631344374, -0.013847158433813058, -0.028306004086968192, -0.00515711767794111, 0.02918300526358878, 0.07090970517032211, -0.031337206111624466, -0.0012181088681054574, 0.007880593959052393, -0.012721866605271042, -0.0025375346850805974, 0.05210633816618646, 0.027706360732181877, 0.019877396003062556, -0.02304374714336787, 0.021189026359041276, -0.043660220497341536, -0.03252617462989828, 0.003740138312052786, 0.019029595952968135, -0.036706526301877984, -0.02130346362950436, 0.004785075352364963, -0.019320437262896593, -0.05127565306161808, -0.058218438409936416, -0.01836197782621338, 0.010807585095634918, 0.049853139421381115, -0.04201946622783457, 0.06994233453438299, 0.026355957298799505, -0.02538319143383867, -0.04925363771153387, -0.027786954127357988, 0.04583074070492653, -0.045057648066600606, -0.0044962230690067185, 0.013083199033639921, -0.0014185992178023165, 0.027232076224752138, 0.020808283622856544, 0.032747107270250785, 0.0032279428879264807, 0.007838954194790413, -0.0348669239433654, 0.011480932938696538, 0.0515578913807521, -0.01515249419246709, 0.01639046060620626, 0.06153159392944959, -0.047929237085167206, 0.02201069581360107, 0.030848109041285637, -0.029153839343833837, -0.018553432644099987, 0.03615211526284518, 0.04106018450862756, -0.014552613516168014, 0.02164202077989737, 0.028344652344493505, 0.04145273107117225, -0.04023462421478862, 0.00908904859070252, -0.00820097133622383, -0.002549400204396313, -0.045778276352552584, 0.05548053378493524, -0.01359624185467711, -0.017608426923841458, -0.03066707540974659, -0.0685211509007216, -0.0011319334959786953, -0.013386961343046068, 0.0490563639299901, -0.0075413212231108025, 0.026362473310909157, -0.005963629781634061, -0.01107742797349858, 0.022471678826336928, 0.026697538711502565, 0.06595182670042332, 0.0008912855032562296, 0.020541213391233205, -0.047215582226380844, 0.00730466201992439, -0.010839142760856808, -0.004618883065881604, 0.046506166148998745, -0.00011836536478240886, -0.019216224098820463, -0.0006372387595533562, 0.0002557210046781502, -0.02084964765287021, -0.05491407165250806, -0.010485027676492106, 0.02111365115144634, -0.04986450791193939, -0.023017667647927294, -0.025421218891329825, -0.02404248225874676, -0.0035049568817915222, 0.033610569506002774, 0.008290029508700225, -0.0272654698652423, 0.02072048526797526, 0.054942102584469646, 0.025949014605907393, -0.01860817957516296, 0.029882035067295618, -0.014897814382961994, -0.007850561623582072, 0.06764254178918805, -0.009949159468616327, 0.022786611857969825, -0.03266767182832705, -0.0014300742511198828, -0.04498947435175957, -0.009466793411126837, 0.004355630235063665, 0.015711854995081185, -0.023641640851575697, 0.001189513681300869, -0.02528316716457889, -0.026744400021132583, -0.0035310661226491103, -0.041328510637757145, 0.004217734478905217, -0.04358113782982164, 0.012072598950290942, -0.016646757540598498, -0.027426873676421316, -0.0189436136427954, 0.026187012945192465, -0.008051452600836359, 0.03623203825783114, -0.003598800531596198, -0.039221957349907445, -0.022186447060633132, 3.538433036818103e-05, -0.0026500712461466226, -0.06604950210875092, -0.06017866791997952, -0.009482365590782334, 0.024914031061275363, -0.063461000247285, -0.002670444506324447, 0.04323193463020732, -0.03882024180172112, 0.06813232174992483, 0.008800798692854264, 0.056873696511464025, -0.0171240229951072, -0.025713358561313307, 0.034050782465195426, -0.07038278358552125, -0.05034163780180668, 0.02028280928903327, 0.037119900495884754, 0.02292228227469903, 0.009176628778084646, -0.00867794338946578, -0.009761019369969435, -0.04064665178539606, 0.013636626664379776, 0.004757780905932277, -0.01091286118447729, 0.044893738316974914, 0.02820704655397194, 0.01651832501966644, 0.0189410531018871, 0.03214537354352289, -0.053321155678758766, 0.0325158320890213, 0.009428073664938448, 0.060221186828016235, 0.007695305094947945, 0.04968052066155657, 0.0068650261798009924, -0.027813606144098738, 0.011193652109545234, 0.06310594951976296, -0.020027491802437312, 0.030893265156640405, -0.00319030794979986, -0.035619212517997934, -0.00863911519596266, -0.019517296427968258, 0.0052119101473259745, -0.038889022799198855, 0.04466332125816494, -0.0356469006281226, 0.01852373406821881, 0.03823225326270412, -0.013164661644662127, 0.0231539817448779, -0.016877794154198676, -0.0021135075703436717, -0.02566625214614971, 0.01673760731050547, -0.05507234319517875, -0.011188550295817933, 0.021400355001762947, -0.00757442264508181, -0.015122811332076798, -0.006401000554068244, -0.03300221427065288, 0.03480443804484907, 0.041005237389098746, -0.02281002133429045, 0.00376601930218808, 0.03098488630898772, 0.02546708355200881, -0.03848301424012003, 0.033938485276117814, -0.013552113029635717, -0.03821160793795677, -0.0058619151129085684, -0.009012285817255774, -0.05426746214221168, -0.007212044425519275, -0.042252116119768764, -0.007482298475281977, -0.02227525668087362, 0.03504551357705631, -0.02286113693270295, 0.030072627338620775, 0.03757169299605637, 0.01812795653362823, 0.0335843024851955, -0.04944431734076316, -0.02660726981123228, -0.06248303729951568, -0.06951489157746628, -0.0025414027164488632, -0.03607161515882896, 0.043350128485866515, -0.02700218103805373, 0.02675986531542751, -0.004736202257775602, 0.02097938423513552, 0.0030282739868499418, -0.024174654401111505, 0.008282944872074094, 0.056717256689351576, 0.052536672633968384, -0.029134499519916767, -0.04011698862587962, 0.025317058821835686, -0.01668602949246386, -0.012014973811971518, 0.026161068436327956, 0.018650413150042507, -0.03773360574274546, -0.007824323248362651, 0.007224101535075984, 0.01687522860576207, 0.01488114585426904, -0.04279056466217731, 0.02049804946434028, 0.03216946014620583, -0.044568443473842416, 0.025018235039394474, 0.00038983008808939816, -0.029652647609127846, 0.006685884506196342, 0.055459070093161464, -0.0358228388301117, 0.03508036750535688, -0.005430909655718055, -0.01665448303330344, 0.020176085032750885, -0.0166600792857546, -0.03617362617160729, -0.04665516406905681, -0.005360639645028612, 0.069464232235262, -0.021764418683332287, -0.01370606326116864, -0.019720987236294438, -0.033074818769687264, 0.03508680578229622, 0.0009150651846419693, -0.01585800074521304, -0.03830705004830922, -0.04483991048490216, 0.02822199974477008, -0.03604935671048857, 0.05605547193879401, -0.007135122510792024, -0.030681352767644006, 0.047152252795407266, 0.005378714589534312, 0.01664205946843721, -0.01838001852072957, -0.012026631514200827, 0.03429237215138466, 0.004529521966031417, -0.019424100485159204, 0.00815544445666405, -0.0253498362981404, 0.04988088937378652, -0.014168333310165265, 0.011675525444827278, -0.006383828364542167, 0.016112811975015327, 0.042097703367233064, -0.04420714659510528, 0.04402575623448434, -0.04553545175866825, 0.005276003242534931, -0.050732237196598126, 0.04280581915839483, -0.043834932562080896, 0.006036039091494853, 0.02479468110116847, -0.00808039143125724, 0.007690144469675595, -0.0277697030668108, 0.021950423056907434, -0.007634572634669809, 0.056673502642008385, 0.011476822609765323, 0.04686628813479546, 0.003031681042186989, 0.007369726761906696, -0.0387447977308893, -0.015814238201262834, -0.040940493181699754, 0.006732924953854022, -0.007904040200271271, 0.051103658315210465, -0.01183980875940032, -0.012662175590812268, 0.025194479353850857, -0.017031491005169614, -0.010262650670054151, -0.008519041952278606, -0.00415703575463485, -0.048153061895659655, 0.009670931248857775, 0.008247645584500404, 0.0025325587668973007, -0.03695712320041659, 0.017921050718266496, 0.0025171100176070407, -0.006208065731678177, 0.04782407221002855, -0.0008015680948782875, -0.0030513473705289424, 0.021676594757610856, 0.022629444795143703, 0.055845901977752715, 0.06603514373272101, -0.009540889955826873, -0.03286860700066906, -0.04313683702530554, -0.007880669589104225, -0.016911760608629672, -0.067213579217107, -0.008623806108169466, 0.03151503342743925, -0.0036862398631197215, 0.0070612481597008715, -0.028659250937704422, -0.02447907586517027, -0.04860806524058374, 0.021452170713180785, -0.04670269686034115, 0.02593288287869644, -0.026671315423040493, -0.020789366213034857, 0.013325427260294738, 0.025730214451875878, -8.491177226647969e-05, -0.0370571613033931, -0.029269776210736148, 0.03372302988562417, -0.03256067378207213, 0.0308978643939927, 0.04185993673250739, -0.056063172152366815, 0.014836633948971889, -0.00933229422670176, -0.004656776435167361, -0.015278464619360482, -0.012471291551412933, 0.007377352658432803, -0.06987630647562264, -0.03869666986185977, -0.05977120684201387, 0.03138569153323468, -0.003477541583429842, 0.0067999725823307666, -0.04239877150898396, -0.02284710401256055, 0.02381008667880309, -0.008853840300545614, 0.026249445020526584, 0.010352604842101723, -0.04394105892221432, 0.004806462441980139, -0.017522944123981816, 0.04773092808468318, -0.007262931360349648, 0.03241370802753663, -0.009260404259412342, -0.06964758188864051, 0.010749941659648675, -0.03097455140517569, -0.05306069804757169, 0.008912684603865788, -0.04658957084013654, 0.04410772126209979, 0.022755762481168385, -0.0036978313178639447, 0.00682008874704565, 0.0009129113684815685, 0.06266736601680012, 0.03427466587111113, -0.037384230516577195, -0.005954009176329674, -0.02258578124833227, 0.04801019045063266, 0.018979889274541265, 0.015024209802142419, 0.01796211958270851, -0.014546753008661543, 0.02880637995262973, 0.023909852861417197, -0.0031759693218551153, 0.024445458314636268, -0.020200891882956235, 0.003869565189117502, -0.04776138364915365, 0.017816255912794298, 0.028950921322600142, 0.025770262693701737, -0.013763340153125529, 0.04065353661015572, 0.026228496678711608, 0.05140743973072642, -0.04755836850374773, 0.02804993155458701, -0.015947446691862186, -0.0009648035641707492, 0.010225499961848144, -0.054883579262467765, -0.01394575688596169, 0.009974762823902946, -0.018735857231748313, -0.04762066837868892, 0.047783665558362186, -0.024215141148368275, -0.014317071668025433, 0.054783075121942165, -0.011346552654225755, 0.004858470607963719, 0.04777983946147544, 0.0404437162597471, 0.037345470789673874, 0.002579141990957145, 0.006046273732111832, -0.003999097628535005, 0.009556965548622835, 0.01605575464122995, -0.021628014441679205, 0.007819364392143636, -0.003839820331692974, 0.0531241507936689, 0.02537878647985284, 0.06298046035364245, -0.008672771643164118, 0.023582247127584693, 0.02222546636799472, 0.050460332121707335, 0.051581176645410065, -0.01931807247819174, 0.015285741768115802, -0.031182107435991483, 0.04471949426946944, -0.024281421645026308, -0.047040700933809944, 0.002736218286432054, 0.044397378783345744, 0.012782791941265706, -0.035590297362318356, 0.012078549319633446, 0.00019005731758192423, 0.025752570295705723, 0.012930568661788149, -0.015153672350093152, 0.0312760794373258, -0.04117105736661905, -0.021758986309759032, 0.005233230318093806, 0.03387627561408996, 0.008549919423489325, -0.03373384970717362, 0.013576887726883612, 0.02956900888553634, -0.01153305823937192, -0.007355339958944442, -0.025552242568603542, 0.0010262012253243432, 0.005246732711780788, -0.048709366735767035, 0.0061161419463713574, -0.0024254860216011177, 0.03140154921709573, -0.035574493958069324, 0.03832654413226319, 0.05112539869472436, 0.02200934018835816, -0.029470877589435115, -0.05694663747832675, -0.005876369331442561, -0.06309847953458131, -0.0602903876372685, -0.011006254259245044, 0.050827081394044564, 0.032405870694083974, -0.06362550508683998, -0.031987275206204556, -0.015894235031774843, -0.026038185271681613, 0.0477820469751229, -0.03211198515587398, 0.0020671413665173306, -0.002312460960033427, 0.03253392771303211, 0.02416800103999548, 0.02166764598077569, 0.05125127693905647, 0.06287547611730808, -0.022740716544588833, 0.013534236880883689, 0.024765508796318197, -0.035671488925819374, -0.02310858868873034, -0.05943623464723114, -0.020325658601816683, 0.04596088243053969, -0.007063982586752128, 0.01203097647183564, -0.12241420360964844, -0.027103146340142135, 0.018473659077985184, -0.0007592732998903413, 0.10190058358572023, -0.04726659982281189, -0.045362766058719924, 0.04827507637930321, -0.0023520945422220714, 0.052523589780234047, -0.04006018644915229, -0.002440127229670671, -0.03300305712768401, 0.012166898491283738, 0.0009186290353211742, 0.02528008212975664, -0.051756096933657084, -0.03597559563855194, -0.007000046406445401, -0.0015637069483665708, 0.051249029406304124, -0.06243628383234792, 0.04625143844514874, 0.013038961237927311, 0.011278027099603192, -0.04908885812656981, 0.0360868313102569, 0.006871324191636872, -0.003210957855732311, 0.013205381545658833, -0.008731969760557947, 0.020180336628331595, 0.03475679083863453, 0.06780474511463234, 0.022591565777010103, 0.02289837257728673, 0.03911397018855764, 0.011842317074136749, 0.0014922192015974676, 0.03606472885462673, 0.05061984226071568, -0.0025203669101463897, -0.004196281703252729, 0.008192522060075185, -0.04537465295063031, 0.028449346331189805, 0.05441541640222402, 0.03007187517798719, 0.021370697736720724, 0.03142599317764829, 0.009557622667443833, 0.049338542715147024, 0.05921480153171732, 0.007623876539448923, 0.018610320107518837, -0.018504876288641052, 0.02852261060611237, -0.006722937545806614, -0.02220783700207336, 0.05944219263408095, -0.025428200577025144, -0.018837485456386836, -0.030566293918932938, 0.044968135450843466, -0.026015829274862835, 0.017958912859473476, 0.005668624983902184, 0.007552101875646535, -0.01043752105774949, -0.024418248172014663, 0.009251859198139575, -0.09548955730322795, -0.0066381089586439335, -0.05671761554914095, 0.00783824308808861, 0.025776117212784635, 0.0138745799435895, 0.008762380396299238, 0.01737470566424112, -0.01624925736969886, -0.02538054315482065, 0.01053887421686588, -0.04076879875469459, -0.05917496402049309, 0.11432855185591795, 0.05070488496694939, 0.009844557203785674, -0.03219666087152779, -0.02350744507569205, 0.03505707533157907, -0.02151913082180362, 0.016120663809066967, 0.03866504176754655, 0.0006280774590702412, -0.02884451408929305, 0.003895693980709712, -0.09660001113280764, 0.028434999221903075, 0.04062330582580086, -0.038422140835648176, 0.0983032151709568, 0.044770611719501544, -0.014739481061981637, -0.022200220108442633, -0.03731548319050767, 0.007300140896727099, -0.023339861177117654, 0.03405989788922416, 0.03987513669596807, -0.03602678060467854, 0.03618683293542178, 0.03245414987493569, 0.02137998655987653, -0.03879267110616506, -0.0019411791081653553, -0.0066665150998643785, -0.04626398631257445, 0.0271100344032843, 0.009517560194193317, -0.005606380503788973, -0.004578468023793818, -0.048939941645679295, 0.017405004951245445, -0.020896929112570812, -0.040175436753419225, -0.06021288164145088, -0.0074477737000098135, -0.009608064791389849, -0.04759345116708036, -0.0226795141810741, 0.050263701481807546, -0.060846711033667795, 0.0015661571178264206, 0.013687063798805753, 0.013625341087991393, -0.05052355942548793, -0.0033608328205209786, -0.04250129225687197, -0.0243163066727367, -0.0357949603928133, 0.007573294287553499, -0.005257046383510585, 0.003565645495755487, -0.035570041323492924, -0.19068580721077563, -0.04099758902376413, 0.06945830235924548, -0.05251952382845709, 0.07523511817981904, 0.03560839716746444, -0.04240691415000967, 0.021116508250148023, 0.06624021905265998, -0.022402894108206253, 0.007209529174795548, -0.01167794439061177, -0.01829018517271847, -0.020982410589919533, 0.02791447293549833, -0.053166126240612364, -0.04158728017377793, 0.0036206050159691954, 0.05828758317707675, -0.03872480548482675, 0.06960696490234417, 0.018270866890467113, 0.05168359910898567, -0.0035286432712491283, -0.039553930450683075, 0.011644584059511267, -0.0026742924119883948, -0.016000934812511573, -0.008086184996375142, -0.023742475238714672, -0.06740876204780231, 0.01553350648293163, -0.024454619367992893, 0.023724885978724568, -0.02427256388339861, -0.02938361943356929, -0.005687938621410706, -0.04091319452100483, -0.004080483208791351, -0.002746290683406596, 0.022745902769452493, -0.046933308716506146, 0.010224537287841813, -0.038428987027084326, -0.021509959421667977, -0.05299344794042624, -0.03519373607623081, -0.015905889467987835, -0.07891753346825581, 0.03685497785940806, -0.06329252668162305, 0.015076197211829742, 0.049126090615033605, -0.01979996006869552, -0.012474321083419957, 0.0013739964959890636, -0.02108135705678702, -0.027798668846324558, -0.010985290650359358, 0.006174645257529185, 0.0019337995551641678, -0.006314182384197251, -0.019771047514325495, 0.02914289910442873, -0.015464170472015462, 0.03265909334212141, -0.005213932353011886, -0.001835990811343308, 0.0055748702469266, -0.024389264901279014, -0.0064303942702537455, 0.012410571722496848, -0.04049167828516695, -0.05505548328696904, -0.044982539496882155, 0.0267697771937763, -0.02897305097054799, 0.037724879783005955, 0.04410516263547367, 0.030821689791177012, -0.1100921350726225, 0.005489328308353552, -0.04661819660134315, 0.007600797821675545, 0.07558449274510626, 0.11753274621488313, -0.029994333175426758, 0.034287558969510225, -0.026223856790164802, -0.024840201229531306, -0.02140327744746813, 0.005066948056716438, 0.022850072704077674, 0.002987316032337804, -0.019411999686800012, -0.010059084734114933, -0.10152167525821675, -0.01016389825154663, 0.004673858016123853, 0.038332645613709665, 0.0929914752296598, 0.08113315583270826, 0.03590460590893676, 0.017213564326151766, -0.01465948010959783, 0.008062896084790605, -0.02960070966562441, -0.01458736999787462, 0.07344750745931962, -0.0097783629181035, 0.035662409590256655, 0.035861952972900214, -0.03760154256966076, -0.067138564758281, 0.0024627876655129682, 0.004100201718577555, 0.07349143660336958, -0.0009508738683634847, -0.002904723777584398, 0.013379452567838238, 0.039753378240820335, -0.027700402314784895, 0.056781849847371835, 0.0200777151647362, 0.05512878980158666, -0.00709897684747574, -0.05865206174399015, -0.01779396506621647, 0.005517785220454089, -0.050243956288429814, -0.006388945579898704, 0.006061819196216258, 0.02974164881172216, -0.004368771853138293, 0.03958511929157445, 0.028335506121927565, 0.05062969462282583, 0.053121279896439444, 0.009644603195603164, 0.014043191510495455, -0.05462918113298797, 0.009077157010012918, -0.0469542043413691, 0.03278957221136242, -0.007434852862242059, -0.048940113803441626, -0.01725488907640935, 0.04191885880096979, -0.06108153363141787, -0.003464511197048649, 0.028804617835880026, -0.06623340556017784, -0.03248577582744308, 0.03429030509443906, -0.002153430423102527, 0.00829267004814021, 0.017656034772645154, 0.003929380486799047, 0.006463622406300058, 0.0028533872842488274, 0.017788655186073702, -0.006908215609854756, -0.01731076409476729, -0.063756891600619, 0.007675885009773456, 0.040350552088416446, 0.037872182864973285, -0.007219102527391943, -0.03329644753408042, 0.03008481394042296, -0.010665653699100445, -0.0028729494641710333, -0.029953640849821828, 0.008183876728188431, -0.01022459595399649, 0.03720185676934282, -0.045701272742597554, 0.01635096987716423, -0.030621948328091137, -0.050395422883731306, 0.046864573044194426, -0.021838197200947762, -0.0086691480849347, 0.027896555916316495, 0.01180478444035173, -0.017068855085740315, 0.025038766044160214, -0.015881459165737865, 0.019508231139196676, -0.0022636418730270624, 0.06814010451096357, -0.020252047310256045, -0.022472139449842343, 0.010809241370559478, 0.011204071469084503, 0.01578051732008802, 0.032441418807976505, 0.01721751169783734, 0.04935541247665769, 0.005830562383944954, -0.006607166579840856, -0.048859815353971194, -0.006443169584898803, 0.006344861408937377, 0.05826388587503024, 0.004834051113657131, -0.03200600191645966, -0.03673807723453272, 0.031368241819504025, -0.0555606021641357, 0.01705887027147904, -0.0007573486712678987, 0.013688723619416952, 0.06654324542368151, 0.05782064965414485, 0.015796320813893303, 0.036855788738211125, 0.031092626853322675, -0.017268111096222852, 0.023077119188832512, 0.00800319756495285, 0.01998101900468031, 0.038775603875900115, 0.0021127309529361767, -0.033723199339792974, -0.024872965602284983, 0.03936800652467277, 0.0033790056901073654, -0.022450580732533535, -0.023335052116810532, -0.01637032449647392, 0.028709910919262213, 0.018371194667444222, -0.03623678555126234, 0.04188298897983451, 0.014874672441938205, 0.007225786546676267, -0.015163095428495955, -0.05440214346893615, 0.013631006811898643, 0.017721878254382355, 0.023439468803562454, -0.022109979246053183, -0.023986445584594222, -0.009715105720967893, 0.027243090494464467, -0.023005483780473526, 0.023398187047959103, -0.02565654173436365, -0.014313224757617071, 0.030586567052034618, 0.011390629198153883, 0.019194094800370032, -0.013871689051809088, -0.015402538105530168, -0.010650219544219497, 0.011481025287001196, 0.038526780245005, -0.021657920164746082, -0.05274716098174095, 0.020331392961159607, -0.017494344190963237, -0.03715990345014747, -0.0006231228700092992, 0.0602800418524904, 0.009601913048100798, 0.003951692012605686, 0.008207645913903012, 0.027047699553821865, -0.0102115393026086, -0.006874632202000691, -0.029332592360262356, 0.005201805765205636, 0.0294167453367245, 0.009941029168560118, -0.07023310647487623, -0.021118251466393935, 0.029542424762502992, 0.043649239108215866, -0.002340431683197971, 0.009138458397680075, 0.018323187008383958, 0.03219585998552912, -0.013333649707170402, 0.011337362030140748, -0.005523148066003312, -0.06983996178709038, 0.005212945990868104, -0.015491059486906388, 0.06267278504471077, -0.02230033958529397, -0.029803142247439008, 0.006374792603403093, 0.020288641145850467, 0.013406320890063838, -0.003051385258131983, -0.01258604954480147, 0.015759971816780426, -0.017961942015324982, -0.01763618649446225, 0.02079087634505849, -0.06975769297869243, 0.004159196543449079, 0.03321415504158153, -0.11774232567242106, 0.03717125658395576, 0.0307965855269781, -0.05943843685281179, 0.11647648625789521, 0.010474786343972895, 0.03266878987718987, 0.012408657921186618, 0.00806959037628498, 0.030939511014683313, -0.00899439037993263, -0.010368061269562296, 0.06053639238449085, -0.026567354618274676, 0.004401610650289342, 0.00892255534336237, -0.0390078763914857, 0.07277999503197251, 0.02956248333201222, 0.01608998076454814, 0.14663281147531212, 0.05369651916875025, -0.0659177792169954, 0.03984397744108174, -0.05020733011895935, 0.05452322917569876, 0.0037520804879127446, 0.007524482378191286, 0.048784587925370396, 0.008616388925758297, 0.04680005559432603, 0.002141074148120681, 0.014309889546291471, 2.3018425120494443e-05, 0.0575995981476034, -0.016184503566871157, 0.10257461947023815, -0.05478218310986845, -0.040886966372429605, 0.02347528100079835, -0.09434812840295159, -0.04111265368760194, 0.010693848078401286, -0.02728750653295983, 0.09253190539944017, -0.013315918781331053, 0.10704280898492752, 0.07423601509550821, -0.04581329079699964, -0.04096155637764804, -0.03014776182807448, 0.03176773673717448, 0.08286719117873897, -0.005577284975345319, -0.04171143054518582, -0.04172185967457513, -0.025676556492132633, 0.03952360018220573, -0.041180401400376265, -0.02873946827946184, -0.0024692943486277694, -0.003898666862438853, 0.09320296922260164, 0.02113768520848988, -0.06984961847553804, 0.047132982427053084, 0.037683694019786974, -0.0029510545104023413, 0.1678261406199617, 0.07035138807848693, 0.05177425868749418, -0.07870299771804509, -0.04127751211588063, -0.02031265965114533, -0.03229985271748389, -0.05905726428520224, -0.053234018944838375, -0.02746571882232334, 0.11259299833849312, 0.13613195268310274, -0.12083230647221023, 0.055100926026536795, 0.025804849970919412, -0.00706467790869275, 0.2519987083979348, 0.012854032298989265, -0.1450176251492184, -0.15004457344045163, -0.03000882573415993, -0.01566247666215241, -0.012277548670085554, -0.045922226753543294, -0.046742954145203415, 0.009388652374350515, 0.03611575139821848, 0.12074618747238271, -0.1443610919200625, -0.014967380169406977, 0.05463249117757395, 0.03823040850946739, 0.1360826264512367, 0.030744189382491394, -0.07258361314767071, -0.10298755342629701, 0.10164827128821731, 0.039968648132522815, -0.03499298436608129, -0.14459698056729034, 0.0686996599220353, 0.03826727212262161, 0.013288805908656828, 0.004160408144042955, -0.20034108398982683, -0.05481754861637666, 0.03700104253011377, 0.05652595139050133, 0.23590947156659578, 0.022842493355799503, 0.04672610371078567, -0.016875846961028552, 0.11070206734451389, -0.0036024582702668985, -0.04481009200081463, -0.04819425806721538, 0.10386041370183693, 0.005982374568307701, -0.03972979641322162, -0.07220809569265081, -0.1095498075488558, 0.034163819181022174, -0.058738366466856484, 0.021441599919882447, 0.11973162659945413, -0.05720287382503389, 0.10777124910261597, -0.11170768354846165, 0.3513679689034691, 0.0429353926758188, -0.030887352480119097, -0.11446556658081437, 0.13347381918828322, 0.06707548047194792, -0.06520261961564126, -0.005492931303248584, -0.20164932559953822, -0.07228197544397623, -0.021493433590592633, 0.02415406069089033, 0.24335917486556546, 0.11485329827255976, 0.16365710637309636, -0.14714954902961702, 0.13876814072015806, 0.09340909436096675, 0.017330319908503457, -0.030276794391840712, 0.05304458247292377, 0.04059276837426849, -0.042669934501138665, 0.08843865179382786, -0.07392836683142626, 0.08598652919176762, -0.14746826672267815, 0.03625122494938323, 0.3110936014543871, 0.20614630690558577, -0.04289652398550527, -0.1721305101924864, -0.0039565314869141185, -0.048665551530449803, -0.08233177403468958, -0.060820717439152946, 0.0024899165541504855, -0.020134613769215118, 0.010982612311701319, 0.04842634897646873, -0.12294657326565886, 0.025965786074235286, -0.038694693748490584, -0.04498112448306153, 0.13492537795331863, 0.10952909414484768, 0.02993607403204333, -0.031308179624034205, 0.043920502947416805, 0.050151363953803624, -0.029242691159285853, 0.05598030837762346, -0.06904348269186172, 0.06601124697305909, -0.04708828032733554, -0.039597165463994485, -0.10047680247009268, 0.02520060259707394, -0.1422240664504043, 0.04892853785716843, 0.09540035841028537, 0.06606761844398042, 0.036646510499625806, -0.1206685450139558, 0.04329274168330068, 0.07371256941344831, -0.057185244965190125, -0.027442359320344847, -0.007030942613997742, 0.008828363558554361, -0.02812404529986974, -0.008313429043538344, -0.05950107687219884, -0.03329853661687796, 0.042643987576931656, 0.0539517566933452, 0.07902922713985339, 0.06942258158976154, 0.043649541531979044, -0.07667000880662002, 0.03855424002758706, -0.010493451194378786, -0.07463199750378367, -0.06569578183626447, -0.01576246365509097, -0.04416017269369661, 0.06024370053404906, 0.000637500795944877, -0.08225166208037926, 0.006506745975949715, 0.017631384525874448, -0.03544376401451466, 0.12760317237969773, 0.14709291794102183, 0.004781661768783644, -0.03499222896563137, -0.04191551199650559, -0.025084976893752782, 0.006193917711409104, 0.02641654816934263, -0.046528782910999725, 0.023764800045034014, 0.03795512008441193, 0.047860111414225845, -0.1031188920392391, -0.024401377019634744, 0.026954403174848443, 0.004701425670946735, 0.17914344642584348, 0.15422894967920656, 0.032571594866459004, -0.009207776252206944, -0.05195448499035133, -0.01767632975233347, -0.06205239987360307, -0.030808312861491972, -0.008274137978118087, -0.022188781689886188, 0.0624249962731705, 0.045117103168492476, -0.1290656969090345, -0.031845721316688023, -0.008773101525591416, -0.033257441681632846, 0.07696775398727358, 0.11338609145788066, -0.021693931304647796, 0.009144381687161798, -0.030387260777842914, 0.05161734057869436, -0.069881486315545, -0.007135277315002234, 0.017330621740072247, -0.023921560932363358, 0.01916656846653205, 0.005075277151404048, -0.048300427514119774, -0.06411714398481456, -0.008516244125936457, -0.00970846506422122, 0.04130628359003709, 0.017724619281246565, -0.0028173611370691277, 0.029729914055268935, 0.01802784791036894, 0.0336981038166806, -0.005387984440280313, -0.04257490633993445, 0.04363669595803449, 0.029652164755802773, -0.026566765479206538, -0.010747673106321213, 0.0081947113251571, 0.015271589203178464, -0.0594569123448782, -0.03923727450023417, -0.015318753192019715, 0.06403613744793124, 0.01862878912974987, 0.009613713167565034, -0.04615229829394595, 0.01489289794565482, -0.012779911672200595, 0.03826101006037765, -0.02380924859258578, 0.0449122614924924, 0.03936814576448312, -0.0275661982243204, 0.03411866310140262, 0.01702218967559327, 0.031127733272907996, -0.0036726367513890716, 0.017915016013911406, -0.03241346615293196, 0.027582294676090753, -0.04062110836803909, 0.01792021872628278, 0.036856490894196535, -0.01544326550839595, -0.044155284008241626, -0.0007327230727834603, 0.02616502356877726, -0.034043355278975236, 0.024692631493221522, -0.04032616914656118, -0.03086865342399873, 0.036180994640561084, 0.03001565878295829, -0.014516377348745845, -0.004468324387546391, -0.03539477309075759, -0.015440907248420111, 0.0040716733235655654, -0.01618681379812673, -0.017708203269527725, 0.04685000521047026, 0.0033554438444837516, 0.0023050803187730155, -0.004308539529147747, 0.06583183945192457, 0.06731996259018733, -0.04625018952524492, -0.06942603390511193, -0.03064250605915435, -0.010795290554685503, 0.010439675871236235, -0.0422862040597966, 0.05986614613581824, 6.076009428510019e-05, 0.0038456486147063385, -0.018329469157486844, 0.0017729464348645127, 0.0033527433680829977, -0.010003824770363684, -0.0034492962366624554, 0.03192283058515013, 0.048404274030281635, 0.041857876938767496, -0.050583348574867244, 0.016964711637056467, 0.038489687654266726, 0.009393210541511992, -0.0569021742327495, -0.005821037153020795, -0.0024662060084176744, -0.034138702903996156, -0.03895862315496312, -0.015045401850907985, 0.0043665437514397555, 0.02633728192392654, 0.02840238380919583, -0.006798889545351631, 0.013578835391343767, -0.03060142998839598, 0.0015118361083145424, -0.012688388151017664, -0.04025880185368399, 0.004420965184913675, 0.004863411200736039, 0.05593247417632461, -0.03541341153154633, 0.021199218268638815, -0.043776486088993774, 0.0366276114311012, 0.01795943491283997, 0.00542819077206645, -0.010204972258137214, -0.050165091087648925, -0.04689920858224475, 0.0076860365750990355, 0.027276236489227335, 0.023590271264238516, 0.03518677893852126, -0.009464656705615738, -0.019436557733146502, -0.019475372205042883, 0.03089058722791025, -0.02327777902819005, 0.006705611709720869, 0.00421595265844064, -0.02326194506766978, -0.048192742055547674, -0.022655216600483072, -0.0336780812114901, 0.05804020911865949, -0.026218425143098793, 0.030662525301286256, 0.029394764641467484, -0.042817765485125454, 0.024000592700955888, 0.03472739775766529, 0.020833410751010986, 0.0571455331982137, 0.05658420138400298, -0.0189294829763909, -0.0844246344384366, 0.022363234917946638, 0.0007775345480969941, 0.056795518381856175, 0.02939566957238878, -0.0260274112452776, -0.029419583621369552, -0.005309155822154775, -0.016964920934522832, -0.0015892379054646627, -0.037992367727113625, 0.04734113245052595, -0.030910664179733368, 0.006746716677665633, -0.0881800280130958, 0.013495747667996537, -0.1276832689769508, -0.0015858160020187787, 0.013052683110999708, 0.035349437093038734, 0.03633873149903698, -0.09581087246140621, 0.03228257023581745, -0.0020918754479875355, 0.0503834991639609, 0.08695018627161939, 0.0030343655398263393, 0.12184028806630932, 0.01073991754471451, -0.04616509085293995, -0.10626402878682849, 0.018799305535652944, -0.057350428404825446, 0.06650399881752138, 0.0391634886337807, 0.10201833436181358, 0.04927757402695282, -0.2138977039142807, -0.10872076024072799, -0.06920246541912096, 0.03789125548251156, 0.11331556406856011, 0.10720421276158182, 0.05566239000949498, -0.03204165333918559, 0.0318954380798506, -0.06825625463693309, 0.045456423684211045, 0.0094079243454839, 0.07639197245250344, -0.04160801577237838, 0.07973575068082947, 0.09178534502014529, -0.29730290257093417, -0.025746488978002625, -0.026730301839442635, -0.010360089059691786, 0.17929259658247587, 0.03521334279670212, 0.003167368544257992, 0.09660306375478915, -0.09587700470398103, 0.042131587239166275, -0.11829414481857331, -0.016152253499923504, 0.20099723950806114, -0.037710410543544716, 0.21713305419229526, 0.0999095662719172, -0.22765379405510192, -0.019724761567026766, 0.14064992335223234, 0.03255661020927535, 0.28538880443420167, -0.028204204939705435, -0.0671341399250766, 0.08273905666919606, -0.004556488539377457, 0.0049196988307975914, -0.1333264991212203, -0.061227684537386265, 0.14264452300372102, -0.11003705133893583, 0.3794503198839151, 0.1475731928326297, -0.15566284899067467, -0.12963554926729182, 0.15638070548208144, 0.01751672799577959, 0.17142166088226202, -0.1481410410352842, 0.05080358908050604, 0.0019384698888800897, 0.019601279150570933, 0.000613097099614633, -0.11973892925444081, -0.10482376019769982, 0.1540197056627249, 0.0007431006588891323, 0.4579195128567749, 0.22204135350879786, -0.12675568672602328, -0.13652226355139094, 0.18153758812378615, -0.05060724260327421, 0.22199616658278656, -0.2525156200588038, -0.11859948907253874, -0.22842543396687426, -0.23589801605593264, -0.01621132636832697, 0.13253166962154558, -0.1037141512646285, 0.06752488734244035, 0.041400279227128654, 0.44966288770086743, 0.19121311274612388, -0.322840773377818, -0.22606075089218808, 0.14224450543210357, 0.003139341891893139, -0.06645176411881303, -0.4067237964007369, 0.007426418945103807, -0.0535650773615806, -0.09065005452536953, -0.06354302788879249, -0.041505237464722164, 0.08344228339488541, 0.12742807758030608, 0.005911715699099185, 0.2696541150935682, 0.23004565779402308, -0.42051410663756084, -0.26721264285957097, 0.14546976174751547, 0.11304981098490613, 0.047572315063969854, -0.11833011239005797, -0.1254705379250973, -0.06574841539896223, -0.07124641784469475, 0.19148225568544955, -0.20350829298306605, 0.0565016190866607, 0.16701749815519462, 0.0005415895379648025, 0.2151177280789507, 0.23607675977404918, -0.2039270071291927, -0.3601226055035537, 0.2686233534902272, 0.10267227034598922, 0.06570817430173741, 0.09253771091526565, -0.14401202235377672, -0.43097461726290215, -0.12184860503105543, 0.09901826562676982, -0.2180742407844519, -0.18519112590965486, 0.16456816825221074, -0.22367213835303432, 0.06187238953788868, 0.015819236256807315, -0.3032809196335891, -0.26360994167985263, 0.15321588254635518, 0.09037711755478284, -0.09589284156776039, -0.06571812859204859, 0.059267874964950944, -0.4543526855692886, 0.223685536180647, 0.06435439059317688, -0.1264527909355464, -0.2488627971996706, -0.010384497332081525, -0.0733802014897905, 0.0020887366837464287, 0.08692065244981131, -0.351978686850481, -0.20500499263867186, 0.10896140233872781, 0.07590718491193396, 0.018245748779136376, 0.013808634518943387, 0.02395114166236375, -0.19243360907138535, 0.34726441166239413, -0.10339874097654182, -0.013175301442783874, -0.14119527576636967, 0.06394137968270057, -0.017269286973338367, -0.03299866206458706, 0.050092961854673906, -0.35834960415850625, -0.0760857599559986, 0.046097386206010026, 0.08246904169211074, -0.07568567597887639, 0.11569681171338024, -0.12185094508483683, -0.10113944549768816, 0.19823338499829773, -0.10548037744453555, 0.04269462360027451, -0.2907975749083582, -0.08423999193762025, -0.0011676789351916296, -0.04028058819110692, 0.07018425252951266, -0.2054610732652232, -0.043761239764052114, -0.13506388151938273, 0.040029623875424844, -0.04850433058235066, 0.18333067129347472, 0.038927343297790205, -0.2988249535258857, 0.06064335742998095, -0.0033631255887369644, -0.07101335906384006, -0.1630479458145885, -0.06105850379541178, -0.030407519810858697, -0.020660204080397846, -0.04258676572913099, -0.07831208298767448, -0.06698033714554319, -0.08937153602958958, 0.08689246186877572, -0.11609986353369532, 0.2007897397506726, -0.03603540237729354, -0.3386103472255573, 0.04694336314567262, 0.08324639618429645, -0.004669819356135919, -0.1486274116874332, -0.10201350849334008, 0.003517785129659253, 0.13988250538843644, -0.07409699861502092, -0.026391525413599, -0.1385837169129404, 0.0016484176539043414, 0.023986046171865377, -0.1683341581989043, 0.06097458624617466, 0.11234534901807788, -0.13147968255049483, -0.04551228094007905, 0.04616131831118757, -0.0866613057148784, -0.15803247733740824, -0.0969293726671562, -0.024207995885945868, -0.04286782646818528, -0.06874353149043425, 0.08817450864897666, 0.007499488211756675, -0.09958188703519372, 0.022416936668988814, 0.12031401027996387, 0.20296337052004598, -0.022306443502703263, -0.09378611454909096, 0.03983413989632917, -0.033248511609906245, 0.01836572568701364, -0.04088040032662843, 0.013888056457718099, 0.00112307190870692, -0.0680115371229814, -0.004911572231467074, 0.04697653492268713, 0.16416911742445425, -0.037465827764612956, -0.02129611844899863, -0.038575631835541226, 0.012183660942409007, 0.0030712240649537572, 0.008506379622821053, 0.10282333604064445, -0.0525071264690425, -0.07853414628798537, 0.01961240478045173, 0.005365553038780798, 0.040840514254303864, -0.05886763033310691, 0.0022843499234616875, -0.10813470630963858, 0.0864090959257804, 0.0010019426344910073, 0.045335035339299626, 0.019808126799000448, 0.0840785555899104, 0.03133752806588616, -0.03389231232051487, -0.010733339816526116, -0.12371484156172279, -0.05095445289743759, 0.037627365808713044, 0.06482297466714476, 0.050206052452415016, 0.025768697610033076, -0.024546607259128862, -0.16126179412354932, 0.0019227176430992052, -0.00011805199665301976, 0.005184380234852204, -0.08921060254243089, 0.10744655223293814, 0.09712329214893659, 0.0523737817833117, -0.03804472678112269, -0.04008032181796531, -0.03035532129418352, -0.017603331685445613, 0.08675580618664293, 0.013602402597551572, 0.09747931236468423, -0.06811601415750955, -0.03511925512683385, 0.008406155990649734, -0.0033032285345327124, 0.006904308007911534, -0.07967281844274278, -0.013939517859157721, 0.025923302237378286, 0.031725981172629834, -0.04689585206974033, -0.06894703633215254, 0.0751397702153148, 0.006659257127523024, 0.04225809321387161, 0.05959321713325977, 0.041102019858371724, 0.0033681786135061004, -0.009828295858515098, -0.017831719243839694, 0.00872852870828636, -0.04109965292483513, -0.008247030458425385, -0.017527351929038665, -0.024159553254513695, 0.0507940883496726, 0.00349619770561351, 0.007563870664390869, -0.031069731746683208, 0.060098745159710795, 0.041321052578016666, 0.0275877677414327, 0.011173470452167482, -0.011024406371487818, 0.03422389460878322, 0.043692462652113295, -0.06425318471462489, 0.02071001576160942, -0.0029859121532083734, -0.06122425166641395, -0.009672098153684682, 0.026945100569313936, -0.010594368801217238, -0.018516497265727166, 0.03580802550205281, -0.011158016082250798, 0.009623911527536074, -0.03421490393728962, 0.04334259868440552, 0.008287240940931249, 0.002947026419194189, -0.04220594149000039, 0.043902744425349687, -0.034280580043975224, -0.0018598044449612723, -0.01112891367202075, -0.04535211723073744, -0.0020350089534822147, 0.04483599047035626, -0.05617450202648916, -0.02266710387755534, -0.006000802719227478, 0.02531275066517236, -0.004431618388739997, 0.04630914635477321, 0.022485751363606792, -0.016451660280584188, 0.01823342197251696, 0.04703516453183006, -0.006302022055940572, 0.034840576208596326, 0.005223064059604662, -0.01588937633834917, 0.01986913663120571, -0.052471870310272645, 0.03544626098833396, 0.01826921192423941, -0.03151885636491432, -0.040439441804724995, -0.00676284278725278, 0.021030078342260578, 0.012093267095958989, 0.009090771623324462, -0.05686555728490715, -0.039135375117847995, -0.029419057520442413, -0.013736343271016577, -0.08857605626449465, 0.011056913039153037, 0.0060322550355399246, -0.03280901239166177, -0.012666508633462196, 0.01136317744699766, 0.026241595840765165, -0.026926773072561347, -0.05440189411669166, -0.009770175724436128, 0.023925642874377307, 0.05446457482318849, 0.05856205036300321, 0.00021084022922100953, 0.014280800397391605, -0.06199250853257573, 0.057165292865295335, -0.003480068169914636, 0.02307054457452062, 0.0691716255421329, -0.009880980015200413, -0.039029544248577, -0.014724578071819913, -0.04313668655302091, 0.010210369320064487, -0.018096865256164253, 0.03365559960947641, -0.018942251724877103, -0.051913458263483536, 0.0237662415569699, -0.00850811730773793, 0.031147633160651708, -0.04210113599228026, 0.07450347891687459, -0.0027159095655843223, -0.020730129628814934, -0.059614708827869754, 0.04843327787623765, -0.1270633144708163, 0.10664990714860309, -0.03310339918139135, 0.1781852789189692, -0.035690370446252284, -0.09382020176337676, -0.09456341972591002, -0.02822121549232791, 0.06351865634920498, -0.05140572233977069, -0.11464775047441937, 0.06294684593551884, 0.006964251458841075, -0.04724010440653433, -0.10063279582688493, 0.02547511363497629, -0.014560178115635333, 0.09455418278014728, 0.0629921511055551, 0.16573536382660317, -0.05172237399587566, -0.18019958636892855, -0.08811139728935492, -0.007154001616734505, 0.0351703637623472, 0.03637501096530979, -0.1044303587537414, 0.004439336786861649, 0.014695674929276174, 0.014050953778227565, -0.14209902623363313, -0.08044612940403371, -0.027328079659958995, 0.09091574042639396, 0.06528650234632659, 0.10212558016965993, 0.0297334366212795, -0.15880338681926928, -0.004927464322798219, 0.03882057814365096, -0.013448482636822004, 0.09864530930193129, -0.07872405224795226, 0.047679897361634874, 0.015708288798592273, -0.12438653626497598, 0.03461896928007379, -0.17720024609928486, -0.06561387279930976, 0.12166391865266903, -0.0228509414480063, 0.2945686897414918, 0.09832462652786379, -0.273497479277105, -0.17874561508612022, -0.1679427034465852, 0.043057014038460635, 0.19940084555622117, -0.21898835539968559, 0.23685072133885987, 0.07447800148493959, -0.03386454422732995, -0.012283047979091018, -0.10052748977220202, 0.10635529039132453, 0.09876292467016459, -0.2104438078124899, 0.2927521089787419, 0.17606190332550276, -0.4129470110407301, -0.15848856554881263, -0.04496848004102287, 0.012479913520546436, 0.3884038402075111, -0.30086837863454274, 0.39821961901287817, 0.26475375104625737, 0.13724034193936546, 0.031018126676082124, -0.27661636652271715, 0.029325273330852976, 0.2063512927971185, -0.19007191923056452, 0.30284066947421606, 0.2159773821143001, -0.22759425243346046, -0.08254895309203625, 0.08099699782200423, -0.07983427488503159, 0.4590083405467707, -0.21349204369260785, 0.22016848039817893, 0.20022269970430517, 0.1791367223180985, 0.06866279540955587, -0.2144912030353871, 0.021698875522970174, 0.25984594789169047, -0.226051109445359, 0.3018244018187784, 0.10729173737441065, -0.02949544977494453, -0.16004839209623176, 0.16314229819281556, -0.11890774574405502, 0.250614760663903, -0.2766168268922351, 0.29477057486182096, 0.06641794895675937, -0.11082627711479912, -0.03908398499392594, -0.28650823773987866, -0.16004988737521744, 0.1505937686612272, -0.04396451275752608, 0.33090216390815846, 0.06973252539451796, -0.12725691107547232, -0.11917505513219827, 0.15794502062274582, -0.23008235590454962, 0.11297169610443211, -0.43422820830439585, 0.14310210410114116, 0.11464815099697732, -0.15950151079474298, 0.032703887653656075, -0.36884758251256167, -0.09292779547079008, -0.15823829254110766, -0.012624996207160507, 0.19705100249515434, -0.08172314625895001, -0.04363013086802234, -0.05184132969029292, 0.21310878668724553, -0.1812128183000135, -0.1481150246210639, -0.15145722388281918, -0.004602154633514897, -0.016161986475423745, 0.059542660446501805, 0.11037613005214028, -0.2341350557211429, 0.07915125513261774, -0.27988561616839097, -0.25806337703775023, 0.09404098512494877, 0.11728000865588879, -0.2352651586017539, 0.14069620046408138, 0.46952496883570755, -0.0768266311819627, 0.15191294449497925, -0.22866401818719184, 0.16100317247471405, -0.10799480556178834, -0.045888271578407226, 0.2830296810439584, 0.01765463398688035, -0.057057444603642316, -0.11380740866255488, -0.4034598769332407, 0.27440216308119486, 0.115177020005359, -0.13391187368402574, -0.12035972912954716, 0.5211921943407775, -0.2254424836549557, -0.011111143752011061, -0.11702345359951988, 0.3995773905675449, -0.02201776124732964, -0.01086643170934977, 0.5719263980059455, 0.04004227438238076, -0.20742754932715957, 0.05964761203673024, -0.3113336705420743, 0.01399412428845502, 0.1706117996096796, -0.13347345653563247, 0.3540121139482841, 0.3577769270406384, -0.3164786388517778, 0.15585210508739483, -0.07386484725238815, 0.21593020316411615, -0.34655342644799875, 0.019183173686906075, 0.6213513653503852, 0.1487065119667242, -0.23808545847895188, 0.18454825406281755, -0.33448751535342275, -0.008522814214910013, 0.030417680590458185, -0.2053738667236725, 0.3114140841574095, 0.3076605608181615, -0.2431258352050709, 0.0073860501772628215, -0.002007015637719675, 0.17065916082096105, -0.36960230487788615, -0.10459243540272055, 0.4105086501175067, -0.09572057072363209, -0.15206747065392698, 0.03319040339812642, -0.15935400196196875, 0.34602470539575436, 0.1696601226224295, 0.03355269121495166, -0.1358719968873437, 0.37143568263044896, -0.12983883356770726, -0.18720228271989692, -0.035033112358261405, 0.09250655678745551, -0.09150579803550186, 0.0011358187418691735, 0.33018340370203697, -0.2950278523609073, -0.13361969668187434, 0.14304706062299347, 0.013617949757835418, 0.09204281461298104, 0.10332237899866865, 0.0840623373935785, 0.11310922894223924, 0.086655677443655, -0.17444321969455323, 0.10429920344972038, 0.1823474930483365, 0.00973427364456285, -0.30652929279315383, 0.21457802111777535, 0.3019104278643837, -0.29168336398557104, 0.02203969038439167, 0.15055978154199837, 0.028742307128313885, -0.22058934518148632, 0.02082878495939015, 0.001201042882435651, 0.3839093119608549, 0.22797924128285973, -0.1511163834837851, 0.011927631958247234, 0.1924023601199855, 0.07819755154430327, -0.11892803083854532, -0.013107531431098161, 0.14822865664228418, -0.1762229864464733, -0.18881993522190926, 0.14789287723752167, 0.0819422724926137, -0.3299076083073665, -0.07435238362253051, 0.08830394870526215, 0.1547359870289673, 0.017549071591832634, -0.06558943840454612, -0.17828603834828138, 0.22267127643323928, -0.055600575720093026, -0.03902513390545362, -0.0051163325477180605, 0.06309358772558345, -0.21335689603051156, -0.07195569903075824, 0.11451567621196274, 0.06531078920421164, -0.07257356930130872, -0.13326450510585122, 0.17234621504447567, 0.04411324877865737, -0.09127984700239761, -0.03920225616084817, -0.47729882591905093, 0.09722808832827448, 0.10778155377240604, -0.1532977776616386, -0.07056980875789275, -0.057030803498483815, -0.17216421287134415, -0.024714571948453504, -0.1064412277163236, -0.017688972245586045, -0.23046810369853368, -0.14525613731464976, 0.1825812908731392, 0.03224328012633713, -0.28190557943805944, -0.051033255703812695, -0.4038272296677387, 0.349539397302637, 0.021201911336724662, -0.10357853234251908, -0.11053569787474628, -0.19253516035557994, -0.0523033501588968, -0.06473619352069941, -0.14487462243182345, -0.006345041014572423, -0.00898451333767236, -0.036683528969010226, 0.18343160074316503, -0.14232815421968179, -0.1514421567832618, -0.03374884923978137, -0.38342943550798353, 0.161355592216306, 0.1999504636708645, -0.15540062212033787, -0.17919825294363537, -0.16372822909362816, 0.0232929275317467, 0.03505794955755249, -0.004667066886671263, -0.10948841469740148, 0.023885422145845416, 0.006265471405537517, 0.048784615412453866, -0.06157020267579788, -0.05223442558531921, -0.002016916020961003, -0.18766520444061077, 0.056619354527039534, 0.10120421048710743, 0.06182520939011895, -0.09783658804687809, -0.09461608224620388, -0.03239271589332642, -0.04080346656672502, 0.014504905049087224, 0.0035942725032571685, -0.04548529966156178, 0.0114211224158263, 0.036458822459679595, 0.031032380508764862, 0.0034866523412421624, 0.05696617775847559, -0.026514275642148494, -0.009633911322698764, 0.010317764488611292, 0.07048274287718187, 0.029270636524437964, -0.013046174352798168, 0.0372881912921314, -0.004541872208107252, 0.038495756526697136, -0.04841969788341697, -0.01742989930280044, -0.0011391617322544262, 0.009699930433828613, 0.05197417751810134, 0.01900885133043481, -0.02039782215654383, -0.023980059129664624, 0.0687686797742095, 0.016113745598282915, -0.020635497456599056, 0.006994366126313278, -0.021097041632502356, 0.013491769920057026, 0.007004578779723859, -0.008784458896551786, -0.0041656982693901315, -0.004753594235952171, 0.01931349806855876, 0.012344445770448756, -0.022731383227955468, -0.009659530365857824, 0.007528372572637542, -0.0032466038483673796, 0.012202459032596525, -0.013885816229449587, -0.0029612390314547148, -0.014462018617900165, 0.025944242384596708, -0.05967533063280045, -0.04129423788452463, -0.007929023237793565, -0.035080998879714, -0.03376990850014674, -0.01846182654545808, -0.024532647549065038, -0.046808184531892956, 0.013049583701985591, -0.05351341972836946, 0.01599366460500318, -0.023712967533656024, 0.02817240206124334, 0.0077270926151752585, 0.00340323588638597, -0.020267491944487043, -0.037484184823095075, -0.011246329023474073, 0.0002744184911236406, -0.03228996686579032, -0.03264835303711691, 0.02110271675960839, 0.005934016906372973, 0.01013556441303949, -0.009460664353541547, -0.006671266410138393, -0.013734869112613063, 0.021763084426944735, -0.037197697611407794, -0.002266777731434672, -0.03319339255916372, 0.04544369282908226, 0.02234423263608065, 0.020894766723175244, 0.03551949581603756, 0.04401248152932104, -0.04633456399455753, 0.01945053783443193, 0.000811151414543748, 0.006951963387254681, -0.023858946587741642, -0.009508647382991673, 0.008929508147019235, 0.03667268841249792, 0.03690695283799205, 0.0051502650845807385, -0.0354283229685302, 0.02125536182706007, -0.03690297685429266, -0.014167841008512634, -0.003707846592499089, 0.03394781358606803, 0.10494614199596695, -0.07338744290526501, -0.08451352088086625, -0.05951798336767246, -0.022239916017934777, -0.011045912688080644, -0.025815182009805086, -0.051754648614576154, 0.06303504994271247, 0.01779784043865179, 0.02603336009921822, -0.12368574381886525, -0.010604918586053901, -0.05693955853402096, -0.03247289312500933, 0.005585405589235598, 0.1964947711056295, -0.03466290786636285, -0.23063096634921812, -0.11091001790480465, -0.08707924515624112, 0.009769317693265818, -0.09864378529651603, -0.09390709496203357, 0.12375417383778897, -0.0696990613678805, 0.003700548601790162, -0.2501863352464341, 0.03283349178334945, -0.059286365469852026, 0.04949789791850344, 0.09855522279748093, 0.02438139829017891, 0.024614015537891772, -0.33133808154430017, -0.022074254046952985, -0.07718839506651623, 0.014281740609584842, 0.010800790591231263, -0.12591764569072997, 0.09266455779717377, -0.06171093021511231, -0.08995236231548401, -0.10178830633522912, -0.1299963751550425, -0.06105994824573795, 0.06189279060642169, -0.025090371818153864, 0.23975704590833996, -0.020674347861176997, -0.20736995271008754, 0.009186208744008086, -0.0475751366322425, 0.010805340115827403, 0.09059022077030551, -0.2829251761320236, 0.25825001926585894, 0.02407578066937257, -0.1077335964144513, -0.15186254994602513, -0.2069612138016912, 0.03485005750250977, -0.007348877459422818, 0.4218801085641714, 0.1787908939014395, 0.03272512901009179, -0.1091650325006939, 0.036435087788258456, -0.24518182587843174, 0.10705900111320193, 0.1171199116670176, -0.21214392321571937, 0.09009945077102229, -0.09856027988897846, -0.2796170032926294, 0.07220412186615527, -0.1554164852237693, 0.021336181256733915, 0.0412468570597001, 0.48134097112193824, 0.1496426437714397, -0.044897879580433425, -0.2271949708827478, -0.039849939664576214, -0.3159975193040107, 0.027934217502640562, 0.11293938835618916, -0.05888174556421862, -0.01599347063552302, 0.055331951332891226, -0.3500449057684514, 0.21313442467159444, -0.19069834041048528, 0.13366091797989768, -0.22757090913154238, 0.20259395063719704, 0.3264359263648762, 0.04340681594251142, -0.13775757532468955, 0.09768169599334062, -0.24621344189878672, -0.19292380531221245, 0.19728063774488042, 0.18688921419243532, -0.1800941841808994, -0.047931018524554385, -0.23364012275468665, 0.32302472875929933, 0.047538577603351284, 0.09386512650929957, 0.051353962789940984, -0.022634586918590424, 0.24699641449576723, 0.17555251516305637, 0.12127223875913648, 0.2582849441470432, -0.25389086397599037, -0.06767481093591461, -0.13797131849804797, 0.015426763817024486, 0.17519906708648902, -0.02504881852579662, -0.3671790230149326, 0.3441252010815842, -0.10669416829199652, -0.04231997667045116, 0.26629475281467807, 0.02227955760234042, -0.06666068605854984, 0.05911884343360519, 0.10242399842207928, -0.0520602891592648, 0.07099121700516825, -0.12467286044193862, 0.09003282740000987, -0.07464963516849661, 0.30094913673895446, -0.10952434906879838, -0.2635119495696507, 0.002117025178938788, -0.004891881620929655, 0.29961962829751576, -0.05294062909118447, -0.0537212244393106, 0.2395022398092698, -0.002603575428615684, -0.32941937334354143, -0.15991468456124755, 0.5869938092185317, -0.05760162909366289, 0.18143120614492295, 0.14888974575076544, 0.32090617335690974, 0.15402728782659117, -0.08731613488087074, 0.15324556287190946, 0.12810524019994468, 0.30209143299223123, -0.0936033474665175, -0.26840763555343355, -0.025929979899323597, -0.10096923522457463, -0.05331047694923369, 0.05909840396436367, 0.5059977332719924, -0.07163344960214803, 0.38514112328467015, 0.07218080667493165, 0.364058477665706, 0.08254656246473499, 0.05655502313915037, -0.014419633558955692, -0.21095575647574671, 0.1468586007775302, -0.10597104518116103, -0.16976904304384305, 0.020128185151041506, 0.20926789055230474, 0.017867164270756748, 0.061829668100358615, 0.5441014609333441, -0.27941967439665394, 0.024096389772150645, 0.0008933453063581368, 0.11152341527019234, -0.1428925479802892, 0.11398905070376815, -0.055420438393400245, -0.12203517496663852, -0.06171448488355574, 0.3735649731073381, -0.10566811988753141, 0.3510790190314064, -0.09267283737529099, -0.010307002047016336, -0.04819068389824087, 0.5205402745878654, -0.6397179989521319, 0.18258925771311052, 0.01466655207333214, 0.10898818725210589, -0.042442748267330556, -0.338612963042041, 0.29536005166709023, -0.15745949865429365, 0.07944075325448628, -0.06856768192997287, -0.12895945489452224, -0.07450686895762708, -0.10486071981207742, 0.20327230754479475, -0.12078212252187565, 0.29867564418228637, -0.4991724043416137, 0.13761698353694127, 0.301319948917856, 0.3146009651343679, -0.021845642691214102, -0.23726047634638492, 0.3983242652324468, -0.44626641221923313, 0.1073362853304718, 0.07202206323303663, -0.3214380030496997, 0.03862801586949733, 0.23144140475816105, 0.13552280550300788, 0.09891228122467575, 0.25904418498761966, -0.32403604423585486, 0.03247170979677753, 0.2120845428432253, -0.042696112525454195, -0.1899562162097808, 0.052740454570315225, 0.3613082910283266, -0.31857638367752983, 0.11920791309784301, -0.12919375306469133, -0.4612266959784127, 0.1949985533666352, -0.03098537006163624, -0.09043221966115773, 0.22577805585617367, 0.2096847041736425, -0.14898353223186575, 0.34094724137117294, 0.11670803071577962, 0.25860229146476943, 0.054695833904354216, -0.011221837024107372, 0.19937455811716231, -0.40060751664298255, 0.07699468092422897, 0.11856102259492306, -0.34920638859721337, 0.11664039250926968, 0.051267640773037325, -0.06400469854844285, 0.25862944418238976, 0.16483876528299743, -0.09936863628629249, 0.1638934060229952, 0.2657106934035061, 0.40438665819039216, -0.2557923937210261, 0.027622644502243016, -0.008513319977103397, -0.29560157416767807, -0.03987255176646635, -0.022761486459635525, -0.3234903795028097, -0.055549438225507154, 0.08404740756448248, 0.04230092936295464, 0.37963868362164027, 0.15864228909123493, -0.23691804854470705, -0.280687384385279, 0.19204422579837704, 0.09836590823119079, -0.08444010259735889, -0.006395320393748045, 0.12791771150606882, -0.2407019277091591, -0.04158734000470207, -0.0301158388940895, -0.11923503204773311, -0.05331544705127774, -0.10967511064829584, 0.06233645576528333, 0.09301066839906795, 0.02879419526271198, -0.2744323942825867, -0.3127530714384495, 0.2239590549897864, 0.024636724674844023, 0.02096424176371692, -0.17402839238024354, 0.24002885403299565, -0.4402884016008954, -0.1671777831114726, 0.013852317837335594, -0.06311500647318086, -0.10194876518595315, -0.15488006803584556, 0.0739843016451669, -0.018999290329369253, -0.4250505931653586, -0.18248543386856333, -0.4493381430937449, 0.5164324257414478, 0.02969078642836305, -0.0691166255982487, -0.27848656914290765, 0.05895353060165432, -0.29693719546679775, -0.16585523224707666, -0.010551802537583591, -0.04302628285940541, 0.00786526541102158, -0.09703288580305063, 0.10967467445982337, -0.023499034601322997, -0.27405982242143184, -0.03948622707003899, -0.5614058810853885, 0.08769510567286991, 0.30632268940657525, -0.07758106346936366, -0.20392064047340125, -0.12841631881983276, -0.1211478132484664, -0.052018863739815846, -0.012962505976086364, -0.00138753868071427, 0.10018983351561295, -0.023625206905310735, -0.013164157647968988, -0.06487955330455206, 0.050919932261817014, -0.01789943937953258, -0.1814119355541581, -0.011841307040429091, 0.2441239311469399, 0.05242662299068895, -0.07103039184243332, -0.09577399952855414, 0.07523936807595062, -0.05969650831348415, 0.017113016091005625, 0.005141705186422364, 0.014980861926173665, 0.03910524562520562, -0.04327499954743723, -0.07956846484084548, 0.011637645691950187, -0.0014191968392946012, -0.018689235117690394, 0.058750732386752304, 0.06484328452606537, 0.019086734228983594, -0.036181177675212874, 0.026460657558726227, 0.021791826941542553, 0.010859304091114361, -0.00016532141155159373, -0.03220364698231172, 0.04013966653315499, -0.010456559174947545, -0.016667898911361997, -0.022430946526253853, -0.03124478532457895, -0.038366237596807795, -0.02324165054598416, 0.04651835856209255, 0.06601889066102556, 0.05377832907587244, 0.030681974041751464, 0.002850477837357307, -0.01814731901398879, -0.010564913390695452, 0.043963701975526244, -0.026720184445468725, 0.012748425353733264, -0.026856942169492182, 0.03330041168040805, 0.011288936326953606, -0.022666111709941733, -0.04487468542511043, -0.02234090777922524, -0.006608079810513771, -0.025204815711879595, 0.03943362201888912, -0.005875366838124366, 0.017165255117765427, -0.010643490164488635, -0.00471262560504892, -0.010436609531805275, 0.0005396985217006745, 0.015243440029135882, 0.06689940771610335, -0.023777324430332675, -0.05983648960818259, -0.03697258678660836, -0.03609640750735595, 0.0072444612864428545, -0.061065016006537395, 0.009858392330896604, -0.025958192918560878, -0.047658733721340545, 0.022464685959085556, 0.05050063856932018, -0.02746239711720031, 0.0352809326723862, 0.0216488836027998, -0.034198723427492604, 0.028777842284409803, -0.009135674354918029, 0.017610139773855674, 0.054176283417532146, 0.0372263856563167, 0.003012454433247068, 0.050530700364060224, -0.02930073328357517, -0.02710287281786365, -0.053516708517543164, -0.023808200991374543, 0.002593856721758453, 0.09625101811337414, -0.00701731438588169, 0.13090605379830578, 0.08571668703716415, -0.03360731193623052, -0.06781485101159784, -0.09589862993612143, -0.0061480660704740855, -0.020324088515004324, -0.0017246269857743406, -0.030441287391221875, -0.056535715954674756, -0.027621110466610796, -0.11932804381141063, -0.012518851396752644, -0.010190242305946437, -0.051836851697974654, -0.032647381317589194, 0.09701315812716693, 0.21555172826325716, 0.07307025115064006, -0.19658550759555035, -0.08858711181432007, -0.05675697290930482, 0.007518083250748006, 0.09144553069907288, -0.06978813498051022, 0.00352086295128021, 0.003571087260150849, -0.04173096750047854, -0.07657371217912855, 0.03488872918710897, -0.07841401691617224, -0.019837816870476806, 0.32215033330603987, 0.1447992818197884, 0.09089477303229825, -0.05612035482926501, -0.0857157583731154, -0.11510506263849218, -0.08550110173616288, -0.00034093500306337795, -0.14241367631285431, 0.033046262476407094, -0.19339862863410137, -0.12809188951445064, -0.01615632139650314, 0.01756392166391156, -0.0643877085280231, 0.07410385687514096, 0.33205195839063884, 0.20265892324947188, -0.1495962015216537, 0.01680986483305981, -0.05806778521610416, -0.2933026546511738, -0.10938530121738829, -0.151688543991349, -0.21284496879291903, -0.06050870071898801, -0.009981136829689095, -0.2596303613044431, -0.061155980948024394, 0.005467127819714919, 0.0926971950469919, 0.13571170994624554, 0.14599813225741082, 0.04728228373715094, -0.04635987902798779, 0.04960076661302985, 0.2040485437897596, -0.3192652683038343, -0.03789349156046684, 0.07216122372489771, -0.2547060040848281, -0.03434987225262733, -0.01869132707458312, -0.33398494612859014, 0.24376867699343197, -0.15536647783978239, 0.14149232210858345, -0.21237828844826814, 0.2856808428044388, -0.010673934094948755, -0.006074965911183185, 0.08469873527596161, 0.05313766276927428, -0.2623454288314745, -0.019492504823825633, -0.16466010221796168, -0.26620359335485866, 0.36038651386700166, -0.09044993019226155, -0.4350021162745448, 0.2655438863243679, -0.18343675500924989, -0.37691855736974883, 0.11510593415203518, 0.21568682472782058, 0.21746521656496684, -0.12619770434374913, -0.004294498868096432, -0.045970309354554525, -0.1890765729737545, -0.03298562707832611, -0.2643002633344055, -0.17360296154443913, 0.2519355015736256, 0.10101690227359097, -0.5227663264312569, 0.10260406574050471, -0.08307020258799057, 0.0016112746458677547, 0.10101431001600682, -0.1019479646285782, 0.25737241984460874, -0.02461966025136521, -0.33334334993131165, 0.04648964601584006, -0.03086735598384703, 0.017994633019003163, -0.25279348621704034, -0.17515704262851492, 0.09696494605846269, 0.4189712878738038, -0.2104729672656986, 0.1587629704661078, 0.0349786485171111, 0.15159071850793648, -0.013606709954265873, -0.030096385386291644, 0.089255583848192, 0.3592880003863114, -0.08958769024359331, -0.03816701502196515, 0.016914670253823, 0.17069972827130228, 0.279016830798338, -0.08085300841725182, 0.269923375149401, 0.05228702060808291, -0.012045224757014823, 0.08832785041475957, -0.07119622147473002, -0.20907110506334947, -0.023186360603170274, 0.24703003449601113, 0.12235570602889141, 0.17704004259097167, 0.05425338608162754, 0.019734692017844, 0.05307109507625004, 0.158914784802323, -0.08496971912189183, -0.14110142488304359, 0.23447282095295466, 0.05756758834395009, -0.09349605675984553, 0.2654948531911637, 0.06215717634755655, -0.07140012799893065, 0.10122514478211252, -0.14965666751028123, 0.35514535325841556, 0.14041222126933017, -0.1635666961657495, -0.06531065930613617, 0.03157386953418556, 0.42935848913805724, -0.23739360892429107, -0.08131748182236852, 0.0745301910831124, 0.08782451503637424, -0.25688442186327765, 0.025251297986958902, -0.04570614818273369, 0.013538447083992775, 0.0942751976459706, -0.21890897945619464, 0.10283868751824028, 0.10538534487427499, -0.1027498226775986, 0.06373431821488491, 0.05221360261193587, 0.2624607752905645, -0.16250621631412626, 0.130319347441508, -0.0817466251514665, 0.19055850241057795, 0.030484805924180465, 0.06389260166162364, -0.12235849378826827, 0.07464174752425026, 0.07234808778049077, -0.19558214201940902, -0.15169868433278733, 0.13218943691250223, -0.07657687096271516, -0.0480172272513963, 0.5167549458050732, 0.294351953702092, -0.10887353162780475, 0.10702677615785894, -0.004861663137643485, 0.05590326629913112, -0.050870449118231305, -0.03411440457339412, -0.18527377741263296, -0.25163794397962624, -0.04847793587169759, -0.13470449649184832, 0.0539630490436897, 0.10266678711590063, -0.2084559720825173, 0.0021632810161368913, 0.6027711004346447, 0.3806561686457209, 0.058244585018711964, 0.18051926090922704, 0.06399784489202896, 0.11974086801133882, 0.00991394635908835, -0.08744911359838041, -0.05156097971196126, -0.029929873805814147, -0.05201605885159197, 0.1162455365566665, 0.07135541093045795, -0.03423008232793022, -0.007286737791968465, 0.12164370189232826, 0.4729935604987589, 0.4315485103286957, 0.026271667186516287, 0.3571190131692072, 0.19121531396853966, 0.033355961265857985, -0.055920788947541565, 0.23071395936057995, 0.05484168251302628, 0.12011686755950259, 0.24699182082340018, -0.0899536301316995, 0.02459149296912389, -0.03902582297552595, -0.02129633410034447, 0.012229443433743986, 0.3458054806771918, 0.3020816878562193, -0.3523969033123494, 0.2612013877048474, -0.02606403907206646, -0.08352186812339146, 0.14420687520926162, -0.04213300250065489, 0.052324889793123754, -0.06002339539731115, 0.09938789888370038, -0.24642128492033602, 0.014089442106747695, -0.11899041746442642, -0.013389618865251427, 0.10966501877411768, 0.07303933570720299, -0.14972919126238726, -0.235380700727609, 0.2573129884486359, 0.11546729009905306, -0.3018829594721075, -0.11428979138019224, -0.0781423291296156, -0.12969106049680398, 0.025473041501126236, -0.000682220568910153, -0.018451725057464043, 0.21938458333951041, -0.037510790101011826, -0.22160260514595315, 0.019325246636190774, 0.012432692269844682, -0.03568734274212129, -0.3965706369401856, 0.36658089256697046, 0.25065398996911703, -0.013231911662277888, 0.002156591140181144, 0.0028947127280386335, -0.11617250176690264, 0.16871878290757772, -0.1254557996443843, 0.27211737373275985, 0.2490517749517731, -0.010695504089651883, 0.02642791061745265, 0.09127690316108518, 0.2090303238991542, 0.07349120232709848, -0.48425632515056266, 0.2028237957242471, -0.049220973607291926, -0.15687974073243688, 0.016483889804936785, 0.1538704557037342, -0.11764280975294153, 0.20549848015708866, 0.12480522670335706, 0.06515422980700236, 0.322434331603615, -0.24815358614282715, 0.1063509055972588, 0.16710738092533847, 0.01876982819968959, -0.3623013679097724, -0.34187536861082485, 0.21078229034070148, 0.07536156665100319, -0.21475316137319506, -0.19028566449356646, 0.18591582382090488, -0.1976040078691268, -0.16927680476179444, 0.14679997233172315, -0.11298903301693242, 0.07280923835197332, -0.1767809954882443, 0.23136488973750116, 0.13577650899322147, -0.4008249818026492, -0.4205832259063, -0.454374908898829, 0.19664963246174647, 0.38986075670282033, -0.09870139978450401, -0.24211919124617268, 0.06761679349345817, -0.13309391828228773, -0.20225326607546348, 0.03718702695620534, -0.10883244336487038, 0.1683220512824028, 0.025589776109753746, 0.044804637587402135, -0.09429027985274678, -0.3810825957403408, -0.2741908387650674, -0.2701782128642689, 0.29917667631404987, 0.4930865038529984, -0.12192896633368772, -0.20416054025127478, -0.04412457632253382, 0.03317199003516538, -0.0877864167452274, -0.04930728401581983, -0.1343572321509118, 0.029206691098765718, 0.05164623731455229, -0.013491143627490957, -0.03428631405971475, 0.02888909159879932, -0.037030021601377104, -0.12326273495476703, 0.04323413498636205, 0.4303781545379514, 0.023300874243388694, -0.045108036997194276, -0.0793349993707225, 0.14774039954232676, -0.08278555830920825, -0.021867647677618278, -0.048823430787221324, 0.019915868276184568, -0.04374273842422734, 0.059199533802675994, -0.061075523123214986, -0.012554940836706135, -0.020635765294964928, 0.007228115417688004, -0.04848296902880097, 0.16046300935941876, 0.009911223960529323, 6.19399376977468e-05, 0.004062132658817081, 0.013572871779065878, 0.016248077073849797, -0.0355084212902362, 0.007098242811675575, -0.0196746654708931, -0.00735048522727506, 0.005094350257325528, -0.032689066179937463, -0.020917664280624117, -0.022483994191744208, -0.05543208088388117, 0.03033859818688405, -0.018239827034677854, -0.039592128747079944, 0.05000198884162941, 0.026518357075787632, 0.030188458767322998, 0.009553985609744698, -0.03319663646046837, 0.010776146358570576, -0.03615485654516061, -0.036664401129452955, -0.019795760038248372, -0.061075859166876995, -0.04527902493389358, 0.058611275129355773, -0.03343505080312968, 0.02320923592896531, -0.011950125225343071, -0.04314150063631305, 0.02105687459608882, 0.04368134058031745, -0.0155457756656896, 0.021498380586713123, -0.017215932416844472, 0.027959328311780617, -0.06403377851263614, 0.06992921221634443, 0.039750892235085336, 0.050643811071314, -0.002628456664443203, 0.0008523616385203621, -0.001999078989067485, 0.010571422427963235, 0.010603419495287857, 0.0027055575445805095, 0.0011991715041502762, -0.013541179123649792, -0.008048646501776302, -0.017682976062333985, 0.04218034388801753, 0.11829245836960775, 0.017777740640918246, 0.013515643170152991, -0.0020980078287200212, -0.02717249523394939, -0.00905409326496994, 0.11307032532063305, -0.03679240180628214, 0.005344667820771764, 0.008071707145485996, -0.06170852753607113, -0.039209788455621127, -0.11336916588371926, 0.006842642909614161, 0.09023737489802518, 0.055734883853488806, 0.35107548928093396, 0.1679766808934273, -0.08715093343738153, -0.05715263941229541, -0.09268222831906414, -0.009182453431748892, 0.06656185282468863, -0.060084877072413306, 0.004623663028283596, -0.1545961198451581, 0.1009270906950704, -0.07583484433630827, -0.06908620129558327, -0.00702845818074513, 0.009649458280018518, -0.044441293463060534, 0.2680305087472955, 0.36235988409540976, -0.03657514406722228, -0.029385647383598796, -0.0838604981352111, -0.06437754930248145, -0.016429437073806633, 0.004415235357228445, -0.03481063749396858, 0.03104529172662519, 0.05336755992310861, -0.10103439143308941, -0.1069977712789812, -0.028784032994947785, -0.12634966037566117, -0.07792325696438848, 0.15678461123328935, 0.31247931042734894, -0.008240773085521317, 0.1417577005575665, 0.02165323881013638, -0.23952557799958774, -0.25870406577496563, -0.11373387241008395, -0.05733119779062607, 0.10694536752359311, -0.10839258773166145, -0.18710702007056101, 0.06880219032007132, -0.10353340287703094, 0.0893607035706604, 0.037423636097342554, 0.22288440760745867, 0.3420055658386757, -0.14491254051982685, 0.23334343167034177, 0.003499931820010344, -0.22093865819184696, 0.059123761251884815, -0.09158908276376514, -0.1800665590842277, -0.11481322545544664, 0.041639218002475456, -0.2869671467560044, 0.02696920914725022, 0.011893612386160525, -0.08104831419895674, 0.31770053293122935, 0.30895389434169934, 0.14024389664464917, -0.037040361892387304, 0.18239214039727775, -0.13705314371250327, -0.22127400127732405, -0.2851753912098226, 0.04308704592950618, -0.052514691718772134, -0.111961369485128, -0.00829942841796384, -0.25691440814135963, 0.26620201516739617, 0.006689760826462226, -0.42733188226159685, 0.22127607983959463, 0.1439986302276061, 0.026657560274212448, -0.09397399510835269, 0.1706080848493835, -0.13945192282279553, -0.1209144675465619, -0.2140012560158134, 0.17716132694241726, -0.020844506505040505, 0.2903117973121707, 0.2537007308895013, -0.5210547596429592, 0.12159195696873726, -0.1449716691644208, -0.22983439159010263, 0.2911514232582957, 0.19575674412978483, -0.011188366995048927, -0.030455258952834692, 0.01251362057162477, 0.0222944105531459, -0.09097621783182816, -0.061907499769560614, -0.1111731020702484, 0.016356634700842188, 0.2633442811567921, -0.03556507205135728, -0.4240808947753359, 0.4806428087917776, 0.1861157337019836, 0.06137280475398729, -0.038283079142908974, 0.1831822495042343, -0.14267640724033256, 0.04806696555131047, -0.088097495254941, 0.04053023965308157, 0.20160057640363682, 0.3730721573472104, 0.02028683028156642, -0.23532189578352164, 0.1930041072806867, -0.09577701960420097, 0.04440004184779963, 0.4287730230589205, 0.04923778158224858, 0.16434067910400352, 0.08660184653740499, -0.20406450023134143, 0.34753335982457123, 0.09652265872558162, 0.18500153233960903, -0.0888580898332153, 0.009725516784583414, 0.16338334763649257, 0.11950107264589455, -0.14264049756632188, -0.0016038496236001304, 0.0590031659556593, 0.11538489224369244, 0.4029817209476471, 0.012237906597820035, 0.0263593104841517, -0.11101435160747536, 0.06787853911404743, 0.15700035090083098, 0.11654623779081369, -0.18065726767023685, -0.06302898858810557, -0.10593531253152401, 0.5242888731721472, -0.12827669712702666, -0.29648654665218327, 0.12184530828178118, -0.07922594521886432, 0.17293996283123417, 0.28091703038584487, 0.04053299261746779, 0.20163849739032141, 0.32852756333713656, 0.025287672025497924, 0.11914443258580845, 0.2587218669640962, 0.03296611230242725, 0.06744229397505823, -0.19171748317022969, 0.36888086305334045, -0.2594248420908706, -0.38214133037561204, -0.04349981630998622, 0.2853304319265725, -0.1496179081510563, -0.04402559001420631, -0.051048246990641, -0.08907868579384697, 0.1279484795484308, -0.39099322453698504, 0.02476515283467839, 0.16921392401584306, -0.12917105893202155, -0.2607448426498218, -0.2880929815041749, 0.3163416070117371, -0.21141759479779923, 0.03560185828693312, -0.10889137904187465, 0.1750423651400072, 0.25716510754311334, 0.21459644658695237, -0.11232664152097166, 0.007212851358845339, -0.12728919131508962, -0.3623425245959537, -0.11845618778308917, -0.011503846015097876, -0.21659425787656622, 0.2483381765497236, 0.09878732868570045, 0.31117569980879956, -0.17294375742322754, 0.047145400563298655, 0.22310652636397107, 0.16431207158538944, -0.02613092220872052, -0.1003802464900462, -0.03551263190739115, -0.11070171902944095, 0.04958426162728205, -0.18529678994848708, 0.19766784361696219, -0.11442675514960947, -0.22186463803402057, 0.01768677742433175, 0.21211586983659547, 0.42011987404064516, -0.20550275102812962, 0.10585238469376598, 0.05197709600353591, 0.16565255017494376, 0.28112728834425343, 0.1445730103396064, -0.15122798185043235, 0.04852797213024954, 0.08538323976910264, 0.11192841567670572, 0.02293036240617386, 0.01732766413136815, -0.06628600404040988, 0.09919789713012936, 0.6420632356740642, 0.05360003308072154, -0.40243844484518365, 0.3418251771714442, 0.18359181082899523, -0.27299265318744853, 0.2350823556575211, 0.03091931765016786, 0.05429604009581519, 0.043021447515204744, -0.16984543867985596, -0.007107563088255832, -0.00167249718168232, -0.045633447773376454, -0.06435288950781812, -0.13348371479278653, 0.5966882092273578, -0.09862056322676957, -0.4099602053366727, 0.7197208551549577, 0.2341784634418843, -0.2695498328620996, 0.040427214018991506, 0.5389391539714927, -0.15996047212041906, -0.009461009870962244, 0.14877596638624668, 0.1885160766228449, 0.02355490523784595, -0.12748469463817624, -0.04141953237358609, 0.013511791669335613, 0.3999392913138938, -0.08928637098112464, -0.3403468428056319, 0.29254231048961093, 0.04858641955641537, -0.2401124564322459, -0.01778944610489112, 0.4872386883132256, -0.03410012083952995, -0.19407438141961406, 0.03159765727298552, 0.24105969426333287, -0.07434503821555305, -0.24854375581060942, 0.0852497313005665, -0.19509036436114718, 0.1376131045565736, 0.03979000078627539, -0.557220124032426, 0.4241995705100976, 0.13644571140596692, -0.191768356251316, 0.021826067119644455, 0.27692700465802383, 0.20753994685953892, -0.07293213365278156, -0.10315800032018282, -0.05458858068764616, -0.0031185635946761113, -0.20462942115966098, 0.005389798878338619, 0.03714489256749409, 0.2235125339411393, -0.028854562052562257, -0.18542176181318104, 0.28601427559116493, 0.13240427662604587, 0.09959367477686211, 0.013480824870325604, 0.17282151319704175, 0.19248879249448828, 0.2754050260432706, 0.06888051247494174, 0.05501892492498692, 0.07651687465008662, -0.5040206516750313, 0.1778133142017076, 0.13267984223551643, 0.1519164895387897, -0.2847651557245719, -0.33166700004487903, 0.41209768276678116, -0.039152035070030754, 0.10130049120952854, -0.26243879105335544, 0.03769673052794874, 0.2020185892813539, 0.23402745418387313, -0.15905358698773725, 0.09967233136104936, 0.011738293737946295, -0.16725186570880846, 0.2422658076670893, 0.15141141884510248, -0.21278116526636678, -0.37722123630259713, -0.4974466160933223, 0.2926978530594549, 0.26036471603875533, -0.29616113827495877, -0.23871353619087116, -0.05854141267353341, -0.045320287517249154, -0.02024916533260528, -0.06238362120599033, 0.07303486724099102, 0.07887684986740749, 0.04557261998908148, -0.03176673726332415, -0.013524001251485434, -0.18842727049113536, -0.36635933524816006, -0.15190250427427562, 0.20160552358422168, 0.5446433548395224, -0.27298148465723, -0.19161975657134048, -0.16045852759747173, -0.12104727377005303, -0.0066213711088094675, -0.05095122061217895, 0.03679546266609336, 0.11423456994101343, -0.04706628387871605, 0.010187902475872259, -0.05493943874904226, 0.004779511280832959, -0.15203918014587484, -0.09543645814516777, 0.036365075301054914, 0.5046492392259151, -0.22354609718190024, -0.08698560715329871, -0.15031579752154023, 0.11201406661476909, -0.15447032643632075, 0.04812271033404716, 0.0935893339761542, 0.04306945627643997, -0.037268202225961965, 0.0869298771256334, -0.07851339902734665, -0.09899972853190737, 0.0015843969638837246, -0.01666489921827267, 0.024361160112141875, -0.05305742784787374, -0.10305903433639914, -0.03225424744653366, -0.0033560300344939553, 0.016712324005099147, -0.016513595828843625, 0.012148734814175577, 0.027052922576458017, -0.04485678342876377, 0.003503685971555977, -0.00025278581514550817, -0.006499935684792878, -0.0656260868664836, -0.04600509657243143, -0.010174235968951397, 0.04219495041563231, 0.01238463994740036, -0.014500887583518725, -0.023838663966829342, -0.015797967934295762, 0.01184156948425043, -0.021918051680745513, -0.011412971353578875, -0.020676887926281837, 0.027100395185454203, 0.027441763524799746, -0.006007907142236046, 0.04603378559420803, -0.030301200205124668, -0.041802652468541056, -0.006734346665444948, 0.033008197258064316, 0.04224401394782179, 0.012363087855494323, -0.035222632931682644, 0.05983145391208878, -0.059919157863581186, 0.012956874651487276, 0.019380911257310143, 0.03685450010311073, 0.01812300330035433, 0.04789822562672835, 0.00720273877938793, 0.020982106974394052, -0.02946747219598758, -0.022372291770325858, 0.039750142724928786, 0.003709991141528672, -0.0492478277407548, 0.03451906647214393, 0.002313361880278094, 0.025555209587488546, 0.0199921036490567, 0.062242624368401375, 0.006665399451850922, 0.1543581730124356, 0.02292730473176481, -0.031576179203783424, 0.08350171920800278, -0.011879185874592671, -0.08680510865070191, 0.022271791811767652, 0.01793353924969751, 0.012767869565647861, -0.0010193145632930573, 0.007752449782923572, 0.02289594907444517, 0.030594608959144412, 0.05015650648853351, 0.09490040676976877, 0.06562672551771923, 0.33067083119568125, 0.20814353175626574, 0.039912996028374934, 0.08083569454830389, -0.11350842298876303, -0.06934210685494814, 0.06379308902528921, -0.14600984184012156, -0.028702208678006727, -0.08756244387420951, -0.03455071580895228, -0.0017086325110577383, -0.05508748815725121, -0.05466248686012586, -0.039245206185963076, -0.01558985912641845, 0.1417843341648264, 0.5001343194547737, 0.06873383751847051, 0.05115675413944336, 0.009046976983260785, -0.20243048013884812, -0.12288458411893406, -0.25270966146769336, -0.08094991688807539, 0.1422540818688294, 0.20666208993295412, -0.14996837621524658, -0.1801007883787386, 0.011461632164928487, -0.21943842263193278, 0.002335275866873645, 0.26405473568936416, 0.2934872055497335, -0.08326745464707015, 0.13566716004383608, 0.07293395662294655, -0.2759826865534849, -0.269083275093782, -0.09589032937233248, -0.08487921331239066, 0.13122639338861516, 0.07286229025305861, -0.11798266876267795, 0.03626737578098135, -0.0911038038253003, -0.042050414136214576, -0.06005717935828068, 0.25335659448894254, 0.04934531575935524, -0.010524338419484974, 0.12467381127617184, 0.0910125303360116, -0.17495473170623044, 0.018440593885454996, -0.07673696345996814, -0.06055422890049307, 0.08904878831749774, 0.2108422190020956, -0.1210509046957911, -0.11127018000058349, -0.042073256706827364, -0.06975231157855676, 0.1739310615752911, 0.4584449458502376, 0.04080187411760108, -0.07525192583165771, 0.01572663879160304, 0.004201761710174321, 0.02663014819504773, -0.15105009656280105, -0.026342517918248386, -0.13609970493881596, 0.17979655118632265, 0.1811129661614265, 0.05272632019289824, -0.008710234495352307, -0.1364880412606976, 0.0093957907046133, 0.1781868558395038, 0.2691396619257452, -0.1049477009650865, 0.22171911682014897, -0.1255770799524011, -0.04213371550665347, 0.1171809989500273, 0.24552994780240786, -0.02992177471075367, -0.03839109776061396, 0.050014570341919425, 0.12796646293541133, -0.3494468380048943, 0.21172323160253617, -0.22051858152726464, -0.06459994976288352, 0.19790303626131708, 0.29582434972992827, -0.25293212219576383, -0.0010148801377080755, -0.27365506100222287, 0.1815660013428128, 0.0029814109293170637, 0.0007229391453130166, -0.2059237219001823, -0.10845932395435047, 0.25169731278470253, -0.10360499118792589, -0.4507068517048026, 0.3359114763711269, -0.02416368545687908, -0.21252364162046955, 0.17015242221389215, 0.1495999543314977, -0.0774332361380538, -0.057678797090736866, -0.0926923197025039, -0.0951089618334519, -0.15011130815388093, 0.04210945634328901, -0.17021720220834388, -0.22325728419118016, 0.39306034208989293, 0.06866530310937004, -0.22974812540674627, 0.4205940811034516, -0.24122381855380048, -0.12766756151432734, 0.3074940591798537, 0.17641024201612715, -0.11283305175798498, 0.012794432859400752, -0.055060289164179196, 0.16207622267799557, -0.15457969874423522, 0.3702182534586917, -0.09134846653053592, -0.03702248707915226, 0.1614361577253704, 0.21084363207081855, -0.20033172793919315, 0.2517780718659568, 0.020201466840127615, 0.06391805190963526, -0.1592246480631662, -0.06482528248840834, -0.04469796371653577, 0.10726072055578567, 0.017820564602318165, 0.02708891162916633, -0.3335623242303749, 0.26091494975338425, 0.06766269879405191, -0.14837994141562177, 0.19635698815440328, 0.06001601435663016, 0.022648454907382713, 0.4931870688683302, -0.0740714948291554, -0.02685903517932535, 0.03530937405836655, -0.2181049093889815, -0.012951870108173584, -0.048919368271954616, 0.12026810675059334, 0.05973581926579476, -0.35407782695696377, 0.5340656589615375, -0.09940067462819806, 0.19772006449656288, 0.5532752107241472, 0.27783601727042356, 0.10172128048638704, 0.12523092862517013, 0.0827625778799106, 0.14923641764118678, 0.14214173530426216, 0.13859923679358066, 0.35332812147950776, 0.0454257493050791, -0.048696832553252606, -0.0828159187721264, -0.15938196767617682, 0.5809852076770874, -0.1589709876750719, -0.21146575166544254, 0.1754396386506872, 0.6702669300315659, 0.2448235316863665, 0.30463083806188446, 0.12309137141037137, 0.1927268467450538, 0.09491330937512527, -0.00775607941113407, 0.001054704688606317, 0.05378034297716505, 0.12019020074203196, 0.1355689881797651, -0.029696002165344414, 0.43338653874796645, -0.17176063148289392, -0.247422810390162, 0.08711132885408229, 0.18305061095251665, -0.03551751777808403, 0.29157051967217923, 0.571531603177515, 0.61556032157151, 0.15090256328470766, -0.20827852258003338, 0.022251320446413283, -0.16871417892395354, -0.01955082143516527, 0.03511992057052758, 0.07628167292739015, 0.35782712175596293, -0.3033645966798373, 0.19059264222171457, -0.015161124472373083, 0.05737725754629007, -0.3755933797947424, 0.18151275776796427, 0.17636042233742646, 0.31842741470827723, 0.15669521205030656, -0.15182278268729743, -0.027153118562997357, -0.15844882465463395, -0.031811073716965746, 0.09022557651068386, 0.5233660593490093, 0.15113690182122902, -0.3089809574366877, 0.31618569798591445, -0.016873281683395636, -0.09520057996914882, 0.12196581253577143, 0.1462302144496206, 0.09772936137446098, 0.022165235592952536, 0.29731984028361697, 0.1838580861936445, 0.02011151254851944, -0.0670899370954104, 0.11121471471956461, 0.006184293230129945, 0.6034293666127557, 0.14503114534600975, -0.4304148303792656, 0.13420632649061096, -0.005901089218143935, -0.2666020570840315, -0.3750443349036827, 0.0949879897884057, 0.33811630501891365, -0.03767147592138936, 0.17457176120697007, -0.3391992692769304, -0.19620568823120335, -0.1287393370048736, 0.1831849328743066, 0.21307752472566155, 0.4344615333369572, -0.03753167125435534, -0.1922541741940155, 0.07591951720790707, 0.12010986947564606, -0.10990477462076773, -0.10883808487371742, 0.2574245107022624, 0.6774012117619929, 0.04232524278030523, 0.11521144129422013, -0.08076033673366288, -0.12396647802784364, -0.08735632391998965, -0.007521158249991835, 0.0038916644794726035, 0.3071469055371926, -0.001223168933825102, -0.2887114770322797, 0.33418496809432485, -0.151344235982959, -0.0942458158063267, -0.07298785527352848, 0.21113614653186186, 0.4210402103408264, 0.029174052037861033, -0.15223206919449464, -0.170492413355699, -0.010270057776663124, 0.0029530150851521946, -0.03831999452607455, 0.04186184954145711, 0.220449219556217, 0.08724969396011814, -0.25267586511224205, 0.33674987653709143, -0.1771466444985902, -0.14502527718715263, -0.2542681880679354, -0.02058977528366572, 0.19587129372841178, -0.11288974447101935, 0.2528561881546476, 0.03972845264766801, 0.21217182480450733, -0.21610646561213304, 0.09155451627144656, 0.033041989728585755, 0.32246999648653396, -0.019701781424665114, -0.24409041909739082, 0.24993056625179297, 0.02368031170885671, 0.09058281642543442, -0.24732523385813257, -0.04775553915084239, 0.5353050705502383, 0.14298730141243912, -0.10438283487399454, 0.3403378366025837, -0.15154172134174007, -0.1801853683134023, -0.013881867624113822, -0.0537040294457594, -0.08219936008028739, -0.2801654617903145, -0.20578243923102063, 0.19132744084849576, 0.03451109314978392, -0.13768747436202555, -0.19595361163936295, 0.08570207024318237, 0.5836442069201465, -0.276515881283766, -0.23147172799511584, -1.626801637824647e-05, 0.02125285397023366, 0.015241800730904255, 0.22857929269624955, 0.08410491859840123, -0.26314659533260093, -0.29697896280842373, -0.19408978010037933, 0.028353106249725563, 0.174735384998212, -0.3613050024850503, -0.14530803166245693, -0.1658262995735904, -0.036185362901864755, -0.22581406361315473, -0.10271563243347118, -0.005278867481370932, -0.04065134536304717, 0.0034925929534963857, 0.2946748807782185, 0.028452765441771687, -0.08904641919642556, -0.22719542620987368, -0.18772471465879387, -0.07740429087713331, 0.3242900053702165, -0.16549102066858506, -0.086862997760572, -0.0912723161902671, -0.024537318607523183, -0.045176450747264285, -0.022820457592152413, -0.010296192393982561, -0.007497853461961943, -0.030506259516275395, 0.12678939728896527, -0.017653164394199176, 0.010762287015541314, -0.09780141406983243, -0.06051109629854188, -0.03631989026214705, 0.1899646089385584, 0.06832504321527977, 0.02369477539501183, -0.01037757469254569, 0.022535837080117305, -0.024983638104732055, -0.029326334769002652, -0.014474084621498328, 0.044953815133718246, -0.03983942051652888, 0.08313502178594481, -0.03538524305358759, -0.014721277926802343, -0.002365597033379131, -0.05593630510737204, -0.059973363445651864, 0.02482995054957439, -0.007732582387648451, 0.022948143794184143, 0.026750333165378806, -0.007199227375859633, 0.017976524876774615, 0.012411450297659362, -0.033497790506643, -0.041361976241674064, -0.002080444213437348, 0.001314439312140705, 0.006647436847024636, -0.003328319744447397, 0.023737696118717913, -0.017773491081821483, 0.017403936930459628, -0.010192511422406287, -0.0359029281277237, -0.017866507069627852, 0.016873555970314643, -0.034318392868600806, 0.04733565073376467, 0.009539319525623861, 0.013460026788604092, -0.051711728528822436, 0.012750564591139971, -0.00646502357840802, -0.05964865911715929, -0.019665219797190766, 0.009931463122448754, 0.057147837453410635, 0.05607196677001975, -0.01852096508080357, 0.01625995028521956, -0.04363661639167324, -0.019052956400725112, 0.027250128585607405, 0.05268056647134579, -0.042934978719259796, 0.04702784557779012, 0.12050774702643491, 0.05501683226009448, 0.059367014421584915, -0.046252984792565816, -0.02983893078350778, -0.005809831072475301, -0.06838902789864548, 0.023818614135586717, 0.002295915638026621, 0.09340882198979834, -0.02114220462808423, -0.035843568043339956, -0.022075776637961012, -0.007559757934608769, -0.029981125427245608, 0.036805784264954865, 0.2336550276417032, 0.15256013182027708, 0.08795332706633856, -0.07255005372351829, -0.0575757103819094, -0.07098248111661853, -0.046334236904918516, -0.013389976198252006, 0.1319245455681514, 0.04654145725953518, -0.1493671158384593, -0.08344660554245764, 0.06718073990627708, -0.041888684040107274, -0.06744233521306847, 0.33921374451977215, 0.3354967842047942, 0.18649213219286445, -0.28445464661337605, -0.1236398917776136, -0.12224716622787596, 0.03690684925499973, -0.10921575763200586, -0.01525892226018969, 0.04393971748480347, 0.217552048422493, -0.3044551782296719, -0.0021889716359869142, 0.029919404935075077, -0.11495234051513978, -0.00554774674940496, 0.5216521194435644, -0.07245225382580278, -0.10618554817989584, -0.21311965559153465, -0.20766319458669485, -0.22987855017362838, -0.010784952724873552, -0.11702388490781641, -0.02997798213270398, -0.19491785707270634, 0.32316193075729727, -0.31557976132959936, 0.002554557310271767, -0.07772086535926731, -0.08287869387426769, 0.04625722762177184, 0.20888675729811904, -0.4112924507511844, -0.11508202428589853, -0.042424845023522374, -0.21513227683626396, 0.0386355936162909, 0.26036382198777497, -0.1821977246949551, -0.2375644588667133, 0.4156812449817929, 0.275734018996155, -0.043819386839964045, -0.14511287145684318, 0.05097081308871871, -0.17083473686814898, 0.08510294106451266, 0.1659479197291435, -0.2109756315071642, 0.19864776816698634, -0.07249379026966844, -0.15876174571325372, 0.04052362196941922, 0.21884480464605102, 0.057130427111218955, -0.272674223203372, 0.3192501642788579, 0.11137773520194456, 0.08464987643511915, 0.13943276363091486, -0.08676725848013403, -0.2102746353797207, 0.2886334949554978, 0.17242131213825068, -0.3237907374851957, 0.26607731697967923, -0.014090846520769805, 0.03202844263013962, -0.1467478505396821, 0.25310655768917556, -0.24034490828648594, -0.2124407284444554, 0.3771998094216715, 0.006395569248532673, -0.25815971280917877, 0.07656015069031945, -0.09965882965760503, -0.012770655135496583, 0.1662642495867148, 0.07472407995915657, -0.6651336523685434, 0.08461985235256542, -0.06333066092170679, -0.036997920594356325, -0.3381061871067689, 0.05318719359329798, 0.01434347069599097, -0.19421636097841175, 0.13151931314392526, 0.46573457358740855, -0.47697769642936466, 0.10891615192455172, -0.32480208511745967, -0.044798197743610386, 0.191790931715279, -0.07173593704528712, -0.5815114429294505, 0.19857115983799956, -0.15944340236610424, 0.2076671686153566, -0.5152519378508904, 0.3204815389974147, -0.08556269838714543, -0.08054790860466221, 0.13935574222745956, 0.35357087617918836, -0.32272789362832804, 0.24919656692522812, 0.17477487225833854, -0.23743701441685308, 0.21959639201890288, 0.2547492079716252, -0.8749850193306925, 0.2788326018454022, -0.10799197492301696, -0.1630937862559698, -0.08858434393645247, 0.2113271850541315, -0.11671850807780984, -0.08890725411299284, 0.06965183988010613, 0.3452716782231145, -0.002808175424524399, 0.2335014888858066, -0.07697911466459358, -0.1638445624483953, 0.26634632153525795, 0.35103017429175576, -0.480828820075777, 0.16011647375230323, -0.2043379989400826, -0.10254129900569928, -0.26229226778623, 0.04613022740937215, -0.015316022965010133, 0.12465128923303297, -0.25015127976540646, 0.5530570123682855, -0.25857066047176835, 0.14460361112682607, 0.08179892437514817, 0.09665304450696173, -0.35378777887113605, 0.1556894360390471, -0.3890252713178482, -0.45005813208688983, -0.025814735487587948, -0.2073868107564632, -0.15758725433271942, 0.4937681516821503, -0.1472235470940605, -0.09374852525565745, -0.12250435613074549, 0.5397380400345043, 0.12145376618101233, -0.12639301556926094, 0.1873204988559053, -0.08359340131549056, -0.32468721066708556, 0.08079586987846805, -0.023623428574982067, -0.20406666981529833, -0.1652623455321353, -0.47045008597059934, -0.2973878306198186, 0.47595505223618, 0.08671092687692127, -0.37463880396220295, -0.08510313316567786, 0.33551173771425374, 0.31921501950545783, 0.02379484449839109, 0.09875988034097205, -0.2753431372318138, 0.03430425405630468, 1.5060808057758626e-05, 0.23152812565791617, -0.04954571823210782, 0.06237361857210333, -0.3394755805587701, 0.1605975713649527, 0.41198725155945737, -0.14134706323393995, -0.4940404737245012, 0.06033232686790033, 0.005465148807115023, 0.37629403367277237, -0.22585446736035472, 0.43543746278156215, 0.07936681901678616, 0.2210041887079636, -0.04535150387784929, 0.13586459203465154, -0.16155013096685003, 0.20248616462530475, 0.25111894484551744, -0.12236170782079941, 0.07938803052159195, -0.3637353503626895, -0.6091287218762497, -0.3612102215017155, 0.050769734743134724, -0.05322938762406344, -0.2668244057041762, 0.7871791398884885, 0.39451364901278674, -0.003942398671428214, 0.2781591911846605, 0.09507030376725502, -0.045200861872704536, 0.20870520060401096, -0.04886424214189686, 0.058180257663240816, 0.05728604708222225, -0.41428167174237013, -0.7550344742589205, -0.0640876434148932, 0.18053877510847732, -0.24582115207525515, -0.45932851975861894, 0.6600435927699819, 0.3712799879111523, 0.14203150784418955, 0.09149023133933552, -0.09139998253614305, -0.10881751217036244, 0.11847301795679387, -0.10938992623986585, 0.38163521903093467, 0.03069392038287649, -0.27560980604267227, -0.7748633191458467, -0.3255397330408448, -0.005769836167245071, -0.32491480891826763, -0.039809363643323534, 0.4787940912740349, 0.5218318010021674, -0.008866459313076357, 0.0011614482219765353, -0.0500201506001462, 0.058879378849140365, -0.08718081098071455, 0.11106547066945228, 0.3351011557500288, 0.1544440844461929, -0.2410857104310428, -0.5553257903271739, -0.2025343022257435, -0.2056148438563683, -0.08749947652325801, -0.012092673075319825, 0.25493635484850286, 0.37090872112221024, -0.0777192564063304, 0.09029778780162791, -0.10515830173362993, -0.05403204879193988, 0.256951718519155, 0.10558973901063945, 0.4664634470131982, -0.18601653746982413, -0.08902464783563771, -0.5334734995317684, -0.1910606601847567, -0.04070625899834409, -0.26725657485129095, -0.26757834512321926, 0.22077294419782822, 0.032819570600665635, -0.1680975630042237, 0.040541155269982185, -0.23897690901473462, -0.0009320350481202439, 0.12557135711007483, 0.07055493684003704, 0.14765145522009468, -0.35081930726695343, -0.08740139547441586, -0.3910954927259385, -0.08807546702509103, -0.08937019853607223, -0.21801608559058305, -0.07074391414720335, 0.4559323051038742, -0.12403520775541475, 0.20670043240274164, 0.1960442737381238, 0.031807709549173876, -0.05854947911712094, 0.1407047666579684, -0.06600459541038585, 0.44687687902173895, -0.002028735186120363, 0.06185006345871099, -0.2755960613437818, 0.13526782397958065, 0.004900007643111905, -0.11845223232479798, -0.12637184632993614, 0.41406474643969077, 0.37779684889838117, -0.07572524583667316, -0.13634591099240545, 0.010999270267947687, 0.004439818900146549, 0.24265118910189298, 0.05303284522453395, 0.2353212575586119, -0.24273767348540312, -0.08571756115182906, -0.1417543152812835, 0.17046884604895943, 0.10440046033867989, -0.11383849637326889, -0.08971146588997676, 0.634030042832906, -0.0515945292607598, -0.18814272451652136, -0.16901457696832314, 0.12214051698243285, -0.054355781753127136, 0.11904757031040432, 0.10794913065217399, -0.1139517677099979, -0.24566328834759427, -0.2184820501936579, -0.11141900025198645, -0.024515387060447227, -0.22143688960665384, -0.14379165545901287, 0.02993913035976572, 0.40134388565388834, -0.32438978285267506, -0.08738227874549287, -0.15327991607626404, 0.07734870941530116, -0.10131252049753872, 0.11213109637553334, -0.07911408380233291, 0.10643416366470372, -0.16135260179767466, -0.16681706780272457, -0.07777059514771452, 0.13470763863108487, 0.10398591117526891, -0.05085418730974446, 0.03704575599297008, -0.01460490332542375, -0.12538171342602963, -0.03718196527462743, -0.1144333580219479, 0.03653446897811161, 0.029381833753627462, 0.08026117385822064, 0.10135793577934733, 0.08381328326484455, -0.0988829046190077, -0.1497582740765937, 0.007734120406174373, 0.054348314827526195, 0.11600538809636837, -0.0025454231108156832, 0.006086507360726657, -0.03974098870783161, 0.015601283925143898, -0.02775983026193424, -0.008327339937376669, 0.003271821907487034, 0.023332994989900387, -0.057533988908925374, -0.07786161644352808, -0.07094486338553908, -0.012617886353240215, -0.0559618033594296, 0.028537974697158134, -0.09211245904539578, -0.027018919416574413, -0.06445256594507141, 0.02726628063396018, 0.006016461985731647, -0.011746324462302723, -0.01759337841117395, 0.0016030180546872652, -0.008971508677036125, 0.018335121201579905, 0.025682002197975316, -0.022915454609403748, 0.06583700213298298, 0.001307978657846794, 0.003816330057921596, -0.01619783875105881, -0.014776235673490632, 0.034974663358577414, 0.029855204207026767, -0.019457804976310368, 0.019688996091335068, -0.004728645005242127, -0.03879850657643582, 0.03406377700421829, 0.03245244505471965, -0.01043392424569667, -0.04719462097260164, -0.053484097272912826, -0.00845239723256424, -0.017456840674042476, -0.005042088087554232, 0.009293496747851696, 0.041068672627980064, 0.028434921663139934, 0.03183577614173074, 0.013296466750127835, -0.0009498001863351103, 0.027344298472272193, -0.03417909250727737, 0.1558789633484876, -0.018859244226450435, 0.0023401181763369216, -0.029743283387670325, 0.01328192619270825, -0.01837589117065607, -0.061483282338651676, -0.0022224550644218467, 0.0007107709222162034, -0.009677588746785119, 0.0645844268993408, -0.006077702547754011, -0.029399112273451017, 0.05638840747529177, -0.031292616752458716, -0.12830510705897782, 0.031196798099808114, 0.13921345887168646, 0.1020586157032802, 0.11244998238646264, -0.10579506052946003, -0.0958360366825643, 0.040411656362609204, -0.14015298514183186, -0.014691705177485888, 0.11233027035162899, 0.03202330688924722, -0.16728520335683467, -0.052278475627241694, 0.12749081360178052, -0.08546382926057124, -0.18086402612671873, 0.327959374515838, -0.24923105449259564, 0.07205102843382598, -0.15152104402899336, -0.17272924313357133, -0.1423226550527886, 0.042413746500657455, -0.12009106635057532, -0.11076675455269244, 0.01258512405677177, 0.28145500457963607, -0.3120095476063339, -0.16778933052999223, -0.013017896326298848, -0.06339229427746838, -0.16616154158279497, 0.31779616332787824, -0.6614373309787278, -0.001713439996814442, -0.07108181970386238, -0.25682101874160074, -0.2256846571072545, -0.059639636450452435, 0.08279004223423846, -0.0621131924788772, -0.15666829950019454, 0.4099786962841973, -0.3305201853878882, 0.041571593093983804, 0.0893146507787018, -0.17657172822351572, -0.30267778850458404, 0.15381571588280069, -0.8705588534483312, 